tree
version=v3
num_class=1
num_tree_per_iteration=1
label_index=0
max_feature_idx=15
objective=binary sigmoid:1
feature_names=ADDRTYPE PEDCOUNT PEDCYLCOUNT VEHCOUNT INATTENTIONIND UNDERINFL WEATHER ROADCOND LIGHTCOND PEDROWNOTGRNT SPEEDING HITPARKEDCAR bikerack_dist radar_dist t_circles_dist marked_cross_dist
feature_infos=[0:3] [0:6] [0:2] [0:15] [0:1] [0:2] [0:2] [0:2] [0:3] [0:1] [0:1] [0:1] [0:1.0407490954339793] [0:2.1753608479401705] [0:1.4549983940261431] [0:0.74964490046889698]
tree_sizes=3432 3479 3484 3454 3460 3462 3501 3477 3461 3464 3458 3490 3493 3484 3475 3490 3494 3502 3468 3474

Tree=0
num_leaves=31
num_cat=0
split_feature=7 3 0 2 9 3 3 0 10 9 14 14 12 15 8 8 12 0 14 13 3 5 15 14 5 2 5 12 14 13
split_gain=8507.71 5842.15 2080.57 2006.74 1986.41 1184.67 319.036 318.847 250.93 240.073 225.435 198.817 158.455 148.722 148.245 139.214 136.799 98.8794 110.515 97.63 78.6371 121.887 76.9708 75.9568 70.7127 51.1237 49.6536 51.6756 52.9551 44.4763
threshold=1.0000000180025095e-35 1.5000000000000002 1.5000000000000002 1.0000000180025095e-35 1.0000000180025095e-35 2.5000000000000004 2.5000000000000004 1.5000000000000002 1.0000000180025095e-35 1.0000000180025095e-35 0.038032105799412706 0.065339694307078908 0.08662223562416492 0.04353005362136466 1.5000000000000002 1.0000000180025095e-35 0.080246619559614804 2.5000000000000004 0.21993098353922527 0.74667567978009519 1.5000000000000002 1.0000000180025095e-35 0.067759211176034576 0.24426414927100673 1.5000000000000002 1.0000000180025095e-35 1.5000000000000002 0.11087284296588852 0.064081793086023062 0.90927659580908926
decision_type=2 2 2 2 2 2 2 2 2 2 2 2 2 2 2 2 2 2 2 2 2 2 2 2 2 2 2 2 2 2
left_child=9 3 5 4 7 8 17 26 11 20 -9 13 -12 -3 -7 -13 19 18 29 -17 21 -1 -18 -24 -20 -21 27 28 -2 -4
right_child=1 2 6 -5 -6 14 -8 10 -10 -11 12 15 -14 -15 -16 16 22 -19 24 25 -22 -23 23 -25 -26 -27 -28 -29 -30 -31
leaf_value=-0.99118712265357045 -0.93487098196314544 -0.95449929125256461 -0.90444325603569609 -0.78840913036725757 -0.7779065215615234 -0.89436567547660406 -0.86964477732570822 -0.95394874288156273 -0.914885967109204 -0.79867845509480229 -0.83883878468586437 -0.99114919517896294 -0.89423464177360323 -0.9907542778539663 -0.92639862986816668 -0.94774125928328912 -0.93691854387388196 -0.98618913191339352 -0.92386634860057648 -0.96224056051609819 -1.0016236809167047 -0.92398958718271884 -0.96204386488861637 -0.94015396105827254 -0.87606165433575123 -0.78436470453277929 -0.89291446568620891 -0.92694041888569267 -0.90068423136509135 -0.91623951999505304
leaf_weight=1895.9501758217812 140.95757573843002 511.65375411510468 2254.1078037023544 710.85491925477982 383.23472887277603 963.44604134559631 414.98557448387146 71.793313324451447 407.09842175245285 15.369836091995237 342.18108773231506 225.69390892982483 207.29055255651474 632.59009599685669 577.7844962477684 1931.9479498267174 1892.5121861696243 48.334089815616608 2446.0285201668739 3152.02980697155 3044.8454236984253 69.973201155662537 849.79014813899994 742.60576486587524 79.882700741291046 4.0446937084197989 264.11849915981293 639.87054467201233 576.77332282066345 1237.8785094618797
leaf_count=9375 697 2530 11146 3515 1895 4764 2052 355 2013 76 1692 1116 1025 3128 2857 9553 9358 239 12095 15586 15056 346 4202 3672 395 20 1306 3164 2852 6121
internal_value=0 0.269983 0.0488974 1.48718 1.08374 -0.199544 0.504717 0.724244 -0.321345 -1.17383 1.3334 -0.352851 1.55114 -0.744971 0.618396 -0.301857 -0.281447 0.446687 0.458129 -0.385991 -1.18593 -1.03002 -0.128812 -0.290829 0.298793 -0.494369 0.490883 0.413704 0.597917 0.573384
internal_weight=0 21709.5 18372.4 3337.07 2626.22 11891.2 6481.22 2242.98 10350 5026.14 621.265 9942.87 549.472 1144.24 1541.23 8798.62 8572.93 6066.23 6017.9 5088.02 5010.77 1965.92 3484.91 1592.4 2525.91 3156.07 1621.72 1357.6 717.731 3491.99
internal_count=132201 107348 90847 16501 12986 58799 32048 11091 51178 24853 3072 49165 2717 5658 7621 43507 42391 29996 29757 25159 24777 9721 17232 7874 12490 15606 8019 6713 3549 17267
shrinkage=1


Tree=1
num_leaves=31
num_cat=0
split_feature=7 3 2 9 3 11 15 15 14 12 9 11 8 14 13 8 10 15 12 12 3 8 15 12 14 14 4 11 14 14
split_gain=7841.63 5064.5 1610.9 1612.95 1021.43 613.226 387.31 243.029 290.4 228.01 215.111 171.101 137.145 125.724 116.267 108.665 104.248 102.986 100.964 83.617 76.9968 92.4775 74.191 67.011 65.8287 64.4978 46.6815 45.5738 42.8846 42.7018
threshold=1.0000000180025095e-35 1.5000000000000002 1.0000000180025095e-35 1.0000000180025095e-35 2.5000000000000004 1.0000000180025095e-35 0.0088671274415352396 0.0088671274415352396 1.0000000180025095e-35 0.098953296696767654 1.0000000180025095e-35 1.0000000180025095e-35 1.0000000180025095e-35 0.044217672198068818 0.65458093674454176 1.5000000000000002 1.0000000180025095e-35 0.035031627606353581 0.099996622203752286 0.088746042380948686 1.5000000000000002 1.0000000180025095e-35 0.01683719802530222 0.0053479665195296424 0.044217672198068818 1.0000000180025095e-35 1.0000000180025095e-35 1.0000000180025095e-35 0.34609795861990927 0.18305889188461169
decision_type=2 2 2 2 2 2 2 2 2 2 2 2 2 2 2 2 2 2 2 2 2 2 2 2 2 2 2 2 2 2
left_child=10 2 3 7 5 6 18 8 -2 13 20 15 -11 -8 26 -6 24 28 23 -9 21 27 -17 -3 25 -14 -15 -1 -16 -25
right_child=1 4 -4 -5 11 -7 9 19 -10 12 -12 -13 16 14 17 22 -18 -19 -20 -21 -22 -23 -24 29 -26 -27 -28 -29 -30 -31
leaf_value=-0.047196613942851358 0.00015311600881908545 -0.012011820137013074 0.13291539231787824 0.14171942200867335 0.0484085845862312 -0.055486692777340432 -0.042336883076329011 0.037388743576204239 0.083666734418638256 -0.049064069332193767 0.12424173432269406 -0.025113913599435302 0.021001793254142923 -0.0035526272467916956 -0.014479511141043561 0.058167993537293142 0.034756128011348683 -0.0054587734405754694 0.027597519516577865 0.0151218143616499 -0.06295501217515867 0.033734829551904169 0.015020092564855576 0.019164395839056773 0.0045810610341833488 -0.04438110092648398 0.01418549326972293 -0.065440143335837961 -0.028034608739165162 0.0064823197815393474
leaf_weight=1439.6511070132256 139.02409081161022 340.16891206800938 755.18945179879665 408.73314648866653 1229.6711818128824 515.01930525898933 294.02410107851028 734.05720579624176 414.2862665951252 119.50370334088802 16.265295684337616 107.78732757270336 52.644515454769135 2008.9133028686047 1214.7565049529076 122.75874695181847 280.05652010440826 1963.9623739719391 944.19481122493744 990.5368917286396 2957.9674005508423 32.341699495911598 528.67918163537979 1098.3858921080828 4181.9329735636711 133.03679984807968 454.9001737087965 449.11663250625134 1122.8340577334166 1677.3963362127542
leaf_count=7287 687 1692 3515 1895 5955 2571 1473 3565 1983 603 76 527 257 9947 6057 595 1371 9752 4627 4856 15056 159 2596 5376 20667 670 2256 2275 5604 8251
internal_value=0 0.25461 1.36793 1.00522 0.04625 -0.0358167 -0.00100218 0.677003 1.25366 -0.092488 -1.14576 0.723025 0.0764786 -0.20659 -0.178769 0.793235 0.103676 -0.277984 0.265482 0.49199 -1.15786 -1.00198 0.46302 0.178676 0.0657521 -0.516874 -0.00555186 -1.03069 -0.419811 0.230013
internal_weight=0 21832.5 3441.83 2686.64 18390.6 16401.7 15886.7 2277.9 553.31 11826.6 4895.34 1988.9 4767.17 7059.39 6765.37 1881.11 4647.67 4301.55 4060.15 1724.59 4879.08 1921.11 651.438 3115.95 4367.61 185.681 2463.81 1888.77 2337.59 2775.78
internal_count=132201 107348 16501 12986 90847 81174 78603 11091 2670 58657 24853 9673 23568 35089 33616 9146 22965 21413 19946 8421 24777 9721 3191 15319 21594 927 12203 9562 11661 13627
shrinkage=0.05


Tree=2
num_leaves=31
num_cat=0
split_feature=1 7 2 3 11 5 15 10 8 12 11 13 12 8 15 8 3 15 5 12 5 11 2 5 12 12 3 5 13 12
split_gain=7775.98 6126.46 4294.33 897.052 559.916 311.902 298.832 212.988 198.683 167.191 149.836 119.801 108.575 93.8843 83.9315 72.8216 63.1431 62.4632 56.3745 52.5788 47.179 46.7665 38.3494 57.2476 37.2817 34.6945 32.0567 31.7048 30.4273 29.5659
threshold=1.0000000180025095e-35 1.0000000180025095e-35 1.0000000180025095e-35 2.5000000000000004 1.0000000180025095e-35 1.0000000180025095e-35 0.0088671274415352396 1.0000000180025095e-35 1.0000000180025095e-35 0.098953296696767654 1.0000000180025095e-35 0.65458093674454176 0.0077626604837977902 1.5000000000000002 0.035031627606353581 1.5000000000000002 1.5000000000000002 0.01683719802530222 1.5000000000000002 0.099996622203752286 1.5000000000000002 1.0000000180025095e-35 1.0000000180025095e-35 1.0000000180025095e-35 0.014976558145188818 0.26280071859028825 3.5000000000000004 1.5000000000000002 1.1339841123499428 1.0000000180025095e-35
decision_type=2 2 2 2 2 2 2 2 2 2 2 2 2 2 2 2 2 2 2 2 2 2 2 2 2 2 2 2 2 2
left_child=1 16 3 4 6 -2 12 8 -8 11 13 -10 -3 26 -13 25 21 -15 -9 27 -17 22 29 -24 -16 -11 28 -14 -5 -1
right_child=5 2 -4 10 -6 -7 7 18 9 15 -12 14 19 17 24 20 -18 -19 -20 -21 -22 -23 23 -25 -26 -27 -28 -29 -30 -31
leaf_value=-0.063423267176043546 -0.06770132331997937 -0.0064741715502730293 0.12048512070036388 0.045952776693261935 -0.053898498036687593 0.13610291984138337 -0.048002444521223687 0.014841733832944648 -0.0013444908257028267 0.0030520871999096758 -0.024507079122191029 -0.021129172580186283 0.0095496269245141981 0.053021936245084257 0.0073665335740289231 -0.0098116356032084198 -0.061704435431322049 0.013625514324860401 0.051402355899502296 0.02405703032202311 0.016472217962768636 -0.06417298720184525 -0.067701323319979356 0.079122945631369596 -0.010451093924187445 0.014244536057688327 0.062015391432082172 0.038233818034550428 0.026439651206807187 -0.043417838131341271
leaf_weight=219.43193964660168 19.116860702633858 751.13341236114502 788.33006693422794 761.41092224419117 505.02923168241978 1043.3870519250631 273.80083027482033 702.67523498833179 2635.5982400476933 2389.9736697971821 106.42182266712189 2412.1041020452976 2506.9214092642069 124.2083425372839 352.10772921144962 1414.455014243722 2870.4410460591316 529.61532011628151 124.05168651044369 1016.7673324346542 194.16713613271713 435.88565513491631 11.972175389528275 14.903446882963181 1766.4418661892414 974.79184663295746 215.98086281120777 100.18370553851128 270.84265002608299 1166.3790136426687
leaf_count=1135 99 3712 3509 3615 2585 4798 1398 3415 13034 11784 526 12115 12230 588 1747 6980 15054 2584 599 4916 951 2277 62 71 8792 4801 1026 481 1286 6031
internal_value=0 -0.112051 0.120145 0.0304754 -0.0398081 2.64872 -0.0100439 -0.0849147 -0.117646 -0.0986465 0.664563 -0.196412 0.216539 0.729169 -0.295027 0.0422252 -1.14126 0.422195 0.406554 0.288261 -0.132781 -0.997117 -0.908766 0.274355 -0.149795 0.125892 0.889962 0.213038 0.816658 -0.931711
internal_weight=0 25636 20917 20128.7 18120.2 1062.5 17615.2 13240.2 12413.4 12139.6 2008.48 7166.25 4375.01 1902.06 4530.65 4973.39 4719.01 653.824 826.727 3623.87 1608.62 1848.57 1412.69 26.8756 2118.55 3364.77 1248.23 2607.11 1032.25 1385.81
internal_count=132201 127304 102674 99165 89540 4897 86955 65616 61602 60204 9625 35688 21339 9099 22654 24516 24630 3172 4014 17627 7931 9576 7299 133 10539 16585 5927 12711 4901 7166
shrinkage=0.05


Tree=3
num_leaves=31
num_cat=0
split_feature=7 3 0 2 9 3 11 4 3 10 0 9 15 8 15 11 12 8 12 3 5 0 5 2 15 12 0 12 5 8
split_gain=6683.24 3864.98 1723.15 1130.58 1136.02 875.96 294.955 249.903 211.313 199.498 199.448 176.155 135.125 117.614 110.365 103.131 90.0345 86.6395 78.9122 74.6757 105.443 74.1098 76.2914 57.8781 52.6596 69.8999 46.3512 44.0061 38.8468 44.2269
threshold=1.0000000180025095e-35 1.5000000000000002 1.5000000000000002 1.0000000180025095e-35 1.0000000180025095e-35 2.5000000000000004 1.0000000180025095e-35 1.0000000180025095e-35 2.5000000000000004 1.0000000180025095e-35 1.5000000000000002 1.0000000180025095e-35 0.067177141232272128 1.0000000180025095e-35 0.051519706092884913 1.0000000180025095e-35 0.27348410350332741 1.5000000000000002 1.0000000180025095e-35 1.5000000000000002 1.0000000180025095e-35 2.5000000000000004 1.5000000000000002 1.0000000180025095e-35 0.060299264133628148 0.076641815556105844 1.5000000000000002 0.071701481614590432 1.5000000000000002 1.5000000000000002
decision_type=2 2 2 2 2 2 2 2 2 2 2 2 2 2 2 2 2 2 2 2 2 2 2 2 2 2 2 2 2 2
left_child=11 3 5 4 10 6 7 9 14 13 28 19 18 -3 21 17 23 -7 -12 20 26 22 -4 24 25 -15 -1 -20 29 -2
right_child=1 2 8 -5 -6 15 -8 -9 -10 -11 12 -13 -14 16 -16 -17 -18 -19 27 -21 -22 -23 -24 -25 -26 -27 -28 -29 -30 -31
leaf_value=-0.053805779658997716 0.025538967493918603 -0.05364495076369058 0.015082063202556237 0.11037301282447128 0.11672883155449065 0.037224327202391064 -0.053187538639996174 0.0036655347617896672 0.055945405037290577 0.018867891836280307 -0.010532796160971008 0.10319454756215252 0.0094277933844148579 -0.019816339617736795 0.029894721287250944 -0.023421782818210595 3.3479126328973868e-05 0.012094075605071818 0.079283534079239021 -0.06046488655938051 0.012606573630910332 -0.046960656721567157 0.055198534487103261 0.13713509345985295 -0.026153969536150307 -0.0053233941101563462 -0.033186118995596328 0.046895991419946381 0.037510549363437992 0.0077147820425588808
leaf_weight=1424.7871012985706 723.39373540878296 231.03785037994385 4017.4256406873465 818.81247363984585 445.31582349538803 969.70625492930412 475.59023582935333 1852.0743843317032 441.98330479860306 374.5240023881197 32.974940851330757 17.596495240926743 142.22759908437729 3529.8424823582172 1975.7987828403711 102.84204196929932 671.5743163228035 530.66547518968582 342.23071712255478 2783.8500331640244 70.245820418000221 46.871836483478546 122.11649857461452 5.916261374950408 1975.949196010828 1088.5185214132071 337.01091745495796 151.2261533588171 275.50507183372974 670.68898589909077
leaf_count=7588 3474 1211 19514 3515 1895 4535 2500 9245 2052 1809 163 76 679 17794 9660 514 3311 2572 1532 15056 346 239 583 27 9897 5384 1787 698 1306 3239
internal_value=0 0.22727 0.0419356 1.17455 0.870706 -0.186847 -0.294801 -0.257213 0.450997 -0.334924 0.591914 -1.09408 1.05341 -0.370479 0.403091 0.500318 -0.348162 0.566721 1.28707 -1.10612 -0.949326 0.311152 0.32531 -0.383656 -0.386461 -0.328009 -0.99723 1.38716 0.407086 0.339276
internal_weight=0 22014.8 18412.4 3602.38 2783.56 11808.2 10205 9729.44 6604.2 7877.36 2338.25 4633.49 668.659 7502.84 6162.21 1603.21 7271.8 1500.37 526.432 4615.89 1832.04 4186.41 4139.54 6600.23 6594.31 4618.36 1761.8 493.457 1669.59 1394.08
internal_count=132201 107348 90847 16501 12986 58799 51178 48678 32048 39433 11091 24853 3072 37624 29996 7621 36413 7107 2393 24777 9721 20336 20097 33102 33075 23178 9375 2230 8019 6713
shrinkage=0.05


Tree=4
num_leaves=31
num_cat=0
split_feature=1 7 0 3 3 3 11 5 4 10 3 14 14 15 15 7 11 12 4 12 0 5 3 14 0 14 15 13 3 14
split_gain=6211.17 5274.54 1729.31 595.428 719.016 310.879 274.048 240.156 231.978 181.664 178.553 137.15 109.484 107.536 99.2925 96.0993 91.6828 77.4268 70.074 67.7136 66.8641 65.1507 61.4938 58.3189 57.4018 51.8622 69.1224 50.2872 44.15 37.1697
threshold=1.0000000180025095e-35 1.0000000180025095e-35 1.5000000000000002 2.5000000000000004 1.5000000000000002 1.5000000000000002 1.0000000180025095e-35 1.0000000180025095e-35 1.0000000180025095e-35 1.0000000180025095e-35 2.5000000000000004 0.025540998022417553 0.066762412709476152 0.04353005362136466 0.051519706092884913 1.5000000000000002 1.0000000180025095e-35 0.27348410350332741 1.0000000180025095e-35 0.099996622203752286 2.5000000000000004 1.5000000000000002 1.5000000000000002 0.26480009837658008 1.5000000000000002 0.072512097475023629 0.038405666382305109 0.79382611715015305 1.0000000180025095e-35 0.064081793086023062
decision_type=2 2 2 2 2 2 2 2 2 2 2 2 2 2 2 2 2 2 2 2 2 2 2 2 2 2 2 2 2 2
left_child=1 22 3 4 15 11 8 -2 9 12 14 -4 13 -6 20 28 18 27 25 -13 21 23 24 -7 -1 26 -5 -14 -3 -10
right_child=7 2 5 16 6 10 -8 -9 29 -11 -12 19 17 -15 -16 -17 -18 -19 -20 -21 -22 -23 -24 -25 -26 -27 -28 -29 -30 -31
leaf_value=-0.05173073308444609 -0.065907664695207591 0.12242949895866917 -0.0082815320397688057 0.028853509879049857 -0.016018694792799899 0.019008486387891509 -0.052022312208591819 0.11756524438793768 -0.01967252795556448 0.017460953967270511 0.051492274016043553 0.071175362883186613 -0.012690812856963296 -0.051007304757307886 0.027950254182518543 0.0047382978492980033 -0.022881109864441831 0.00033132651253376652 0.044120465330362402 0.039363068150339353 -0.045641790210237426 0.050757655911615518 -0.05936531567777438 0.0067932466193740609 -0.028738142777294896 0.024254252678480238 -0.035950925917883396 -0.021973299116768354 0.027681014691761919 0.005452616879135965
leaf_weight=1425.5174755901098 18.12666317820549 12.431147098541258 80.895580902695656 76.332574039697647 411.94903443753719 2372.9451177418232 462.93339419364929 1110.9611138999462 161.23602360486984 376.56860671937466 447.11347462236881 488.23434616625309 2687.8458737134933 470.33437965810299 1999.0215773284435 661.23830100893974 101.54709662497044 660.01911523938179 400.76880741119385 254.44919875264168 45.841368496417999 124.1130452901125 2697.0658747851849 1661.1188235729933 335.29818271100521 944.68052911758423 89.270464599132538 3191.477228090167 1122.1573046445847 1691.0908953398466
leaf_count=7779 99 52 386 356 2093 11418 2499 4798 815 1805 2035 2090 13508 2445 9652 3149 513 3260 1870 1142 239 580 15054 8056 1797 4433 423 16234 5204 8417
internal_value=0 -0.104494 0.105264 -0.1081 -0.185318 0.491294 -0.288858 2.29239 -0.252804 -0.328368 0.419521 1.07084 -0.362748 -0.693414 0.375529 0.397784 0.462163 -0.318135 0.523976 1.20552 0.288286 0.301527 -1.09241 0.279572 -0.947049 0.394595 -0.121603 -0.354593 0.574383 0.0653119
internal_weight=0 25453.5 20995.6 13521.9 11909.3 7473.73 10113.5 1129.09 9650.52 7798.19 6650.15 823.579 7421.63 882.283 6203.04 1795.83 1612.6 6539.34 1511.05 742.684 4204.02 4158.18 4457.88 4034.06 1760.82 1110.28 165.603 5879.32 1134.59 1852.33
internal_count=132201 127304 102674 67076 59481 35598 51076 4897 48577 39345 31980 3618 37540 4538 29945 8405 7595 33002 7082 3232 20293 20054 24630 19474 9576 5212 779 29742 5256 9232
shrinkage=0.05


Tree=5
num_leaves=31
num_cat=0
split_feature=6 1 2 0 3 11 10 1 4 3 3 5 15 5 11 0 12 2 5 4 5 15 12 5 3 7 0 12 0 3
split_gain=5773.09 4554.57 3107.33 1273.21 701.046 279.741 197.697 193.4 187.337 166.023 127.425 126.971 91.1365 89.7212 76.038 69.1966 67.8522 60.3271 56.8535 54.7944 54.3893 54.3045 70.8688 46.7177 46.5725 65.0944 48.9638 41.3343 31.9945 26.8981
threshold=1.0000000180025095e-35 1.0000000180025095e-35 1.0000000180025095e-35 1.5000000000000002 2.5000000000000004 1.0000000180025095e-35 1.0000000180025095e-35 1.0000000180025095e-35 1.0000000180025095e-35 2.5000000000000004 1.5000000000000002 1.0000000180025095e-35 0.051519706092884913 1.5000000000000002 1.0000000180025095e-35 2.5000000000000004 0.27348410350332741 1.0000000180025095e-35 1.5000000000000002 1.0000000180025095e-35 1.0000000180025095e-35 0.059653158777421354 0.05269359160935503 1.5000000000000002 1.0000000180025095e-35 1.0000000180025095e-35 1.5000000000000002 0.25819353585146926 1.5000000000000002 1.5000000000000002
decision_type=2 2 2 2 2 2 2 2 2 2 2 2 2 2 2 2 2 2 2 2 2 2 2 2 2 2 2 2 2 2
left_child=7 2 3 4 5 6 8 17 13 10 -5 -9 15 16 19 18 21 24 27 -6 -19 22 -2 -8 26 -26 -1 -12 -3 -23
right_child=1 28 -4 9 14 -7 23 11 -10 -11 12 -13 -14 -15 -16 -17 -18 20 -20 -21 -22 29 -24 -25 25 -27 -28 -29 -30 -31
leaf_value=-0.050400080586145916 -0.019993404846290905 0.12145429909253974 0.099919011888624634 -0.012646000082855638 0.01987674547906269 -0.050369857637525633 0.0083547120064367524 -0.064889306745018319 0.0013250453600322145 0.047585951500911189 0.012179939516315812 0.1042716414342641 0.026963604454577069 0.0060609862977459746 -0.019923512953529877 -0.047032464339028135 -0.0030814920410659574 -0.06521590800586996 0.04745741890909505 0.041178358137441105 0.078704674879824799 -0.0095921633263220153 -0.0070652096944395148 0.042326649946662818 -0.059044042625042092 -0.030267099906355739 -0.027911006769622011 0.030993350699623636 0.10306969730737425 -0.027157704262307056
leaf_weight=1294.3294628858566 3155.0754703432322 338.08913052082062 834.54194708168507 353.5660158842802 1110.6124315708876 460.51959954202175 673.70585042238235 16.79572169482708 1980.468014344573 461.19969646632671 3717.1314421892166 32.670551225543022 2012.3882835656404 443.07789964973927 97.291819304227829 45.894359111785889 778.6638919711113 10.908605158329012 128.37290854752064 414.5867482572794 16.484868869185448 245.59649020433426 1596.3784033060074 119.08887048065662 2618.3102066963911 212.46029242873192 297.69923165440559 316.8402980864048 788.74209368228912 1935.4350952655077
leaf_count=7282 16147 1466 3466 1628 5176 2554 3224 95 9837 2064 17869 140 9609 2193 497 245 3837 61 589 1905 75 1178 8011 555 15061 1078 1628 1505 3267 9959
internal_value=0 0.213406 0.107724 0.0290131 -0.156312 -0.24393 -0.211755 -1.02971 -0.249375 0.371734 0.331046 0.936699 0.364238 -0.316379 0.458665 0.280536 -0.341523 -1.05157 0.294001 0.513341 0.427855 -0.372961 -0.312997 0.269155 -1.06073 -1.13768 -0.923895 0.273152 2.17171 -0.503595
internal_weight=0 22007.3 20880.4 20045.9 13010.5 11388 10927.5 4499.66 10134.7 7035.39 6574.19 49.4663 6220.63 8154.23 1622.49 4208.24 7711.15 4450.19 4162.34 1525.2 27.3935 6932.49 4751.45 792.795 4422.8 2830.77 1592.03 4033.97 1126.83 2181.03
internal_count=132201 106781 102048 98582 65073 57495 54941 25420 51162 33509 31445 235 29817 41325 7578 20208 39132 25185 19963 7081 136 35295 24158 3779 25049 16139 8910 19374 4733 11137
shrinkage=0.05


Tree=6
num_leaves=31
num_cat=0
split_feature=6 3 2 9 3 11 15 14 12 9 14 15 14 15 11 12 14 10 3 5 7 15 14 13 5 12 14 4 11 4
split_gain=5340.27 2717.71 855.013 746.682 597.226 435.156 240.987 188.638 167.274 118.473 106.611 104.706 92.9346 108.755 87.5185 84.2923 83.5183 73.479 65.5904 84.872 57.3643 51.0357 55.174 49.1368 42.0486 42.1808 38.5181 38.2213 37.5734 35.3523
threshold=1.0000000180025095e-35 1.5000000000000002 1.0000000180025095e-35 1.0000000180025095e-35 2.5000000000000004 1.0000000180025095e-35 0.0094588808999798383 0.044217672198068818 0.082965425696649955 1.0000000180025095e-35 0.30779753851507369 0.059653158777421354 0.030943332962474684 0.0069916864256115386 1.0000000180025095e-35 0.026256437139045276 1.0000000180025095e-35 1.0000000180025095e-35 1.5000000000000002 1.0000000180025095e-35 1.0000000180025095e-35 0.0094588808999798383 0.048766362392258289 0.80007365544720899 1.5000000000000002 0.0053479665195296424 0.21719781744700808 1.0000000180025095e-35 1.0000000180025095e-35 1.0000000180025095e-35
decision_type=2 2 2 2 2 2 2 2 2 2 2 2 2 2 2 2 2 2 2 2 2 2 2 2 2 2 2 2 2 2
left_child=9 2 3 11 5 6 15 16 10 18 27 12 -2 -14 21 24 -8 -10 19 28 -20 -6 -23 -12 25 -3 -17 -9 -1 -24
right_child=1 4 -4 -5 14 -7 7 8 17 -11 23 -13 13 -15 -16 26 -18 -19 20 -21 -22 22 29 -25 -26 -27 -28 -29 -30 -31
leaf_value=-0.041718771559834639 -0.0040200191190679453 -0.014276919874158104 0.093151826496644607 0.092935542897853052 0.046636394840452206 -0.048915976596555583 0.010179721110280022 -0.0054996129712584808 0.0030966231858755751 0.07229881561930078 -0.0035108791387027855 0.01107802393314425 0.05857556767462762 0.027539739205527949 -0.018652324032840655 0.02497999125580784 -0.044150253287063929 0.028464944369496932 -0.057921325349583275 0.0040278575443588906 -0.029050380846490833 -0.017178926306261968 0.023252520781718904 -0.022240198003570247 0.038714209191047975 0.005454574461756196 0.011098418937645661 0.0069519810296197531 -0.05959115475760144 0.040202987066970633
leaf_weight=1244.4640654623508 154.34229503571987 318.79436886310577 849.84037265181541 480.09636142849922 355.70706102252007 461.37413217127323 86.500525593757629 3356.4916978031397 4779.2689491063356 19.591430962085724 465.72793766856194 895.30781288444996 405.27734804153442 929.9959292858839 99.218137159943581 999.00748179852962 388.14200273156166 303.57413578033447 2448.1629174202681 89.648929566144943 185.05733229219913 71.564146235585213 1172.0253789424896 1411.5912226140499 83.244767472147942 1801.1072210222483 999.87456174194813 754.91965915262699 385.0671348720789 417.06818240880966
leaf_count=7102 753 1635 3467 1933 1576 2619 409 17008 23625 80 2347 4218 1724 4275 510 4720 2056 1428 14589 436 960 333 5386 7288 385 8669 4789 3742 2253 1886
internal_value=0 0.202253 0.98217 0.720882 0.0441495 -0.0210694 0.00697506 -0.0676509 -0.0411858 -1.00761 -0.154425 0.491831 0.654273 0.739192 0.543858 0.21203 -0.684979 0.0922351 -1.01866 -0.866727 -1.11785 0.588975 0.515344 -0.351876 0.0771227 0.0497464 0.360724 -0.0642661 -0.918842 0.554026
internal_weight=0 22040.1 3714.86 2865.02 18325.2 16209.6 15748.2 11546.2 11071.6 4371.99 5988.73 2384.92 1489.62 1335.27 2115.58 4202.03 474.643 5082.84 4352.4 1719.18 2633.22 2016.36 1660.66 1877.32 2203.15 2119.9 1998.88 4111.41 1629.53 1589.09
internal_count=132201 106781 16370 12903 90411 80720 78101 57903 55438 25420 30385 10970 6752 5999 9691 20198 2465 25053 25340 9791 15549 9181 7605 9635 10689 10304 9509 20750 9355 7272
shrinkage=0.05


Tree=7
num_leaves=31
num_cat=0
split_feature=6 1 2 0 11 10 1 14 15 0 5 12 13 14 14 5 14 2 15 14 13 5 7 5 0 13 0 12 5 7
split_gain=4942.01 3772.34 2467.05 1101.7 275.464 200.504 174.321 171.605 180.503 114.485 107.698 104.647 90.1138 72.5198 60.9115 57.6134 56.1348 54.9955 50.6675 48.3042 48.2091 46.6585 44.5476 38.1333 37.8189 35.8666 30.3407 26.5717 25.3698 25.0099
threshold=1.0000000180025095e-35 1.0000000180025095e-35 1.0000000180025095e-35 1.5000000000000002 1.0000000180025095e-35 1.0000000180025095e-35 1.0000000180025095e-35 0.067880661924594438 0.04353005362136466 2.5000000000000004 1.0000000180025095e-35 0.078902509631363832 0.74045895393930972 0.21719781744700808 0.24426414927100673 1.5000000000000002 0.34106396615696094 1.0000000180025095e-35 0.070852449539027251 0.025540998022417553 0.90927659580908926 1.0000000180025095e-35 1.0000000180025095e-35 1.5000000000000002 1.5000000000000002 0.13436473370488558 1.5000000000000002 0.051979640407141973 1.5000000000000002 1.5000000000000002
decision_type=2 2 2 2 2 2 2 2 2 2 2 2 2 2 2 2 2 2 2 2 2 2 2 2 2 2 2 2 2 2
left_child=6 2 3 4 5 7 17 8 -2 13 -8 12 -9 19 18 29 -14 22 -13 -5 -21 -19 24 -15 -1 -20 -3 -18 -16 -7
right_child=1 26 -4 9 -6 15 10 11 -10 -11 -12 14 16 23 28 -17 27 21 25 20 -22 -23 -24 -25 -26 -27 -28 -29 -30 -31
leaf_value=-0.054336297217771029 -0.0067755041987784329 0.10981231553977391 0.087778655518431323 -0.0026458513208525492 -0.042740338266459253 0.021610755317678032 -0.063383713479583881 -0.0023422818111927465 -0.043245913668237095 -0.048147116884604324 0.094887159348971531 0.0010594560349376232 -0.0096271266589204631 0.010441243847608774 0.0047433168771335264 0.045168262603023084 -0.024982016068200864 -0.063673020217591247 0.018760333065494326 0.027169220612679502 0.015513366524930881 0.071285022599749795 -0.028257764075952121 0.039034257596250004 -0.041614977251134715 -0.016664674424639717 0.09217926858273813 -0.0036217630183548776 0.027569380091841345 0.0036285592184104268
leaf_weight=3251.2992385327816 697.72136102616787 349.81946183741093 857.54707299172878 190.93703481554985 531.86848169565201 323.91805970668793 15.823064714670179 2248.2731990665197 660.37733881175518 66.817280560731888 33.514632374048233 1270.2416694164276 1924.1350276023149 2821.4071807563305 2060.0074987262487 144.50991022586823 1306.8709923475981 10.283146336674692 77.385069787502289 2547.2695278823376 1361.1543698012829 16.978478729724884 207.00929749011993 121.63398776948452 712.20889137685299 931.82288451492786 806.13014040887356 163.84929566085339 129.37413397431374 479.73097114264965
leaf_count=19730 3524 1466 3466 911 3051 1524 95 11191 3477 357 140 6225 9776 13396 10123 662 6766 61 384 11897 6404 75 1078 544 4241 4648 3267 836 619 2267
internal_value=0 0.191757 0.0945722 0.0235634 -0.150076 -0.119893 -0.98617 -0.156426 -0.490186 0.339863 0.882564 -0.1116 -0.202128 0.352224 0.00271679 0.322058 -0.304965 -1.00813 -0.111702 0.438206 0.462199 0.407571 -1.01739 0.232459 -1.04101 -0.278966 1.95031 -0.452046 0.121843 0.217529
internal_weight=0 22072.8 20916.9 20059.3 12950.1 12418.2 4247.12 11470.1 1358.1 7109.22 49.3377 10112 5643.13 7042.4 4468.83 948.159 3394.86 4197.78 2279.45 4099.36 3908.42 27.2616 4170.52 2943.04 3963.51 1009.21 1155.95 1470.72 2189.38 803.649
internal_count=132201 106781 102048 98582 65073 62022 25420 57569 7001 33509 235 50568 28569 33152 21999 4453 17378 25185 11257 19212 18301 136 25049 13940 23971 5032 4733 7602 10742 3791
shrinkage=0.05


Tree=8
num_leaves=31
num_cat=0
split_feature=7 1 2 0 3 11 1 10 4 3 3 5 15 5 3 11 12 0 0 15 12 13 5 4 13 5 5 0 12 13
split_gain=4521.84 3365.86 2223.43 994.37 581.24 224.852 174.74 153.53 170.584 139.592 114.647 103.339 87.7555 77.1023 64.4967 57.6873 57.6347 56.5018 53.6681 52.1538 56.9432 47.1816 44.5456 42.5243 35.8587 34.081 33.8387 43.5055 33.2687 30.5525
threshold=1.0000000180025095e-35 1.0000000180025095e-35 1.0000000180025095e-35 1.5000000000000002 2.5000000000000004 1.0000000180025095e-35 1.0000000180025095e-35 1.0000000180025095e-35 1.0000000180025095e-35 1.5000000000000002 2.5000000000000004 1.0000000180025095e-35 0.051519706092884913 1.5000000000000002 1.5000000000000002 1.0000000180025095e-35 0.27348410350332741 2.5000000000000004 1.5000000000000002 0.059653158777421354 0.05269359160935503 0.8647387999935634 1.5000000000000002 1.0000000180025095e-35 1.0922712000024122 1.5000000000000002 1.0000000180025095e-35 1.5000000000000002 0.22442700041723743 0.12683835453821848
decision_type=2 2 2 2 2 2 2 2 2 2 2 2 2 2 2 2 2 2 2 2 2 2 2 2 2 2 2 2 2 2
left_child=6 2 3 4 5 7 14 8 13 -5 12 -8 17 16 18 23 19 22 -1 20 21 -2 24 -6 28 -9 -16 -28 -11 -21
right_child=1 -3 -4 9 15 -7 11 25 -10 10 -12 -13 -14 -15 26 -17 -18 -19 -20 29 -22 -23 -24 -25 -26 -27 27 -29 -30 -31
leaf_value=-0.046585466647504292 -0.011696004324368707 0.091518274794467475 0.082939281786745034 -0.014390377735880018 0.017634489298194275 -0.047005007955995846 -0.06256175142076463 0.0066676364591151159 0.0015428092683049098 0.012934325139646369 0.041153189487482297 0.094462168158405913 0.024211555297518669 0.0053936256994988616 -0.0621108856942863 -0.017268475859256824 -0.0031899912080667094 -0.044612209729140276 -0.023384240937317169 0.0029698776010139843 -0.0068719146164246325 -0.024060661281996965 0.040719800723823113 0.036173591120563502 0.0055961287855346318 0.03524253612773643 -0.05291298597847377 -0.02289354574687311 0.030526480135064607 -0.025209678034586919
leaf_weight=1277.8788407444954 1408.3532706201077 1168.1709012687206 862.40254072844982 361.45521607995033 1133.4365640431643 425.47324074804783 15.244077101349829 684.39793141186237 1975.7016465812922 2154.569081440568 476.30717055499554 33.51188999414444 2055.2490638196468 445.01625324785709 994.20864081382751 95.860061690211296 786.38659717142582 44.173487409949303 309.64553225040436 100.8828998208046 1603.1474968492985 1706.2209185659885 132.90347002446651 425.40696834027767 1646.3841848224401 123.11935137212276 1257.346113294363 133.50739032030106 307.04120796918869 2066.6888049989939
leaf_count=7788 7229 4735 3462 1651 5209 2548 95 3232 9832 10171 2067 138 9637 2197 6318 509 3875 249 1783 515 8067 9012 589 1905 7832 553 7973 833 1419 10778
internal_value=0 0.17821 0.0863955 0.0191258 -0.146038 -0.226923 -0.974287 -0.199085 -0.232656 0.31779 0.349902 0.907339 0.314357 -0.296798 -0.99738 0.407574 -0.320272 0.23288 -0.841202 -0.349564 -0.290571 -0.369392 0.244599 0.453876 0.226165 0.220487 -1.10133 -1.00063 0.302573 -0.477963
internal_weight=0 22188.7 21020.6 20158.2 12980.1 11325.4 4021.34 10899.9 10092.4 7178.08 6816.63 48.756 6340.32 8116.7 3972.59 1654.7 7671.68 4285.07 1587.52 6885.29 4717.72 3114.57 4240.9 1558.84 4107.99 807.517 2385.06 1390.85 2461.61 2167.57
internal_count=132201 107273 102538 99076 65461 57838 24928 55290 51505 33615 31964 233 29897 41673 24695 7623 39476 20260 9571 35601 24308 16241 20011 7114 19422 3785 15124 8806 11590 11293
shrinkage=0.05


Tree=9
num_leaves=31
num_cat=0
split_feature=6 1 2 0 3 11 1 10 4 3 8 3 5 15 5 8 3 7 15 8 0 13 5 15 13 5 11 3 7 7
split_gain=4251.09 3016.77 1989.62 890.796 524.34 214.731 150.77 137.833 152.814 121.444 104.578 100.253 86.5002 74.3975 62.1526 56.3123 55.5265 53.6329 51.7312 51.7248 51.2516 46.1901 39.492 37.157 37.017 31.6004 29.2458 26.177 26.1581 26.1576
threshold=1.0000000180025095e-35 1.0000000180025095e-35 1.0000000180025095e-35 1.5000000000000002 2.5000000000000004 1.0000000180025095e-35 1.0000000180025095e-35 1.0000000180025095e-35 1.0000000180025095e-35 1.5000000000000002 1.0000000180025095e-35 2.5000000000000004 1.0000000180025095e-35 0.051519706092884913 1.5000000000000002 1.5000000000000002 1.5000000000000002 1.0000000180025095e-35 1.0000000180025095e-35 1.5000000000000002 1.5000000000000002 0.86942453646012552 1.5000000000000002 0.030108697216849747 0.87607868980523917 1.5000000000000002 1.0000000180025095e-35 3.5000000000000004 1.5000000000000002 1.5000000000000002
decision_type=2 2 2 2 2 2 2 2 2 2 2 2 2 2 2 2 2 2 2 2 2 2 2 2 2 2 2 2 2 2
left_child=6 2 3 4 5 7 16 8 10 -5 -2 13 -8 18 19 26 20 -18 -11 21 -1 -12 24 -17 -20 -9 27 -6 -23 -21
right_child=1 -3 -4 9 15 -7 12 25 -10 11 14 -13 -14 -15 -16 23 17 -19 22 29 -22 28 -24 -25 -26 -27 -28 -29 -30 -31
leaf_value=-0.045577211387361649 -0.050943895518116081 0.086666306627939046 0.07850556338418907 -0.013364742583457026 0.024237392419577328 -0.046029557444781266 -0.06179996589513434 0.0062809626190451721 0.0014896783056752181 -0.026486977971359561 -0.0067738674182466936 0.038650880927328796 0.083217628481709008 0.022762720273440222 0.0050533752128434223 0.026464039397230965 -0.055309931595170447 -0.026838048823091439 0.016243267699618778 -0.024477606985003234 -0.022882654727213028 -0.019105174227886615 0.038834342747773892 -0.00096757657693579368 0.0066838777377719472 0.033633803277373246 -0.015228847084772332 0.045054756828745567 -0.006148633475525413 -0.013701877766947866
leaf_weight=1252.817894116044 187.43526683747768 1173.4177527874708 865.37252907454967 354.81920567154884 837.00175572931767 414.26534608006477 14.674806982278822 684.07857550680637 1976.8273377120495 89.082400351762772 2617.742663860321 480.79913257062435 34.358617082238197 2067.8435801118612 442.32169331610203 174.99632300436497 2216.3627055883408 178.74033077061176 1897.3169183731079 1458.1060881465673 310.41272339224815 1874.6888788044453 132.9401865452528 419.06084509193897 2172.0245241969824 124.8646507114172 40.69695246219635 184.25412563979626 491.73557299375534 917.58249925076962
leaf_count=7834 1048 4733 3466 1628 3737 2554 95 3224 9837 468 13414 2064 140 9609 2178 816 14587 959 8862 7573 1805 9821 582 1992 10296 555 216 817 2561 4730
internal_value=0 0.173104 0.0855308 0.0214248 -0.136361 -0.214084 -0.94643 -0.186922 -0.219144 0.303135 -0.280737 0.332726 0.79633 0.299437 -0.263004 0.388816 -0.968018 -1.0637 0.224354 -0.284885 -0.821414 -0.227007 0.24034 0.142264 0.222818 0.21006 0.526737 0.559865 -0.328257 -0.406312
internal_weight=0 22079.3 20905.9 20040.5 12845.7 11189.6 4007.37 10775.4 9966.44 7194.83 7989.61 6840.01 49.0334 6359.21 7802.18 1656.01 3958.33 2395.1 4291.36 7359.86 1563.23 4984.17 4202.28 594.057 4069.34 808.943 1061.95 1021.26 2366.42 2375.69
internal_count=132201 106781 102048 98582 65073 57495 25420 54941 51162 33509 41325 31881 235 29817 40277 7578 25185 15546 20208 38099 9639 25796 19740 2808 19158 3779 4770 4554 12382 12303
shrinkage=0.05


Tree=10
num_leaves=31
num_cat=0
split_feature=8 1 0 3 3 9 7 4 9 14 15 12 0 3 5 3 3 8 14 1 8 8 0 14 14 12 14 14 5 15
split_gain=3940.39 2739.87 1000.21 412.65 426.848 233.833 159.241 137.199 135.479 99.8276 101.051 95.4416 89.9489 82.5649 81.4976 78.0745 66.2498 67.0546 59.4173 54.4953 53.7863 50.9795 50.3081 48.3199 39.3538 39.1526 35.4664 33.7302 33.2839 33.8907
threshold=1.0000000180025095e-35 1.0000000180025095e-35 1.5000000000000002 2.5000000000000004 1.5000000000000002 1.0000000180025095e-35 1.0000000180025095e-35 1.0000000180025095e-35 1.0000000180025095e-35 0.06921187715990941 0.028346885849053875 0.080246619559614804 2.5000000000000004 1.5000000000000002 1.0000000180025095e-35 2.5000000000000004 1.5000000000000002 1.5000000000000002 0.23618227409063311 1.0000000180025095e-35 1.5000000000000002 1.5000000000000002 1.5000000000000002 0.24426414927100673 0.30346690777347152 0.25819353585146926 0.050484181606179387 0.07556771371260243 1.5000000000000002 0.070852449539027251
decision_type=2 2 2 2 2 2 2 2 2 2 2 2 2 2 2 2 2 2 2 2 2 2 2 2 2 2 2 2 2 2
left_child=13 2 3 4 8 12 -6 9 21 10 -8 24 15 14 22 16 17 -4 25 -16 -5 -2 -1 28 -11 -18 -9 -22 29 -13
right_child=1 -3 5 20 6 -7 7 26 -10 11 -12 23 -14 -15 19 -17 18 -19 -20 -21 27 -23 -24 -25 -26 -27 -28 -29 -30 -31
leaf_value=-0.046542705347946002 0.019985776917370014 0.082328676747065954 0.044397394986321531 0.025359014533829202 -0.046777098960679185 0.074999845599467138 -0.0075085552192583173 -0.028995984043173568 0.07369380697137054 -0.013183829664403891 -0.041745400745378129 -0.0062333921758555982 -0.043942582764000079 -0.054271319490523801 -0.01613906216818305 0.036636198723509421 0.01630523441671828 0.011876710051572755 0.0082421503062158757 0.074047568754132931 -0.018462633341931586 0.0027432650505600734 -0.023374054753811047 0.0016399495791875392 -0.023721301784517663 0.03237770693568167 0.0025521232339793362 0.012215472807498573 0.021929250910093928 -0.022156745085269571
leaf_weight=1164.4100548028946 835.47537557780743 1165.8312380760908 381.48240381479263 1059.2081608474255 321.03476525843143 175.03254665434361 338.4528871178627 93.678796947002411 91.151552602648735 2456.8741816729307 593.37742583453655 771.84167793393135 60.967321649193764 2164.5823377370834 60.29640719294548 475.88908576965332 3415.304421916604 271.18594546616077 2548.7722366452217 23.192838609218597 109.30684334039688 880.42691585421562 293.32489909231663 1416.6765408813953 1385.8193266838789 426.19322220981121 1817.1857622414827 496.94248843193054 71.252348095178604 589.27527530491352
leaf_count=7546 3821 4698 1605 4725 2147 703 1778 500 365 12956 3326 3898 343 14367 305 2025 15851 1200 12025 94 530 4144 1759 7140 7488 1940 9124 2338 355 3105
internal_value=0 0.154261 0.0717395 -0.0944046 -0.160898 0.357286 -0.242818 -0.219493 0.285882 -0.27955 -0.586203 -0.236848 0.330899 -0.959475 -0.782582 0.340708 0.31422 0.617699 0.283224 0.178285 0.371223 0.222773 -0.837614 -0.0981509 -0.339681 0.361768 0.02011 0.133684 -0.227666 -0.262543
internal_weight=0 22248.6 21082.8 13328 11662.5 7754.83 9855.47 9534.43 1807.05 7623.57 931.83 6691.74 7579.79 3705.81 1541.22 7518.83 7042.94 652.668 6390.27 83.4892 1665.46 1715.9 1457.73 2849.05 3842.69 3841.5 1910.86 606.249 1432.37 1361.12
internal_count=132201 108130 103432 67740 60147 35692 51817 49670 8330 40046 5104 34942 34989 24071 9704 34646 32621 2805 29816 399 7593 7965 9305 14498 20444 17791 9624 2868 7358 7003
shrinkage=0.05


Tree=11
num_leaves=31
num_cat=0
split_feature=6 1 2 0 11 4 10 1 14 15 14 12 5 14 2 14 5 5 14 0 5 15 12 14 15 7 0 14 15 12
split_gain=3651.66 2431.67 1688.06 725.243 232.861 173.255 190.618 139.859 112.476 141.532 86.2577 85.7726 75.1826 61.7995 61.3613 51.8524 49.3622 48.5037 48.3762 44.1335 43.0393 34.0726 31.6342 31.6241 31.6858 30.9764 27.8922 25.2585 22.7387 36.5351
threshold=1.0000000180025095e-35 1.0000000180025095e-35 1.0000000180025095e-35 1.5000000000000002 1.0000000180025095e-35 1.0000000180025095e-35 1.0000000180025095e-35 1.0000000180025095e-35 0.065339694307078908 0.028346885849053875 0.025540998022417553 0.078902509631363832 1.0000000180025095e-35 0.18305889188461169 1.0000000180025095e-35 0.33263204756429393 1.0000000180025095e-35 1.5000000000000002 0.24426414927100673 1.5000000000000002 1.5000000000000002 0.069126278440055436 0.25819353585146926 0.050484181606179387 0.019650037800887671 1.0000000180025095e-35 2.5000000000000004 0.42684924535747898 0.061621140561215433 0.01848711051452152
decision_type=2 2 2 2 2 2 2 2 2 2 2 2 2 2 2 2 2 2 2 2 2 2 2 2 2 2 2 2 2 2
left_child=7 2 3 4 5 6 8 14 9 -2 26 15 -9 22 19 28 -16 18 21 25 27 -13 -12 24 -7 -1 -5 -8 -10 -30
right_child=1 -3 -4 10 -6 23 20 12 11 -11 13 17 -14 -15 16 -17 -18 -19 -20 -21 -22 -23 -24 -25 -26 -27 -28 -29 29 -31
leaf_value=-0.051204137917230025 -0.0030141851784057146 0.078298827440301644 0.071767093326667794 -0.006432812174168849 -0.040405484241454091 0.011471288465560994 0.0036466488633289567 -0.060759180857721452 -0.0071826121252909049 -0.041277883806753478 0.017167497214789173 -0.003557646267366025 0.076698860982566064 0.0094360602104557826 -0.061571482673675605 -0.020926473937775678 0.073711596018473741 0.018899375744222062 0.0020980970123872151 -0.03595305966510947 0.039725782751378641 -0.017941944438572843 0.031837409130268786 0.0079981685703425179 -0.040098683978012424 -0.0287274228250829 -0.04620364431840835 0.024171407179213133 0.0049326103655708007 -0.025232254133999127
leaf_weight=2843.4176602810621 401.38571032881737 1150.7886420339346 871.45860370993614 198.3008648455143 486.93806247413158 51.888158559799194 550.62880621850491 13.839759230613707 2446.2268419712782 607.34384021162987 3237.5849556177855 907.50663849711418 35.371294721961021 3359.2723899632692 10.508482530713083 1397.3765954226255 18.817272543907166 246.4351399242878 1600.3953802585602 687.89807583391666 136.62708619236946 753.51868256926537 414.54035307466984 2341.5411287844181 69.926708787679672 162.02136905491352 56.687688887119293 205.96571953594685 130.35308568179607 436.55701370537281
leaf_count=19623 2061 4649 3499 933 3022 257 2575 95 12651 3386 14774 4513 143 15604 69 7479 83 1167 7956 4448 604 3903 1858 11348 366 901 327 958 672 2277
internal_value=0 0.150768 0.0728754 0.0136183 -0.12989 -0.103005 -0.162486 -0.913971 -0.206556 -0.521046 0.265834 -0.166493 0.760823 0.286612 -0.936111 -0.259311 0.504695 -0.0497907 -0.0821139 -0.947551 0.277961 -0.201661 0.376653 0.13412 -0.36264 -0.999849 -0.305489 0.184681 -0.185472 -0.365925
internal_weight=0 22059.2 20908.5 20037 12770.6 12283.7 9820.32 3771.87 8927.1 1008.73 7266.39 7918.37 49.2111 7011.4 3722.66 4410.51 29.3258 3507.86 3261.42 3693.34 893.222 1661.03 3652.13 2463.36 121.815 3005.44 254.989 756.595 3013.14 566.91
internal_count=132201 106839 102190 98691 65195 62173 50202 25362 46065 5447 33496 40618 238 32236 25124 23079 152 17539 16372 24972 4137 8416 16632 11971 623 20524 1260 3533 15600 2949
shrinkage=0.05


Tree=12
num_leaves=31
num_cat=0
split_feature=6 1 2 0 3 11 1 14 12 3 12 3 5 13 3 0 7 14 12 14 11 4 5 14 4 14 14 14 13 12
split_gain=3387.71 2208.91 1531.54 653.249 435.789 193.081 130.409 121.535 108.532 107.315 81.4458 79.0282 68.476 67.1774 61.0906 57.2416 57.0889 51.7566 50.6455 45.7022 44.3719 43.1716 42.4543 38.0535 34.9029 32.9311 29.5477 29.3596 29.077 25.4982
threshold=1.0000000180025095e-35 1.0000000180025095e-35 1.0000000180025095e-35 1.5000000000000002 2.5000000000000004 1.0000000180025095e-35 1.0000000180025095e-35 0.078437749747728339 0.080246619559614804 1.5000000000000002 0.013964444675362992 2.5000000000000004 1.0000000180025095e-35 0.74667567978009519 1.5000000000000002 1.5000000000000002 1.0000000180025095e-35 0.10014871224968176 0.051979640407141973 0.040455398290441195 1.0000000180025095e-35 1.0000000180025095e-35 1.5000000000000002 0.025540998022417553 1.0000000180025095e-35 0.34609795861990927 0.38172968630023768 0.072512097475023629 0.62100959019041224 0.22141885175488218
decision_type=2 2 2 2 2 2 2 2 2 2 2 2 2 2 2 2 2 2 2 2 2 2 2 2 2 2 2 2 2 2
left_child=6 2 3 4 5 7 14 10 13 -5 -2 18 -8 21 15 -1 -16 -10 23 -12 27 -9 24 -11 -19 -15 29 -6 -25 -20
right_child=1 -3 -4 9 20 -7 12 8 17 11 19 -13 -14 25 16 -17 -18 22 26 -21 -22 -23 -24 28 -26 -27 -28 -29 -30 -31
leaf_value=-0.042947431507632847 -0.0043558948759856988 0.074801405346190009 0.068508825769917778 -0.014404219114195833 0.0024931183570941068 -0.044495548137726132 -0.06012499905958231 -0.00794199180150113 -0.018521786367653423 -0.026837550556434844 -0.045013701516971739 0.033474486605173687 0.072988690416377677 -0.011375320928179057 -0.053575209667307624 -0.018243427189302434 -0.023996459593126157 -0.0025216184632719982 0.015783504042306284 -0.022413459160994433 -0.0168505880944167 0.010452659452710206 0.020674464994595569 0.016761562681646549 0.010040788019497355 -0.022034623680017035 0.0060486585086436482 0.022253118069450101 0.0057272945404684816 0.026322960830959804
leaf_weight=1141.3926614075899 495.79941910505295 1144.5146751999855 867.35755898058414 351.05327743291855 218.02169927954674 386.81910362839699 13.300113603472708 1552.6913485974073 358.74508690834045 77.104519426822662 310.39160798490047 481.40208983421326 35.311946645379066 1624.2987818419933 1997.1834002733231 295.11352807283401 177.63873615860939 2864.3715041875839 2034.1262126863003 800.83863052725792 88.497581019997597 401.44296486675739 264.32196766138077 820.78488460183144 685.17013046145439 1308.1252915263176 545.44451799988747 1364.3191380351782 2190.1633798629045 799.39461974799633
leaf_count=7788 2567 4649 3499 1603 1004 2540 95 8038 1820 421 1791 2023 143 8556 14546 1797 993 14401 9303 4285 482 1959 1226 3774 3330 7109 2537 6087 10236 3599
internal_value=0 0.143344 0.0692361 0.0128828 -0.123924 -0.195878 -0.895579 -0.170708 -0.12575 0.251353 -0.42415 0.278607 0.731384 -0.226893 -0.91748 -0.757446 -1.02318 -0.00730041 0.24951 -0.574524 0.352071 -0.0832626 0.0268573 0.156941 -0.00193379 -0.322607 0.33411 0.39061 0.174705 0.375138
internal_weight=0 22035.2 20890.7 20023.3 12723.9 11053 3659.94 10666.2 9059.17 7299.47 1607.03 6948.42 48.6121 4886.56 3611.33 1436.51 2174.82 4172.61 6467.02 1111.23 1670.84 1954.13 3813.86 3088.05 3549.54 2932.42 3378.97 1582.34 3010.95 2833.52
internal_count=132201 106839 102190 98691 65195 57622 25362 55082 46439 33496 8643 31893 238 25662 25124 9585 15539 20777 29870 6076 7573 9997 18957 14431 17731 15665 15439 7091 14010 12902
shrinkage=0.05


Tree=13
num_leaves=31
num_cat=0
split_feature=8 1 2 0 3 11 7 3 14 12 3 3 0 12 13 14 12 8 14 4 14 14 5 14 5 0 8 1 14 11
split_gain=3191.17 2049.46 1428.66 590.18 405.984 196.686 111.824 101.098 100.009 103.903 84.4327 70.5803 67.5544 67.3591 64.4908 47.6313 46.2976 45.8619 43.2532 34.9015 34.4089 32.1897 31.7667 30.0483 29.1654 55.6043 28.9988 28.111 27.049 26.4188
threshold=1.0000000180025095e-35 1.0000000180025095e-35 1.0000000180025095e-35 1.5000000000000002 2.5000000000000004 1.0000000180025095e-35 1.0000000180025095e-35 1.5000000000000002 0.078437749747728339 0.080246619559614804 1.5000000000000002 2.5000000000000004 1.5000000000000002 0.01555958063627553 0.74667567978009519 0.10099957855255877 0.11784826402149524 1.5000000000000002 0.040455398290441195 1.0000000180025095e-35 1.0000000180025095e-35 0.23618227409063311 1.5000000000000002 0.34609795861990927 1.0000000180025095e-35 1.5000000000000002 1.5000000000000002 1.0000000180025095e-35 0.07556771371260243 1.0000000180025095e-35
decision_type=2 2 2 2 2 2 2 2 2 2 2 2 2 2 2 2 2 2 2 2 2 2 2 2 2 2 2 2 2 2
left_child=10 2 3 4 5 6 -2 -5 13 14 12 16 27 -8 19 -11 20 29 -15 -10 -9 -22 26 -16 -12 -26 -17 -1 -19 -6
right_child=1 -3 -4 7 17 -7 8 11 9 15 24 -13 -14 18 23 22 -18 28 -20 -21 21 -23 -24 -25 25 -27 -28 -29 -30 -31
leaf_value=-0.042718502562849377 -0.04007370681910543 0.071755124166128684 0.066049915145771618 -0.014425261191173155 0.024588201289880731 -0.044345436629073975 -0.003994965835719416 -0.019573526005293416 -0.0067500226651316213 -0.017114828756641651 -0.059206442616712263 0.031423150302855064 -0.01554214933257741 -0.042986115321471702 -0.010553499693128736 0.0039536050948827048 0.017687043637595903 -0.016867725745276268 -0.020156171934740105 0.0098490260766439155 0.013238439402775685 0.0044852451954084322 0.018781076126739758 -0.020832699071865728 -0.050583978932778884 -0.013852709962355098 -0.0058125208523673207 0.032383200825631647 0.010780040229567946 -0.018089967689216269
leaf_weight=1101.0811818987131 269.07806073129177 1147.5021799951792 865.13600820302963 352.02937790751457 1032.9016061574221 391.1265462487936 494.20426192879677 104.91981087625027 1528.4536542147398 353.16487954556942 831.05534608662128 485.65269447863102 311.92140309512615 285.58997744321823 1597.676885381341 2372.3120407611132 2141.8753647506237 107.4216930270195 758.42478270828724 399.43715047836304 2401.3762608915567 1866.8660618513823 264.99691596627235 1280.9831289350986 1022.9337060004473 114.57315118610859 1118.4781195670366 12.60259275138378 501.30560392141342 37.580485686659813
leaf_count=7736 1932 4698 3516 1618 4518 2659 2561 559 7923 1797 6301 2029 1903 1677 8444 11795 9691 530 4079 1938 11014 8773 1219 7025 7338 728 5592 65 2338 205
internal_value=0 0.133747 0.0626746 0.00863757 -0.121121 -0.190365 -0.164958 0.234406 -0.148574 -0.107947 -0.907506 0.260701 -0.722168 -0.38405 -0.20776 0.00881285 0.233287 0.337177 -0.528026 -0.0662178 0.174291 0.188198 0.0418284 -0.302553 -1.04173 -0.937686 0.0164891 -0.837373 0.118021 0.461799
internal_weight=0 22158.5 21011 20145.9 12793.1 11113.9 10722.8 7352.72 10453.7 8915.5 3394.17 7000.69 1425.61 1538.22 4806.55 4108.95 6515.04 1679.21 1044.01 1927.89 4373.16 4268.24 3755.79 2878.66 1968.56 1137.51 3490.79 1113.68 608.727 1070.48
internal_count=132201 108130 103432 99916 66232 58641 55982 33684 54050 45733 24071 32066 9704 8317 25330 20403 30037 7591 5756 9861 20346 19787 18606 15469 14367 8066 17387 7801 2868 4723
shrinkage=0.05


Tree=14
num_leaves=31
num_cat=0
split_feature=8 1 2 0 3 10 7 3 3 12 0 3 13 15 15 8 12 5 0 0 12 5 13 13 15 5 12 1 5 13
split_gain=2962.67 1871.99 1301.72 532.091 366.854 138.955 125.308 90.9475 83.9648 71.9199 65.1942 63.1165 60.2134 66.2737 43.722 40.8725 30.7076 29.8202 54.2411 29.7444 27.8208 27.4888 26.5772 30.8561 26.0866 25.8148 24.9526 24.8738 23.6531 23.3456
threshold=1.0000000180025095e-35 1.0000000180025095e-35 1.0000000180025095e-35 1.5000000000000002 2.5000000000000004 1.0000000180025095e-35 1.0000000180025095e-35 1.5000000000000002 1.5000000000000002 0.40098557666529777 1.5000000000000002 2.5000000000000004 0.79382611715015305 0.061097066643128986 0.051519706092884913 1.5000000000000002 0.076641815556105844 1.0000000180025095e-35 1.5000000000000002 2.5000000000000004 0.27894851126564796 1.0000000180025095e-35 0.73418117006163919 0.12683835453821848 0.038405666382305109 1.0000000180025095e-35 0.014558419276732635 1.0000000180025095e-35 1.5000000000000002 1.0166657940002624
decision_type=2 2 2 2 2 2 2 2 2 2 2 2 2 2 2 2 2 2 2 2 2 2 2 2 2 2 2 2 2 2
left_child=8 2 3 4 5 6 -2 -5 10 12 21 14 13 -8 19 -6 -14 -10 -19 20 28 -1 23 -15 -17 -12 -25 -23 29 -9
right_child=1 -3 -4 7 15 -7 9 11 17 -11 25 -13 16 22 -16 24 -18 18 -20 -21 -22 27 -24 26 -26 -27 -28 -29 -30 -31
leaf_value=-0.042654012582576395 -0.042785024309537456 0.068881336446300817 0.063302728910950165 -0.013775067295280746 0.021791398023428752 0.010735671752227477 -0.0021977726729028842 0.010343785958645829 -0.058671218351198422 0.0092628339777422793 -0.019815029738035228 0.029664298217749907 -0.017639339787735919 0.004991444525056659 0.016909351390932872 0.018519444048928888 -0.0092850224777204921 -0.049738627060679573 -0.013268084906605021 -0.037051069282090308 0.023874805057568258 -0.020808197839991105 0.0042240919575097765 0.0066293071009183805 -0.0026784958027233994 0.027529167681892543 -0.020778131041461242 0.07272736593826637 0.029287088840946263 0.0026419998633024507
leaf_weight=1034.4495134055614 295.14626793563366 1135.8985790759325 857.73222324252129 350.25940020382404 1077.3460583388805 818.05339577794075 3002.4396908730268 2175.4602718949318 797.55263142287731 474.83987955749035 277.11795394122601 488.64537568390369 3055.4169486910105 148.43411394953728 2134.2607910633087 238.01298263669014 1718.6169189810753 989.16379937529564 113.66416303813457 36.033296778798103 277.82054974138737 40.108986794948578 169.20459301769733 88.787078902125359 371.92494234442711 32.130605027079582 1284.307480931282 8.6385149806737882 121.15659476816654 1796.4183090180159
leaf_count=7546 2197 4698 3516 1618 4723 3828 15473 9991 6301 2349 1759 2029 16857 772 9648 1097 8894 7338 728 231 1241 220 894 464 1771 144 6913 35 519 8407
internal_value=0 0.127275 0.0595792 0.0081528 -0.115599 -0.181887 -0.213579 0.221826 -0.889433 -0.194516 -0.702883 0.246605 -0.213564 -0.133129 0.220707 0.31872 -0.292637 -1.02612 -0.919595 0.163811 0.17127 -0.818499 -0.291486 -0.333297 0.111869 -0.29792 -0.380118 -0.0846564 0.150485 0.137208
internal_weight=0 22116.2 20980.3 20122.6 12742.5 11055.2 10237.2 7380.05 3292.83 9942.05 1392.45 7029.8 9467.21 4693.17 6541.15 1687.28 4774.03 1900.38 1102.83 4406.89 4370.86 1083.2 1690.73 1521.53 609.938 309.249 1373.09 48.7475 4093.04 3971.88
internal_count=132201 108130 103432 99916 66232 58641 54813 33684 24071 52616 9704 32066 50267 24516 30037 7591 25751 14367 8066 20389 20158 7801 9043 8149 2868 1903 7377 255 18917 18398
shrinkage=0.05


Tree=15
num_leaves=31
num_cat=0
split_feature=6 1 2 0 3 11 5 4 1 3 14 15 2 3 5 12 15 3 11 5 14 14 0 5 4 12 14 15 13 14
split_gain=2731.97 1654.81 1187.39 455.61 327.862 184.014 104.637 110.951 104.397 86.1134 75.7088 106.386 68.4658 61.2756 57.8347 53.3065 52.9808 47.6735 56.4235 53.6828 50.0996 42.7119 42.6663 42.4251 37.7241 33.9227 33.4867 30.027 28.3544 28.228
threshold=1.0000000180025095e-35 1.0000000180025095e-35 1.0000000180025095e-35 1.5000000000000002 2.5000000000000004 1.0000000180025095e-35 1.5000000000000002 1.0000000180025095e-35 1.0000000180025095e-35 1.5000000000000002 0.065339694307078908 0.04353005362136466 1.0000000180025095e-35 2.5000000000000004 1.0000000180025095e-35 0.080246619559614804 0.051519706092884913 1.0000000180025095e-35 1.0000000180025095e-35 1.0000000180025095e-35 0.044217672198068818 0.24240350044935266 1.5000000000000002 1.0000000180025095e-35 1.0000000180025095e-35 0.27894851126564796 0.34609795861990927 0.072770046586392786 0.86942453646012552 0.065339694307078908
decision_type=2 2 2 2 2 2 2 2 2 2 2 2 2 2 2 2 2 2 2 2 2 2 2 2 2 2 2 2 2 2
left_child=8 2 3 4 5 6 7 10 12 -5 11 -2 17 16 -10 26 25 18 20 -19 -1 -17 -21 -14 29 -11 27 -12 -9 -6
right_child=1 -3 -4 9 24 -7 -8 28 14 13 15 -13 23 -15 -16 21 -18 19 -20 22 -22 -23 -24 -25 -26 -27 -28 -29 -30 -31
leaf_value=-0.052553543184105427 -0.0082562763783500005 0.065792903532497934 0.061750087095244127 -0.01342347822370725 -0.0098869018421082963 -0.04295761448047998 0.01255990733988999 0.0081486592681935428 -0.059279291346652142 0.006391799175052202 -0.0080503243113068355 -0.043170387367947684 -0.060056090956168963 0.029013126080330832 0.067027563754394129 -0.010166216762941939 0.017114985625621117 -0.05825316984216436 -0.05456992943857656 -0.045115434662333677 -0.023768063411150044 0.0013784276508661897 -0.016713831716046741 0.074486311179229811 0.027813439565179333 0.02430932104593797 -0.020183114323668726 -0.024655324857659155 -0.0039847369263458065 0.01369851616120283
leaf_weight=190.00364729762077 463.81771111488342 1117.7667575329542 835.12254087626934 351.57562950253487 143.31963548064232 366.23547349870205 647.95264004170895 1041.0103652477264 12.410381197929381 4141.6138447523117 2335.1355737000704 411.98193199932575 8.3141509741544741 488.6263787150383 33.601752415299416 1586.9479151815176 2141.7715333253145 806.15716615319252 300.73380595445633 1108.2307339385152 739.31959334015846 1618.0588758438826 150.14840085804462 19.844214230775833 454.59805202484131 282.16155029833317 1157.8473695218563 308.18540428578854 895.86379553377628 1104.7847801446915
leaf_count=1405 2474 4681 3458 1630 677 2569 3131 5135 94 19109 12498 2511 60 2016 138 8204 9614 6603 2293 8577 5244 8076 985 86 1976 1249 6537 1674 4538 4959
internal_value=0 0.130582 0.0668154 0.0178933 -0.0982856 -0.162401 -0.138022 -0.163707 -0.83676 0.21455 -0.216402 -0.493602 -0.857475 0.238623 0.659202 -0.181751 0.213197 -0.870746 -0.714903 -0.963597 -0.593067 -0.0867573 -0.834532 0.695216 0.309636 0.150693 -0.261846 -0.199726 0.0507318 0.219804
internal_weight=0 21894.4 20776.6 19941.5 12535.7 10833 10466.8 9818.85 3368.76 7405.75 7881.97 875.8 3322.75 7054.17 46.0121 7006.18 6565.55 3294.59 1230.06 2064.54 929.323 3205.01 1258.38 28.1584 1702.7 4423.78 3801.17 2643.32 1936.87 1248.1
internal_count=132201 106716 102035 98577 64959 57347 54778 51647 25485 33618 41974 4985 25253 31988 232 36989 29972 25107 8942 16165 6649 16280 9562 146 7612 20358 20709 14172 9673 5636
shrinkage=0.05


Tree=16
num_leaves=31
num_cat=0
split_feature=7 1 2 0 3 11 1 5 4 3 3 10 11 3 5 15 12 11 12 15 13 5 0 4 12 2 5 13 0 13
split_gain=2555.92 1523 1099.28 413.472 298.331 172.399 95.9535 92.7223 102.614 79.9067 67.5796 66.3409 56.8098 56.0317 53.1109 50.1836 38.1838 36.9997 36.6883 40.3757 35.9283 35.9236 38.6604 33.8542 29.5844 29.3302 32.4392 27.698 25.5655 24.8299
threshold=1.0000000180025095e-35 1.0000000180025095e-35 1.0000000180025095e-35 1.5000000000000002 2.5000000000000004 1.0000000180025095e-35 1.0000000180025095e-35 1.5000000000000002 1.0000000180025095e-35 1.5000000000000002 1.5000000000000002 1.0000000180025095e-35 1.0000000180025095e-35 2.5000000000000004 1.0000000180025095e-35 0.051519706092884913 1.0000000180025095e-35 1.0000000180025095e-35 0.27348410350332741 0.059653158777421354 0.85831532487206974 1.0000000180025095e-35 1.5000000000000002 1.0000000180025095e-35 0.27894851126564796 1.0000000180025095e-35 1.0000000180025095e-35 0.11687310526824468 2.5000000000000004 0.86942453646012552
decision_type=2 2 2 2 2 2 2 2 2 2 2 2 2 2 2 2 2 2 2 2 2 2 2 2 2 2 2 2 2 2
left_child=6 2 3 4 5 7 10 8 11 -5 12 18 16 15 -8 24 -1 23 19 20 -2 -12 -23 -6 28 -18 -27 -21 -11 -10
right_child=1 -3 -4 9 17 -7 14 -9 29 13 21 -13 -14 -15 -16 -17 25 -19 -20 27 -22 22 -24 -25 -26 26 -28 -29 -30 -31
leaf_value=-0.051931292847933068 -0.0057640818755900483 0.063368431494557759 0.059676575007451077 -0.013079245679000651 0.011969982581965841 -0.041981183638868547 -0.058745218666181487 0.011591463763366784 0.0076625398009967736 0.0063266679804236045 -0.057701376917990044 0.0050581971482921038 -0.053770929057485456 0.027537135618984313 0.064891096253142197 0.016300052972138164 -0.026333059761282536 -0.015802504332375709 -0.0013653430024583666 0.010305436686345556 -0.014735515773399547 -0.046637382482000223 -0.016041811004989279 0.028227405100042541 0.022587112151075419 -0.059471263633942832 0.059757467999920523 -0.019977252303200826 -0.034043555085327713 -0.0036869792532397169
leaf_weight=150.58041320741177 2199.27682043612 1103.7996140271425 824.64789870381355 354.12036167085171 1185.7423486560583 357.34561114013195 11.909718632698057 652.21170404553413 1045.2119280993938 4124.3840170502663 733.95161470770836 637.57370801270008 290.17325542122126 491.90389007329941 32.092721223831177 2159.0696408003569 838.99873377382755 94.627143308520317 759.58756223320961 78.535953149199486 2265.58843973279 969.36259902268648 115.55823145806789 438.69416871666908 285.26555351912975 7.9844605401158359 19.982190996408463 1959.1776818186045 39.593207851052284 894.16771574318409
leaf_count=1152 11569 4686 3456 1651 5268 2572 94 3136 5135 18915 6306 3002 2296 2020 133 9640 6034 516 3814 414 12587 7990 818 1872 1254 60 85 10935 256 4535
internal_value=0 0.122642 0.0620305 0.0154274 -0.0952463 -0.156577 -0.837864 -0.133312 -0.157516 0.202019 -0.858502 -0.208116 -0.685115 0.225141 0.628553 0.200905 -0.573812 0.2918 -0.235269 -0.259562 -0.206328 -0.983162 -0.867571 0.327209 0.140199 -0.49308 0.514355 -0.376202 0.118856 0.0485949
internal_weight=0 21950.5 20846.7 20022.1 12567.7 10848.7 3170.59 10491.3 9839.12 7454.34 3126.59 7899.74 1307.72 7100.22 44.0024 6608.31 1017.55 1719.06 7262.17 6502.58 4464.87 1818.87 1084.92 1624.44 4449.24 866.965 27.9667 2037.71 4163.98 1939.38
internal_count=132201 107233 102547 99091 65355 57699 24968 55127 51991 33736 24741 42321 9627 32085 227 30065 7331 7656 39319 35505 24156 15114 8808 7140 20425 6179 145 11349 19171 9670
shrinkage=0.05


Tree=17
num_leaves=31
num_cat=0
split_feature=7 1 2 11 3 14 1 5 13 14 3 15 11 5 14 12 15 15 15 5 4 14 14 12 2 5 10 14 10 15
split_gain=2373.54 1399.48 1007.06 251.029 255.87 121.962 89.5406 77.5217 70.548 69.224 67.3302 56.1992 55.8621 48.8399 47.7676 41.8918 39.3891 39.3459 37.0091 36.4951 35.432 26.5248 25.2923 27.6594 24.2101 28.092 23.8913 22.7488 22.3841 21.2387
threshold=1.0000000180025095e-35 1.0000000180025095e-35 1.0000000180025095e-35 1.0000000180025095e-35 2.5000000000000004 0.044217672198068818 1.0000000180025095e-35 1.5000000000000002 0.90927659580908926 1.0000000180025095e-35 1.5000000000000002 0.01889327836476631 1.0000000180025095e-35 1.0000000180025095e-35 0.044217672198068818 0.26827119911901581 0.0059405216575259901 0.035031627606353581 0.02247477915933797 1.0000000180025095e-35 1.0000000180025095e-35 0.40426613750589574 0.048766362392258289 0.022535974439617776 1.0000000180025095e-35 1.0000000180025095e-35 1.0000000180025095e-35 0.21719781744700808 1.0000000180025095e-35 0.058496333747774187
decision_type=2 2 2 2 2 2 2 2 2 2 2 2 2 2 2 2 2 2 2 2 2 2 2 2 2 2 2 2 2 2
left_child=6 2 3 4 5 9 10 8 11 -2 12 27 14 -8 -1 16 -10 18 -18 -12 -13 -20 23 -6 -16 -26 -9 -7 29 -21
right_child=1 -3 -4 -5 22 7 13 26 15 -11 19 20 -14 -15 24 -17 17 -19 21 28 -22 -23 -24 -25 25 -27 -28 -29 -30 -31
leaf_value=-0.050330912892131367 -0.0062618420564260618 0.061137984720274589 0.057476398838068224 -0.035762823819751439 0.023114916813461454 0.013247873432864404 -0.058246282649953685 0.011567563120368248 0.0019222477640827428 -0.034032363024775497 -0.057262807005142441 -0.0014252524120827413 -0.053118885259747763 0.062305741959931452 -0.0241115963894275 0.0076363816048367582 -0.005583099158317794 -0.0027025393530266534 -0.0109401995469324 -0.036821496839176564 0.0085123944444789844 -0.025373281484992023 0.01930495607885083 -0.025644133010239351 -0.058898236518537345 0.055546490307034027 0.034186379002784824 0.0031938338216718539 0.041876214976612508 -0.051179696835119963
leaf_weight=190.63977045565844 523.71110390126705 1087.2854102253914 813.68363842368126 460.3671745210886 51.39724662899971 1460.3572725504637 11.423453465104101 710.32045149803162 1494.3581443428993 392.6466376632452 703.36783799529076 5090.6402959674597 279.32387777417898 31.761542230844498 779.94864082336426 707.88754291832447 1257.6851295381784 2358.1886631846428 683.56719011068344 581.57819422334433 1088.7926838696003 595.76650221645832 2004.7319642007351 66.999647974967957 7.3920017182827022 19.525766596198082 139.70698721706867 915.22538216412067 7.7928747534751883 462.27185111492872
leaf_count=1493 2697 4686 3456 3179 223 6718 94 3351 6976 2359 6306 25625 2296 133 5698 3363 6427 11993 3710 4831 5229 3392 8616 310 58 82 602 4321 56 3921
internal_value=0 0.116759 0.0589895 0.014627 0.0318215 -0.0081273 -0.821453 0.0115906 -0.00438151 -0.363223 -0.841819 0.0567678 -0.667106 0.608338 -0.556421 -0.0780888 -0.10366 -0.147041 -0.233476 -0.968928 0.00651447 -0.353229 0.359575 -0.0895471 -0.450052 0.482367 0.305702 0.187488 -0.850996 -0.863601
internal_weight=0 21903.3 20816 20002.4 19542 17418.9 3075.03 16502.5 15652.5 916.358 3031.84 8555.02 1276.83 43.185 997.506 7097.45 6389.57 4895.21 2537.02 1755.01 6179.43 1279.33 2123.13 118.397 806.866 26.9178 850.027 2375.58 1051.64 1043.85
internal_count=132201 107233 102547 99091 95912 86763 24968 81707 77754 5056 24741 41893 9627 227 7331 35861 32498 25522 13529 15114 30854 7102 9149 533 5838 140 3953 11039 8808 8752
shrinkage=0.05


Tree=18
num_leaves=31
num_cat=0
split_feature=8 1 2 0 3 11 3 5 4 3 7 11 8 15 0 8 12 3 5 0 7 13 12 5 0 0 5 5 13 15
split_gain=2271.28 1303.18 935.18 354.788 248.578 167.918 81.1106 73.8778 89.3974 73.3586 63.7466 58.6622 49.9353 47.1189 41.6948 40.0172 37.2751 36.8301 32.144 56.9185 30.3082 29.9907 26.5076 24.1197 22.325 22.0074 20.4648 19.9764 19.8227 19.8998
threshold=1.0000000180025095e-35 1.0000000180025095e-35 1.0000000180025095e-35 1.5000000000000002 2.5000000000000004 1.0000000180025095e-35 1.5000000000000002 1.5000000000000002 1.0000000180025095e-35 1.5000000000000002 1.0000000180025095e-35 1.0000000180025095e-35 1.5000000000000002 0.054713895138441097 1.5000000000000002 1.5000000000000002 0.26827119911901581 2.5000000000000004 1.0000000180025095e-35 1.5000000000000002 1.5000000000000002 0.82372626131530102 0.27894851126564796 1.5000000000000002 2.5000000000000004 1.0000000180025095e-35 1.5000000000000002 1.0000000180025095e-35 0.86942453646012552 0.062859798176268744
decision_type=2 2 2 2 2 2 2 2 2 2 2 2 2 2 2 2 2 2 2 2 2 2 2 2 2 2 2 2 2 2
left_child=6 2 3 4 5 7 11 8 10 -5 -2 14 16 17 25 -6 21 22 -8 -20 -14 -12 24 -7 26 -1 -11 -16 29 -10
right_child=1 -3 -4 9 15 23 18 -9 28 13 12 -13 20 -15 27 -17 -18 -19 19 -21 -22 -23 -24 -25 -26 -27 -28 -29 -30 -31
leaf_value=-0.051888543379203234 -0.036458019475151669 0.059192461677642187 0.05556558330448777 -0.012951838339898467 0.0189028982582676 -0.044496935362084045 -0.056851539048283543 0.010107661676115239 0.011936261280620593 0.0052807903490209472 -0.0035579826023684757 -0.052454471937461833 -0.019135048985775782 0.016519063885877937 -0.014475262633315923 0.0030306934171881808 0.0057683008306651188 0.023819030673325432 -0.046941456846097206 -0.0089225612122156329 -0.0080929140897879476 -0.011736118218921322 0.021108853586943099 0.011518244402047144 -0.032466588025284016 -0.028545500814026972 0.025135245176756377 0.02753597530892328 -0.0030830499118463897 -0.002652185881497742
leaf_weight=120.93700491636992 214.58574667572975 1078.5110192000866 807.90210552513599 352.57834845781326 1102.7101187109947 331.21843878179789 673.78153313696384 657.426323980093 698.80512092262506 4144.6181923896074 2312.1925958395004 268.38814716041088 1489.3787500411272 2188.9149272143841 244.68765416741371 620.60640825331211 597.75214667618275 330.91443707048893 884.06530661135912 110.78118221461773 1066.3649553656578 2176.0602802187204 292.78958560526371 20.401394724845886 38.250100448727608 611.56946876645088 133.98239360749722 31.996193394064903 891.13775438815355 351.26309353113174
leaf_count=1011 1788 4724 3480 1654 4754 2545 6306 3134 3413 19034 12246 2294 8107 9682 1655 2882 2938 1349 7332 737 5638 12114 1278 152 256 4689 567 145 4557 1740
internal_value=0 0.112025 0.0565021 0.0139184 -0.0889723 -0.145219 -0.823195 -0.122359 -0.144134 0.186226 -0.191616 -0.633571 -0.176521 0.208246 -0.523066 0.263739 -0.119218 0.154133 -0.96838 -0.854157 -0.290556 -0.150461 0.131 -0.824937 0.111251 -0.647989 0.11805 -0.19234 0.0480329 0.141124
internal_weight=0 21898.4 20819.9 20012 12529.9 10806.6 2946.21 10455 9797.54 7482.05 7856.33 1277.58 7641.75 7129.47 1009.19 1723.32 5086.01 4940.55 1668.63 994.846 2555.74 4488.25 4609.64 351.62 4316.85 732.506 4278.6 276.684 1941.21 1050.07
internal_count=132201 108032 103308 99828 66008 58372 24169 55675 52541 33820 42831 9794 41043 32166 7500 7636 27298 22484 14375 8069 13745 24360 21135 2697 19857 5700 19601 1800 9710 5153
shrinkage=0.05


Tree=19
num_leaves=31
num_cat=0
split_feature=8 1 0 3 3 9 14 15 3 7 12 9 0 12 14 14 5 8 14 15 5 0 8 10 10 3 3 14 15 13
split_gain=2108.51 1200.71 397.151 186.251 183.243 108.316 106.621 126.063 80.3764 68.3898 62.5538 59.0059 52.9963 50.4248 44.0075 39.4474 37.7666 35.9584 34.7153 40.1244 33.0189 55.2889 31.1352 29.1158 27.7861 26.359 29.0271 25.9326 24.4487 27.9487
threshold=1.0000000180025095e-35 1.0000000180025095e-35 1.5000000000000002 2.5000000000000004 1.5000000000000002 1.0000000180025095e-35 0.067880661924594438 0.044284486304033747 1.5000000000000002 1.0000000180025095e-35 0.082965425696649955 1.0000000180025095e-35 1.5000000000000002 0.0057777693029617628 0.29492219598845226 0.13064135902089088 1.5000000000000002 1.5000000000000002 0.24426414927100673 0.071584542641469559 1.0000000180025095e-35 1.5000000000000002 1.5000000000000002 1.0000000180025095e-35 1.0000000180025095e-35 2.5000000000000004 1.5000000000000002 0.24240350044935266 0.071584542641469559 1.2695576434961664
decision_type=2 2 2 2 2 2 2 2 2 2 2 2 2 2 2 2 2 2 2 2 2 2 2 2 2 2 2 2 2 2
left_child=8 2 3 4 11 13 7 -6 12 -8 14 22 -1 -4 28 -15 25 -5 19 -12 -10 23 -2 -22 -20 26 -17 -19 29 -11
right_child=1 -3 5 17 6 -7 9 -9 20 10 18 -13 -14 15 -16 16 -18 27 24 -21 21 -23 -24 -25 -26 -27 -28 -29 -30 -31
leaf_value=-0.036508158969432193 0.014693398584968251 0.057243177514257997 -0.014349459976673196 0.017902634995789327 -0.0059734435285066795 0.052575387542397947 -0.0354917902252588 -0.040720325232769972 -0.056465505976601937 -0.0012108122831062005 0.0012115302597506322 0.050533684700304664 -0.012200089239854751 0.016065811024066786 -0.015584179666474948 0.02058522591085804 0.030834171533483647 -0.0047435643727581321 0.002925144988167116 -0.014355453610779929 -0.04698276101727817 -0.008522265581129413 0.0010624857596674001 0.056243564132680328 0.026226960033902298 0.022828610495836139 0.0055707392512590673 0.016571336989475723 -0.017978783101891185 -0.013862329744835287
leaf_weight=956.0306324660778 805.66145715117455 1059.9493575245142 196.8594855517149 1108.4040897935629 533.35899355262518 157.04188317060471 192.39094693213701 511.24644536525011 645.19149985909462 2102.8176094815135 996.17171753197908 84.057076305150986 292.92825159430504 2750.1023729741573 1674.6690454334021 349.69957484304905 183.28958308696747 399.18424624949694 1583.3694503307343 708.23734937608242 848.09621943533421 110.20060652494431 872.74175164103508 6.8865315169095984 139.18025985360146 271.09132067859173 4049.4112654179335 222.0901146531105 345.41472458839417 550.89458897709846
leaf_count=7854 3783 4724 1015 4756 3015 698 1665 3358 6306 11242 5094 369 1940 12206 9580 1570 782 1873 8058 3865 7292 737 4172 40 636 1103 18453 1009 1927 3079
internal_value=0 0.106674 0.0537369 -0.0551197 -0.102681 0.229247 -0.158501 -0.459582 -0.80652 -0.120576 -0.106582 0.193058 -0.61614 0.212692 -0.181828 0.225629 0.171411 0.250106 -0.0039587 -0.105141 -0.954173 -0.8371 0.152111 -0.923026 0.0961582 0.153936 0.135286 0.0575196 -0.109318 -0.0767438
internal_weight=0 21847.3 20787.4 12829.9 11100.2 7957.5 9337.75 1044.61 2859.33 8293.15 8100.75 1762.46 1248.96 7800.45 4673.8 7603.59 4853.49 1729.68 3426.96 1704.41 1610.37 965.183 1678.4 854.983 1722.55 4670.2 4399.11 621.274 2999.13 2653.71
internal_count=132201 108032 103308 67481 59843 35827 51519 6373 24169 45146 43481 8324 9794 35129 25828 34114 21908 7638 17653 8959 14375 8069 7955 7332 8694 21126 20023 2882 16248 14321
shrinkage=0.05


end of trees

feature importances:
VEHCOUNT=73
t_circles_dist=70
UNDERINFL=67
bikerack_dist=57
ADDRTYPE=52
marked_cross_dist=52
HITPARKEDCAR=34
radar_dist=30
LIGHTCOND=29
PEDCOUNT=28
PEDCYLCOUNT=26
ROADCOND=24
INATTENTIONIND=22
SPEEDING=17
PEDROWNOTGRNT=12
WEATHER=7

parameters:
[boosting: gbdt]
[objective: binary]
[metric: binary_logloss]
[tree_learner: serial]
[device_type: cpu]
[data: ]
[valid: ]
[num_iterations: 100]
[learning_rate: 0.05]
[num_leaves: 31]
[num_threads: 0]
[max_depth: -1]
[min_data_in_leaf: 20]
[min_sum_hessian_in_leaf: 0.001]
[bagging_fraction: 0.8]
[pos_bagging_fraction: 1]
[neg_bagging_fraction: 1]
[bagging_freq: 5]
[bagging_seed: 3]
[feature_fraction: 0.8]
[feature_fraction_bynode: 1]
[feature_fraction_seed: 2]
[early_stopping_round: 0]
[first_metric_only: 0]
[max_delta_step: 0]
[lambda_l1: 0]
[lambda_l2: 0]
[min_gain_to_split: 0]
[drop_rate: 0.1]
[max_drop: 50]
[skip_drop: 0.5]
[xgboost_dart_mode: 0]
[uniform_drop: 0]
[drop_seed: 4]
[top_rate: 0.2]
[other_rate: 0.1]
[min_data_per_group: 100]
[max_cat_threshold: 32]
[cat_l2: 10]
[cat_smooth: 10]
[max_cat_to_onehot: 4]
[top_k: 20]
[monotone_constraints: ]
[feature_contri: ]
[forcedsplits_filename: ]
[forcedbins_filename: ]
[refit_decay_rate: 0.9]
[cegb_tradeoff: 1]
[cegb_penalty_split: 0]
[cegb_penalty_feature_lazy: ]
[cegb_penalty_feature_coupled: ]
[verbosity: 0]
[max_bin: 255]
[max_bin_by_feature: ]
[min_data_in_bin: 3]
[bin_construct_sample_cnt: 200000]
[histogram_pool_size: -1]
[data_random_seed: 1]
[output_model: LightGBM_model.txt]
[snapshot_freq: -1]
[input_model: ]
[output_result: LightGBM_predict_result.txt]
[initscore_filename: ]
[valid_data_initscores: ]
[pre_partition: 0]
[enable_bundle: 1]
[max_conflict_rate: 0]
[is_enable_sparse: 1]
[sparse_threshold: 0.8]
[use_missing: 1]
[zero_as_missing: 0]
[two_round: 0]
[save_binary: 0]
[header: 0]
[label_column: ]
[weight_column: ]
[group_column: ]
[ignore_column: ]
[categorical_feature: ]
[predict_raw_score: 0]
[predict_leaf_index: 0]
[predict_contrib: 0]
[num_iteration_predict: -1]
[pred_early_stop: 0]
[pred_early_stop_freq: 10]
[pred_early_stop_margin: 10]
[convert_model_language: ]
[convert_model: gbdt_prediction.cpp]
[num_class: 1]
[is_unbalance: 0]
[scale_pos_weight: 1]
[sigmoid: 1]
[boost_from_average: 1]
[reg_sqrt: 0]
[alpha: 0.9]
[fair_c: 1]
[poisson_max_delta_step: 0.7]
[tweedie_variance_power: 1.5]
[max_position: 20]
[lambdamart_norm: 1]
[label_gain: ]
[metric_freq: 1]
[is_provide_training_metric: 0]
[eval_at: ]
[multi_error_top_k: 1]
[num_machines: 1]
[local_listen_port: 12400]
[time_out: 120]
[machine_list_filename: ]
[machines: ]
[gpu_platform_id: -1]
[gpu_device_id: -1]
[gpu_use_dp: 0]

end of parameters

pandas_categorical:[]
