tree
version=v3
num_class=1
num_tree_per_iteration=1
label_index=0
max_feature_idx=15
objective=binary sigmoid:1
feature_names=ADDRTYPE PEDCOUNT PEDCYLCOUNT VEHCOUNT INATTENTIONIND UNDERINFL WEATHER ROADCOND LIGHTCOND PEDROWNOTGRNT SPEEDING HITPARKEDCAR bikerack_dist radar_dist t_circles_dist marked_cross_dist
feature_infos=[0:3] [0:5] [0:2] [0:15] [0:1] [0:2] [0:2] [0:2] [0:3] [0:1] [0:1] [0:1] [0:1.5225811524382264] [0:2.2678853832903831] [0:1.6338680124788678] [0:1.3152574485071271]
tree_sizes=3424 3488 3484 3441 3448 3468 3500 3475 3459 3459 3450 3492 3494 3481 3472 3478 3476 3505 3473 3470

Tree=0
num_leaves=31
num_cat=0
split_feature=7 3 0 2 9 3 3 0 10 14 9 14 12 15 8 12 12 8 0 13 3 5 5 14 12 15 2 14 14 0
split_gain=8360.25 5943.68 2165.61 2073.42 1919.39 1252.77 332.412 318.053 245.475 238.143 228.349 196.791 149.62 140.369 136.361 134.308 117.68 103.37 92.9939 90.8459 71.531 161.024 69.0528 67.2489 82.6588 66.8066 62.9765 62.6642 53.9116 50.863
threshold=1.0000000180025095e-35 1.5000000000000002 1.5000000000000002 1.0000000180025095e-35 1.0000000180025095e-35 2.5000000000000004 2.5000000000000004 1.5000000000000002 1.0000000180025095e-35 0.040455398290441195 1.0000000180025095e-35 0.069203554356738264 0.086946802456284708 0.04417123278015591 1.5000000000000002 0.083260172852301528 0.069666623385745377 1.0000000180025095e-35 2.5000000000000004 0.74511978019751435 1.5000000000000002 1.0000000180025095e-35 1.5000000000000002 0.065316733432394761 0.11117980739773679 0.068521566539436543 1.0000000180025095e-35 0.24356966497094903 0.21885460277905958 1.5000000000000002
decision_type=2 2 2 2 2 2 2 2 2 2 2 2 2 2 2 2 2 2 2 2 2 2 2 2 2 2 2 2 2 2
left_child=10 3 5 4 7 8 16 23 11 -9 20 13 -11 -3 -7 19 18 -17 22 -13 21 29 28 -2 -25 -19 -23 -27 -4 -1
right_child=1 2 6 -5 -6 14 -8 9 -10 12 -12 15 -14 -15 -16 17 -18 25 -20 -21 -22 26 -24 24 -26 27 -28 -29 -30 -31
leaf_value=-1.0044184702812242 -0.94582382749271321 -0.96464903769798471 -0.92385117595908961 -0.79416861366495384 -0.78678493220667034 -0.90312655150880461 -0.87768009381476564 -0.96043758104336419 -0.92474737189708711 -0.8461969809238481 -0.81891446794377143 -0.95839611019601301 -0.90114789307166798 -0.99795403273091599 -0.93379249169334488 -1.0025549480116838 -0.91578893404680983 -0.9461555484873746 -0.99898151083358233 -0.9720385182810003 -1.0099313220503787 -0.94561512349316368 -0.8874761451724823 -0.90420969850514143 -0.92847935740248455 -0.97017310924700939 -0.82261410786690503 -0.9498752275690675 -0.93681316060217101 -0.98345088578524609
leaf_weight=1524.5020289421082 226.21772971749306 581.15596637129784 1663.0931224822998 692.5525866150856 375.08229094743729 966.31028446555138 421.41361582279205 76.950287401676178 405.29837238788605 337.81579050421715 16.518124520778656 1971.2971531748772 195.59876719117165 694.36555150151253 580.14876365661621 106.76348775625229 2675.7347318232059 1834.9219056069851 47.942849218845367 3203.106073230505 3033.0902549922466 57.813435822725296 97.900103867053986 695.7756353020668 707.66062733530998 783.60371202230453 12.690754204988478 738.68247094750404 1549.6820968091488 356.95264208316803
leaf_count=7568 1123 2885 8256 3438 1862 4797 2092 382 2012 1677 82 9786 971 3447 2880 530 13283 9109 238 15901 15057 287 486 3454 3513 3890 63 3667 7693 1772
internal_value=0 0.269532 0.0467963 1.50328 1.09584 -0.206798 0.5129 0.745273 -0.332585 1.36098 -1.16506 -0.36377 1.59823 -0.730421 0.632555 -0.309631 0.452935 -0.157234 0.328289 -0.411653 -1.17736 -1.02804 0.348313 0.514667 0.596224 -0.126428 0.455671 -0.281303 0.323102 -1.08364
internal_weight=0 21629.1 18321.4 3307.65 2615.1 11865.7 6455.77 2240.02 10319.2 610.365 5001.57 9913.9 533.415 1275.52 1546.46 8638.37 6034.35 3463.97 3358.62 5174.4 4985.05 1951.96 3310.68 1629.65 1403.44 3357.21 70.5042 1522.29 3212.78 1881.45
internal_count=132201 107372 90952 16420 12982 58904 32048 11120 51227 3030 24829 49215 2648 6332 7677 42883 29956 17196 16673 25687 24747 9690 16435 8090 6967 16666 350 7557 15949 9340
shrinkage=1


Tree=1
num_leaves=31
num_cat=0
split_feature=7 3 2 9 3 11 15 12 9 15 14 11 8 13 12 12 8 14 10 14 15 3 8 15 14 15 8 11 14 6
split_gain=7705.32 5149.18 1659.59 1555.85 1081.88 616.391 406.954 260.393 205.488 196.22 321.856 194.146 149.619 126.557 113.204 110.555 101.988 92.6811 89.16 83.569 71.8087 70.0035 128.173 67.3573 65.4246 63.2263 60.2275 44.1597 40.33 38.3365
threshold=1.0000000180025095e-35 1.5000000000000002 1.0000000180025095e-35 1.0000000180025095e-35 2.5000000000000004 1.0000000180025095e-35 0.009254300880820852 0.083260172852301528 1.0000000180025095e-35 0.010937644579392617 1.0000000180025095e-35 1.0000000180025095e-35 1.0000000180025095e-35 0.65169734855147765 0.052330934251488818 0.036674417704553201 1.5000000000000002 0.044373160579019626 1.0000000180025095e-35 1.0000000180025095e-35 0.0347932802888185 1.5000000000000002 1.0000000180025095e-35 0.0006621973943598126 0.044373160579019626 0.028580665404953864 1.5000000000000002 1.0000000180025095e-35 0.35657592812884026 1.0000000180025095e-35
decision_type=2 2 2 2 2 2 2 2 2 2 2 2 2 2 2 2 2 2 2 2 2 2 2 2 2 2 2 2 2 2
left_child=8 2 3 9 5 6 14 13 21 10 -2 16 -9 -8 23 -11 -6 19 26 -14 28 22 27 -3 -22 -18 -19 -1 -15 -23
right_child=1 4 -4 -5 11 -7 7 12 -10 15 -12 -13 17 20 -16 -17 25 18 -20 -21 24 29 -24 -25 -26 -27 -28 -29 -30 -31
leaf_value=-0.047451337104298608 -0.0056692845976021719 -0.013773316495518915 0.13552988675295319 0.1417043051773188 0.049055276015206303 -0.055057378768092295 -0.0022612268106887877 -0.050446662826215218 0.11458957214290469 0.051224275258344013 0.081975832773619584 -0.027662267399680147 0.023646292701460032 -0.01677642988539042 0.024717831507657582 0.019885672457285522 0.046602576900455023 0.0078749653423433492 0.033357859662935405 -0.043685552394084309 -0.044527911082795912 -0.063421014626777253 0.046184413355332229 0.010240631583925299 -0.0071744463111532032 0.013538227079374103 -0.0046125624001452708 -0.065439917012494006 -0.030118291612017942 -0.033100634762092455
leaf_weight=1424.5379879921675 138.98649154603481 333.50020615756512 737.04739174246788 400.28980275988579 1242.3829370439053 530.39213241636753 2236.6711922436953 127.19962188601494 17.413661301136017 355.05729275941849 425.2106878310442 110.018610060215 62.462405651807785 1219.1771002560854 1419.0000897049904 1356.9614062309265 217.30724355578423 3340.5438350439072 278.99948225915432 175.74154184758663 125.77435894310474 2838.546982884407 34.009107261896133 2347.1794421225786 1724.5017330646515 432.03083224594593 1358.1254686117172 448.61256049573421 1057.9077014774084 108.22645349800587
leaf_count=7238 691 1668 3438 1862 6038 2658 11138 645 82 1729 2042 540 306 6107 6970 6658 1064 16556 1371 887 634 14504 167 11587 8606 2127 6744 2285 5306 553
internal_value=0 0.254164 1.38188 1.01598 0.0442551 -0.0407641 -0.00518328 -0.100135 -1.13723 0.696249 1.2077 0.738139 0.0626302 -0.236788 0.265961 0.5277 0.813243 0.0887625 0.117923 -0.520593 -0.340598 -1.14954 -1.00026 0.145062 -0.194272 0.492071 0.0853102 -1.03519 -0.459498 -1.24615
internal_weight=0 21752.5 3413.55 2676.51 18338.9 16337.2 15806.8 11707.1 4871.35 2276.22 564.197 2001.74 5343.07 6364.03 4099.68 1712.02 1891.72 5215.87 4977.67 238.204 4127.36 4853.93 1907.16 2680.68 1850.28 649.338 4698.67 1873.15 2277.08 2946.77
internal_count=132201 107372 16420 12982 90952 81183 78525 58300 24829 11120 2733 9769 26509 31791 20225 8387 9229 25864 24671 1193 20653 24747 9690 13255 9240 3191 23300 9523 11413 15057
shrinkage=0.05


Tree=2
num_leaves=31
num_cat=0
split_feature=1 6 2 3 11 15 5 12 11 12 13 8 8 2 5 10 8 7 15 12 3 15 5 7 11 15 15 5 5 8
split_gain=7739.69 6009.84 4370.62 939.588 569.232 307.825 302.392 245.064 162.599 134.98 125.535 106.147 89.386 84.8612 92.3358 84.0786 84.6778 72.6527 68.7939 61.9961 57.0289 52.4761 49.5963 46.8735 43.5732 42.9489 40.9309 32.1928 31.2178 30.6755
threshold=1.0000000180025095e-35 1.0000000180025095e-35 1.0000000180025095e-35 2.5000000000000004 1.0000000180025095e-35 0.009254300880820852 1.0000000180025095e-35 0.083260172852301528 1.0000000180025095e-35 0.0060404436346456125 0.65169734855147765 1.0000000180025095e-35 1.5000000000000002 1.0000000180025095e-35 1.0000000180025095e-35 1.0000000180025095e-35 1.5000000000000002 1.0000000180025095e-35 0.0347932802888185 0.052330934251488818 1.0000000180025095e-35 0.031246840223178137 1.5000000000000002 1.5000000000000002 1.0000000180025095e-35 0.019433341805584693 0.058080905140619428 1.5000000000000002 1.5000000000000002 1.0000000180025095e-35
decision_type=2 2 2 2 2 2 2 2 2 2 2 2 2 2 2 2 2 2 2 2 2 2 2 2 2 2 2 2 2 2
left_child=1 13 3 4 5 9 -2 10 12 -3 27 -9 -5 17 -15 16 -13 20 25 28 24 -14 -18 -17 -1 -12 -20 29 -11 -7
right_child=6 2 -4 8 -6 7 -8 11 -10 19 18 15 21 14 -16 23 22 -19 26 -21 -22 -23 -24 -25 -26 -27 -28 -29 -30 -31
leaf_value=-0.04595524571374212 -0.067700198681501761 -0.013012008360270869 0.12282997238477328 0.045160351920852576 -0.053575895781785614 -0.046533689366520664 0.13604405391468211 -0.044775066778784768 -0.025949544037738234 0.007993307617030319 -0.0075005885799165339 0.006100811133746901 0.041463502099617078 -0.067652624148632101 0.10363905048407979 0.0386725711117877 -0.010193591583086878 -0.028061795082246821 -0.0016284281620624964 0.022079216161533764 -0.062203778130221203 0.011777458211467615 0.015508766484959162 0.0093593690918659135 -0.064298642917824139 -0.024811419781239141 -0.016045201015261815 0.023585263002823906 0.038473466331887335 -0.0023371743782515035
leaf_weight=1268.7953451573849 18.535972908139229 517.93565364181995 772.42801311612129 1256.3148305565119 519.8030709028244 39.94971564412117 1039.5085712969303 114.96568870544434 107.07344470918179 2281.2152740359306 438.38327234983444 3786.6848137974739 230.85536295175552 14.462558761239054 17.253010556101799 244.36777773499489 1568.3666149526834 214.02673768997192 957.27708591520786 1510.454040825367 2844.4022751897573 419.16140195727348 213.20578326284885 308.60059536993504 434.64622610807419 1961.5983339548111 1013.6477956026793 118.8226623237133 87.217281877994537 2275.49496281147
leaf_count=6598 96 2591 3444 5985 2671 200 4795 594 532 11201 2206 18704 1110 75 80 1188 7787 1070 4782 7330 14969 2052 1054 1501 2284 9907 5076 585 419 11315
internal_value=0 -0.110609 0.122591 0.0323196 -0.0403079 -0.0095693 2.64949 -0.0867146 0.6801 0.21925 -0.21794 0.0564837 0.74745 -1.11976 0.510573 0.0743634 0.0374305 -1.13062 -0.319299 0.283275 -1.15742 0.446411 -0.142354 0.446269 -1.01271 -0.432988 -0.18086 -0.0359432 0.182315 -0.0619945
internal_weight=0 25537.4 20743.8 19971.4 17958 17438.2 1058.04 13041.4 2013.41 4396.82 6805.17 6236.19 1906.33 4793.59 31.7156 6121.23 5568.26 4761.87 4370.91 3878.89 4547.84 650.017 1781.57 552.968 1703.44 2399.98 1970.92 2434.27 2368.43 2315.44
internal_count=132201 127310 102234 98790 89111 86440 4891 64899 9679 21541 34071 30828 9147 25076 155 30234 27545 24921 21971 18950 23851 3162 8841 2689 8882 12113 9858 12100 11620 11515
shrinkage=0.05


Tree=3
num_leaves=31
num_cat=0
split_feature=7 3 0 2 9 3 11 4 3 0 10 9 15 11 15 8 15 5 0 4 5 3 5 2 12 8 7 0 2 12
split_gain=6571.96 3939.93 1789.54 1156.82 1089.13 923.635 289.404 272.661 223.554 198.518 197.42 167.168 122.773 120.538 110.322 109.064 90.4574 87.5784 82.4003 75.3621 70.594 67.9969 137.799 64.765 63.259 57.9128 56.4366 51.03 45.1626 44.3703
threshold=1.0000000180025095e-35 1.5000000000000002 1.5000000000000002 1.0000000180025095e-35 1.0000000180025095e-35 2.5000000000000004 1.0000000180025095e-35 1.0000000180025095e-35 2.5000000000000004 1.5000000000000002 1.0000000180025095e-35 1.0000000180025095e-35 0.084624911236412692 1.0000000180025095e-35 0.0514060258138632 1.0000000180025095e-35 1.0000000180025095e-35 1.5000000000000002 2.5000000000000004 1.0000000180025095e-35 1.5000000000000002 1.5000000000000002 1.0000000180025095e-35 1.0000000180025095e-35 0.23397730147053153 1.5000000000000002 1.5000000000000002 1.5000000000000002 1.0000000180025095e-35 0.078065002168732342
decision_type=2 2 2 2 2 2 2 2 2 2 2 2 2 2 2 2 2 2 2 2 2 2 2 2 2 2 2 2 2 2
left_child=11 3 5 4 9 6 7 10 14 26 15 21 16 19 18 -3 -11 23 20 25 -4 22 27 24 -17 -7 -2 -1 -24 -18
right_child=1 2 8 -5 -6 13 -8 -9 -10 12 -12 -13 -14 -15 -16 17 29 -19 -20 -21 -22 -23 28 -25 -26 -27 -28 -29 -30 -31
leaf_value=-0.054351820451748703 0.028890655079724797 -0.054135024081050157 0.015392130345814431 0.11232167626392374 0.11658449657482489 0.03156159209626453 -0.052747582136297926 0.0040055590970920277 0.056948619765038337 -0.011524849904252957 0.018293056032617466 0.094203042583110463 0.0072966441408615721 -0.026184604903272846 0.030177906179353332 -0.021231748563505771 0.079165887243567754 0.0087426857264299371 -0.050599435927647762 0.047861726580663032 0.053834942686322024 -0.059845856780922108 0.0011284562448323745 0.14995718990766554 -0.0070758888470799242 0.0081418627867059987 0.010166456923378094 -0.032648608804888596 0.10154421150660041 0.046849142783437339
leaf_weight=1411.6726782768965 1009.9638705104589 216.5491626560688 4005.6344401240349 800.68248601257801 436.59280841052532 678.0638542920351 489.62663607299328 1834.690907612443 448.70661263167858 37.06200510263443 369.04775339365005 18.870110347867012 116.58010593056679 105.41912321746349 1958.783784493804 6052.2809357792139 351.83991143107414 291.12361904978752 46.213684841990471 395.51625338196754 123.08984425663948 2775.1177138537169 57.440779179334641 5.650646671652793 907.54749566316605 432.23562756180763 669.01057164371014 335.14328727126122 13.908667430281637 152.14092610776424
leaf_count=7568 4849 1128 19526 3438 1862 3181 2583 9212 2092 184 1798 82 559 530 9604 30512 1581 1458 238 1870 588 15057 287 27 4509 2096 3241 1772 63 706
internal_value=0 0.226988 0.0399987 1.18761 0.881907 -0.193398 -0.304882 -0.26693 0.457608 0.611016 -0.348121 -1.08623 1.07675 0.51004 0.407763 -0.383379 1.27732 -0.36251 0.315901 0.582409 0.330765 -1.09843 -0.948118 -0.38497 -0.387717 0.448888 0.428595 -1.00376 0.414065 1.3882
internal_weight=0 21934.1 18360.2 3573.87 2773.19 11777.8 10166.5 9676.89 6582.43 2336.6 7842.2 4612.15 657.623 1611.23 6133.72 7473.15 541.043 7256.6 4174.94 1505.82 4128.72 4593.28 1818.17 6965.48 6959.83 1110.3 1678.97 1746.82 71.3494 503.981
internal_count=132201 107372 90952 16420 12982 58904 51227 48644 32048 11120 39432 24829 3030 7677 29956 37634 2471 36506 20352 7147 20114 24747 9690 35048 35021 5277 8090 9340 350 2287
shrinkage=0.05


Tree=4
num_leaves=31
num_cat=0
split_feature=1 6 0 3 3 3 11 4 5 3 10 14 14 7 11 15 15 12 12 7 0 4 3 0 5 14 15 14 5 15
split_gain=6174.67 5179.07 1802.44 628.516 740.168 356.664 268.343 250.498 232.298 183.081 180.964 126.912 112.197 104.052 101.908 93.7236 88.7816 85.2837 79.7756 70.1886 70.0213 69.8231 63.0745 66.3258 59.5686 55.7695 52.3718 55.6405 48.0945 43.8326
threshold=1.0000000180025095e-35 1.0000000180025095e-35 1.5000000000000002 2.5000000000000004 1.5000000000000002 1.5000000000000002 1.0000000180025095e-35 1.0000000180025095e-35 1.0000000180025095e-35 2.5000000000000004 1.0000000180025095e-35 0.025515370573267932 0.069203554356738264 1.5000000000000002 1.0000000180025095e-35 0.0514060258138632 0.04417123278015591 0.10009413849058242 0.080524613837075446 1.0000000180025095e-35 2.5000000000000004 1.0000000180025095e-35 1.5000000000000002 1.5000000000000002 1.5000000000000002 0.26645785806560018 0.059690573179755888 0.065316733432394761 1.5000000000000002 0.05909669868066874
decision_type=2 2 2 2 2 2 2 2 2 2 2 2 2 2 2 2 2 2 2 2 2 2 2 2 2 2 2 2 2 2
left_child=1 19 3 4 13 11 7 10 -2 15 12 -4 16 29 21 20 -6 -13 25 22 24 26 23 -1 -7 -14 -5 -28 -20 -3
right_child=8 2 5 14 6 9 -8 -9 -10 -11 -12 17 18 -15 -16 -17 -18 -19 28 -21 -22 -23 -24 -25 -26 -27 27 -29 -30 -31
leaf_value=-0.052348397648462879 -0.065889242076373811 0.037744044848062687 -0.0014962432054363998 0.029149525634019041 -0.01847533280956612 0.01447145194910059 -0.051450902691756076 0.003598536338500768 0.11738539500602929 0.052064473152790003 0.017102004052423042 0.075441713133246102 -0.015797682845278421 0.0041430397330277048 -0.024505727438152922 0.028080055285622137 -0.049311452840149518 0.038625671423413638 -0.01105397340077063 -0.025512600357697368 -0.04777219394485771 0.044845554351314432 -0.059909089231162352 -0.027522773830268129 0.049515438033398744 -0.028118888780196097 -0.037890139863521057 0.014091185827505027 0.022268018106141981 0.017844295637195889
leaf_weight=1403.095270588994 17.56347930431366 653.00614073872566 83.915837362408638 680.3461068123579 440.16493491828442 4008.8598313182592 476.20905384421349 1837.1830484569073 1107.9241566359997 452.31473931670189 371.44626368582249 484.53466986119747 2189.707947999239 644.06241396069527 102.5731498748064 1975.270524546504 496.96991944313049 232.91576999425888 2516.9278891533613 212.28683565557003 44.149518698453903 402.08099558949471 2586.193800419569 332.87149831652641 125.04605424404144 1581.8494900316 59.82829675078392 368.91919888556004 113.15457054972649 480.22303976118565
leaf_count=7715 96 2994 402 3195 2249 19421 2581 9211 4795 2066 1797 2073 11151 3093 522 9564 2581 1047 12623 1080 233 1867 14502 1779 585 8130 286 1747 559 2257
internal_value=0 -0.10318 0.107726 -0.110901 -0.190945 0.503677 -0.296402 -0.25986 2.29051 0.427247 -0.338928 1.13369 -0.373395 0.403813 0.47444 0.38211 -0.696559 1.26979 -0.326087 -1.07164 0.297251 0.53991 -1.09921 -0.951762 0.31063 -0.419308 0.410486 0.136752 -0.192407 0.586224
internal_weight=0 25356.1 20821.7 13414.7 11800.9 7407.01 10023.6 9547.4 1125.49 6605.64 7710.22 801.366 7338.77 1777.29 1613.75 6153.33 937.135 717.45 6401.64 4534.45 4178.06 1511.17 4322.16 1735.97 4133.91 3771.56 1109.09 428.747 2630.08 1133.23
internal_count=132201 127310 102234 66843 59226 35391 50882 48301 4891 31869 39090 3522 37293 8344 7617 29803 4830 3120 32463 25076 20239 7095 23996 9494 20006 19281 5228 2033 13182 5251
shrinkage=0.05


Tree=5
num_leaves=31
num_cat=0
split_feature=7 1 2 0 3 11 10 4 3 1 3 5 5 11 12 12 4 5 0 3 0 15 12 5 0 15 6 15 2 5
split_gain=5695.56 4637.52 3154.29 1368.23 751.001 290.304 215.753 208.489 189.373 183.186 128.779 123.764 114.908 83.9897 82.2137 73.3614 66.4856 66.0422 64.4552 64.4079 68.3835 37.8906 58.1909 36.4106 35.5503 34.6139 34.3121 30.6614 28.6493 33.8227
threshold=1.0000000180025095e-35 1.0000000180025095e-35 1.0000000180025095e-35 1.5000000000000002 2.5000000000000004 1.0000000180025095e-35 1.0000000180025095e-35 1.0000000180025095e-35 2.5000000000000004 1.0000000180025095e-35 1.5000000000000002 1.0000000180025095e-35 1.5000000000000002 1.0000000180025095e-35 0.069666623385745377 0.27319521671986491 1.0000000180025095e-35 1.5000000000000002 2.5000000000000004 1.5000000000000002 1.5000000000000002 0.059690573179755888 0.053719972872634421 1.5000000000000002 1.5000000000000002 0.059690573179755888 1.0000000180025095e-35 0.054237831125547788 1.0000000180025095e-35 1.0000000180025095e-35
decision_type=2 2 2 2 2 2 2 2 2 2 2 2 2 2 2 2 2 2 2 2 2 2 2 2 2 2 2 2 2 2
left_child=9 2 3 4 5 6 7 12 10 19 -5 -11 15 16 18 21 25 -8 23 20 28 22 -2 27 -3 -6 -21 -12 -1 -30
right_child=1 24 -4 8 13 -7 17 -9 -10 11 14 -13 -14 -15 -16 -17 -18 -19 -20 26 -22 -23 -24 -25 -26 -27 -28 -29 29 -31
leaf_value=-0.051286834227947532 -0.021093935506390632 0.12327776984123016 0.10081557148059253 -0.012746706976661502 0.026428028641842873 -0.051494842257047105 0.0080210197787967449 0.0014778422567103342 0.050199931973672354 -0.064900466097647949 0.011158032431409054 0.10892477266189747 0.0080018373343674291 -0.021383684100702675 0.024911084665592744 -0.0033829269120773304 0.042854232746635898 0.048863546782061729 -0.046867561643838929 -0.059315707641036379 -0.025289554158868483 -0.02507532365465992 -0.0093869170198814383 0.042430895091171913 0.10383977488933285 0.0084669530185493922 -0.029885459694629309 0.024689547971621321 -0.064669937265471975 0.085297710165589319
leaf_weight=1375.7669569849968 3180.1173633486032 336.51469802856445 827.97043827176094 347.67779682576656 709.13103306293488 467.18789958953857 661.35009163618088 1956.9003845602274 455.65615203976631 15.738451853394507 2795.1317339390516 29.311883673071861 445.90126395225525 99.87655970454216 2783.3721982389688 763.74161146581173 422.44848302006721 116.39749194681644 43.865584343671799 2482.9490156769753 332.39970372617245 2234.6035629212856 1593.2505083978176 109.98166012763977 781.46974129974842 431.44223272800446 103.15182428061962 492.38410320878029 6.8400300443172428 8.3485842645168304
leaf_count=7780 16370 1459 3436 1605 3294 2596 3179 9762 2045 89 13526 126 2195 514 13262 3812 1930 555 237 14386 1799 11415 8027 506 3243 2039 558 2380 39 37
internal_value=0 0.209411 0.103455 0.0247007 -0.16648 -0.25791 -0.224979 -0.263785 0.380573 -1.04207 0.337352 0.963969 -0.333639 0.461386 0.370433 -0.361964 0.518197 0.28267 0.267078 -1.06304 -0.913279 -0.394038 -0.343728 0.282629 2.19381 0.392679 -1.16284 0.263694 -1.01066 0.355228
internal_weight=0 22056.4 20938.4 20110.4 13082.3 11419.5 10952.3 10174.5 7028.07 4354.51 6572.41 45.0503 8217.61 1662.9 6224.74 7771.71 1563.02 777.748 3441.36 4309.46 1723.36 7007.97 4773.37 3397.5 1117.98 1140.57 2586.1 3287.52 1390.96 15.1886
internal_count=132201 107387 102685 99249 65688 57911 55315 51581 33561 24814 31516 215 41819 7777 29911 39624 7263 3734 16649 24599 9655 35812 24397 16412 4702 5333 14944 15906 7856 76
shrinkage=0.05


Tree=6
num_leaves=31
num_cat=0
split_feature=7 3 2 9 3 11 15 12 9 13 15 11 14 15 12 3 5 14 5 15 14 14 14 14 14 15 12 11 14 4
split_gain=5271.88 2774.7 868.508 743.639 648.685 448.416 283.518 167.517 146.39 123.874 116.235 97.9895 79.584 106.006 77.8518 72.6389 83.196 63.5678 54.2183 51.386 59.2663 50.0861 58.9653 49.8396 71.1424 47.2648 44.3271 43.8143 41.3207 37.5111
threshold=1.0000000180025095e-35 1.5000000000000002 1.0000000180025095e-35 1.0000000180025095e-35 2.5000000000000004 1.0000000180025095e-35 0.009254300880820852 0.099118207233506297 1.0000000180025095e-35 0.79133402032083089 0.061779091386618391 1.0000000180025095e-35 0.044373160579019626 0.0083259521642643271 0.052330934251488818 1.5000000000000002 1.0000000180025095e-35 0.044373160579019626 1.5000000000000002 0.0077422344553642044 0.050042983614676573 0.040455398290441195 0.3445981719452017 0.044373160579019626 1.0000000180025095e-35 0.00376867692552716 0.055603992761776799 1.0000000180025095e-35 0.044373160579019626 1.0000000180025095e-35
decision_type=2 2 2 2 2 2 2 2 2 2 2 2 2 2 2 2 2 2 2 2 2 2 2 2 2 2 2 2 2 2
left_child=8 2 3 10 5 6 14 9 15 17 12 19 -2 -14 25 16 27 -8 23 -6 -21 -11 -23 24 -9 -3 -18 28 -1 -25
right_child=1 4 -4 -5 11 -7 7 18 -10 21 -12 -13 13 -15 -16 -17 26 -19 -20 20 -22 22 -24 29 -26 -27 -28 -29 -30 -31
leaf_value=-0.059706426546968755 0.00075585844527554591 -0.0070642419560019961 0.093861961922218573 0.093639011973869701 0.04847014595296642 -0.049832967852830506 -0.036940307575090627 0.024682526336257424 0.081066352956209176 -0.044711903581062681 0.010557956038143896 -0.020126399065707765 0.057452443719550564 0.027654976160654134 0.020209429511752895 -0.057092551763717782 0.052728090204883206 -9.3099423180208592e-05 0.02961075983908272 -0.015940977024764866 0.028707674596182415 -0.0090205683971671235 -0.022083725981692538 0.0010514964553379883 -0.041359597042985793 0.0093215781186372342 -0.026231490328026748 -0.060626435056758923 -0.036880911980296402 0.013389402475872387
leaf_weight=247.67379182577133 167.0637386739254 551.75720939040184 843.85100090503693 471.35018463432789 321.37273633480072 465.86118769645691 121.96927084028721 57.198171392083168 20.874546840786934 138.04565373063087 885.08471375703812 101.89121995866299 441.79224492609501 920.11881811916828 1492.9461644142866 2502.9014750272036 32.022507190704346 2901.566050812602 185.76652710139751 77.829283058643341 1650.4428500682116 2252.3141456246376 1401.3135306984186 3576.7764418125153 142.04713337123394 2174.5229958742857 39.948757842183113 390.97929067909718 994.08844697475433 744.23600541055202
leaf_count=1430 820 2788 3439 1899 1427 2653 629 268 86 729 4197 528 1881 4248 7060 14946 151 14634 898 362 7556 11496 7278 17717 753 10479 206 2305 5690 3648
internal_value=0 0.198476 0.984866 0.723888 0.0387262 -0.0297655 -0.00114893 -0.0823663 -1.02031 -0.182566 0.499564 0.554636 0.666514 0.74642 0.220627 -1.03342 -0.874208 -0.0315903 0.0627422 0.602218 0.53394 -0.302957 -0.280616 0.0409827 -0.448012 0.120107 0.178007 -0.92059 -0.828671 0.0635307
internal_weight=0 22087.1 3729.26 2885.41 18357.9 16206.3 15740.5 11521.2 4228.49 6815.21 2414.06 2151.54 1528.97 1361.91 4219.23 4207.61 1704.71 3023.54 4706.02 2049.64 1728.27 3791.67 3653.63 4520.26 199.245 2726.28 71.9713 1632.74 1241.76 4321.01
internal_count=132201 107387 16484 13045 90903 81030 78377 58050 24814 34766 11146 9873 6949 6129 20327 24728 9782 15263 23284 9345 7918 19503 18774 22386 1021 13267 357 9425 7120 21365
shrinkage=0.05


Tree=7
num_leaves=31
num_cat=0
split_feature=7 1 2 0 11 10 14 15 1 13 0 12 5 14 5 2 5 13 0 12 15 14 0 12 14 15 12 14 13 5
split_gain=4882.24 3837 2505.56 1185.61 290.48 231.592 173.817 182.561 162.192 131.66 122.685 108.579 102.778 86.1842 67.9167 58.8628 58.1772 45.8964 41.5821 40.7606 36.1539 34.3351 33.5095 31.9936 40.8642 31.3407 30.9115 29.9545 34.4599 24.0976
threshold=1.0000000180025095e-35 1.0000000180025095e-35 1.0000000180025095e-35 1.5000000000000002 1.0000000180025095e-35 1.0000000180025095e-35 0.070868914934495889 0.043432945105358521 1.0000000180025095e-35 0.79737020097437517 2.5000000000000004 0.13787477660180394 1.0000000180025095e-35 0.14256621230877267 1.5000000000000002 1.0000000180025095e-35 1.0000000180025095e-35 0.86125706239007982 1.5000000000000002 0.27889634541528613 0.061168797708410098 0.028143888267205649 1.5000000000000002 0.035533748934575123 0.33087350071357086 0.059690573179755888 0.38310743546537007 0.12178442573063224 0.13475931207067207 1.5000000000000002
decision_type=2 2 2 2 2 2 2 2 2 2 2 2 2 2 2 2 2 2 2 2 2 2 2 2 2 2 2 2 2 2
left_child=8 2 3 4 5 6 7 -2 15 20 13 23 -10 17 -7 18 -17 21 -1 29 -8 -5 -3 24 -11 -25 -13 28 -22 -15
right_child=1 22 -4 10 -6 14 9 -9 12 11 -12 26 -14 19 -16 16 -18 -19 -20 -21 27 -23 -24 25 -26 -27 -28 -29 -30 -31
leaf_value=-0.053935653377143927 -0.0071062392444294136 0.11136283070124904 0.088595589307984085 0.0037342133157724244 -0.043884104524336463 0.01162013286259185 0.0033207308910375996 -0.042216714459461444 -0.063442265636159706 -0.013002957436250887 -0.049269156673521469 -0.0038251523152360405 0.097102937635352715 0.010529389541226354 0.048732717913572018 -0.063940590102416137 0.079613868157817125 0.016254550783956843 -0.040833506750857944 0.028202823150746181 0.025914405973943233 0.030529714408640954 0.092781897278548464 -0.0058665887241606852 -0.026848164763056234 -0.020275985017565792 0.013516607954257282 -0.0023401124751449526 -0.023598746734220601 0.032038320415226584
leaf_weight=3288.5771274119616 752.88886179029942 348.38115733861923 850.54985629022121 127.73919974267483 540.03477829694748 803.20043179392815 3008.9016179293394 728.44616793096066 14.857745945453642 1058.4257163107395 68.312190234661102 1120.4088965803385 30.296269923448563 3359.8373166769743 145.62531000375748 12.083686217665674 16.96804067492485 1146.0312956124544 742.24457710981369 400.51698836684227 39.318768128752708 1865.1743816435337 799.48315796256065 1112.6516610532999 1073.4684412032366 571.02811685204506 333.43887601792812 1398.451313495636 330.72137112915516 135.47021478414536
leaf_count=20043 3806 1459 3436 611 3110 3812 14944 3830 89 5412 366 5523 126 15928 678 71 73 5414 4412 1866 196 8765 3243 5629 5606 2890 1630 6964 1658 611
internal_value=0 0.188185 0.090741 0.0196717 -0.159646 -0.128568 -0.167654 -0.487436 -0.999275 -0.120504 0.348288 -0.229504 0.885524 0.361238 0.346323 -1.02024 0.398085 0.484548 -1.03046 0.261885 -0.000278261 0.576244 1.96843 -0.318112 -0.399488 -0.215072 0.00304334 -0.113749 -0.366754 0.227261
internal_weight=0 22118.5 20970.6 20120.1 13017 12477 11528.1 1481.34 4105.03 10046.8 7103.08 5269.42 45.154 7034.77 948.826 4059.87 29.0517 3138.94 4030.82 3895.82 4777.39 1992.91 1147.86 3815.57 2131.89 1683.68 1453.85 1768.49 370.04 3495.31
internal_count=132201 107387 102685 99249 65688 62578 58088 7636 24814 50452 33561 26690 215 33195 4490 24599 144 14790 24455 18405 23762 9376 4702 19537 11018 8519 7153 8818 1854 16539
shrinkage=0.05


Tree=8
num_leaves=31
num_cat=0
split_feature=7 1 2 0 3 11 10 4 1 3 3 5 5 15 3 0 4 12 13 0 5 5 11 15 13 13 5 0 15 0
split_gain=4523.84 3419.74 2245.45 1066.14 621.203 237.782 170.729 186.968 151.149 146.448 122.101 99.5337 92.0781 68.6444 65.7412 66.511 61.6879 60.9528 55.2025 53.984 49.3183 40.2198 37.8353 36.8227 36.6033 30.975 30.8831 31.8969 28.4383 25.9325
threshold=1.0000000180025095e-35 1.0000000180025095e-35 1.0000000180025095e-35 1.5000000000000002 2.5000000000000004 1.0000000180025095e-35 1.0000000180025095e-35 1.0000000180025095e-35 1.0000000180025095e-35 2.5000000000000004 1.5000000000000002 1.5000000000000002 1.0000000180025095e-35 0.0514060258138632 1.5000000000000002 1.5000000000000002 1.0000000180025095e-35 0.27319521671986491 0.79133402032083089 2.5000000000000004 1.5000000000000002 1.5000000000000002 1.0000000180025095e-35 0.061168797708410098 0.89599617736519732 0.86615923743797441 1.0000000180025095e-35 1.5000000000000002 0.059690573179755888 1.5000000000000002
decision_type=2 2 2 2 2 2 2 2 2 2 2 2 2 2 2 2 2 2 2 2 2 2 2 2 2 2 2 2 2 2
left_child=8 2 3 4 5 6 7 11 14 10 -5 17 -10 19 15 -1 22 18 23 21 -8 24 28 -2 -12 -9 -16 -28 -6 -3
right_child=1 29 -4 9 16 -7 20 25 12 -11 13 -13 -14 -15 26 -17 -18 -19 -20 -21 -22 -23 -24 -25 -26 -27 27 -29 -30 -31
leaf_value=-0.047223968707690009 -0.009881406821449612 0.10375806033766664 0.083619490554563691 -0.014178623622907267 0.023263405400617467 -0.04826419074763174 0.0066576359782990315 0.0077097425676383446 -0.062616066682835314 0.043390548435637409 0.017085085070663277 0.0074086242104208959 0.090916714200552876 0.023696086479681785 -0.062064435230026818 -0.021568040154794063 0.036537571513434529 -0.0034455121973077703 -0.022691319155985695 -0.044184713325264219 0.041296804917432699 0.039439763719166188 -0.018856797846636551 -0.020843882100457151 0.0076475783734577894 -0.0049054763347696519 -0.052955142605758669 -0.02717902785285535 0.007091120950515885 0.087535975205422972
leaf_weight=1277.352224946022 2176.365054756403 355.03220297396183 855.94932906329632 350.86582800745964 722.9350314438343 431.1760305762291 668.17180849611759 1026.9816127568483 14.314855530858038 470.58829967677593 1984.5779282897711 447.73144218325615 30.727723136544228 2031.9177362620831 983.73764169216156 314.88756059110165 450.01065629720688 763.98157189786434 3535.3662723898888 41.533828511834145 121.43242360651493 140.11774525046349 77.710823372006416 1182.0714893043041 2130.2340149134398 924.73136699199677 1229.7677471190691 133.000343978405 435.6380713135004 804.86796742677689
leaf_count=7856 11102 1459 3436 1605 3294 2596 3179 5095 89 2045 9365 2195 126 9561 6282 1799 2027 3812 18573 237 555 627 417 6137 10121 4667 7829 833 2039 3243
internal_value=0 0.178567 0.0861152 0.018612 -0.152362 -0.237005 -0.208055 -0.243209 -0.979009 0.328628 0.290639 -0.310114 0.842458 0.322475 -0.999839 -0.843003 0.413736 -0.336909 -0.366609 0.250852 0.239695 0.261927 0.298341 -0.274798 0.243986 0.0346518 -1.10626 -1.00879 0.343648 1.85003
internal_weight=0 22130 20970.1 20114.1 12964.3 11278 10846.8 10057.2 3983.79 7149.84 6679.25 8105.52 45.0426 6328.38 3938.75 1592.24 1686.29 7657.78 6893.8 4296.46 789.604 4254.93 1236.28 3358.44 4114.81 1951.71 2346.51 1362.77 1158.57 1159.9
internal_count=132201 107387 102685 99249 65688 57911 55315 51581 24814 33561 31516 41819 215 29911 24599 9655 7777 39624 35812 20350 3734 20113 5750 17239 19486 9762 14944 8662 5333 4702
shrinkage=0.05


Tree=9
num_leaves=31
num_cat=0
split_feature=8 1 2 0 3 11 10 4 3 3 7 8 3 5 5 15 1 8 13 0 0 5 5 2 13 13 6 0 10 4
split_gain=4265.93 3101.67 2049.78 950.136 578.406 237.807 153.848 174.475 126.55 106.689 97.2946 89.5272 87.1367 81.7696 81.4732 59.8338 55.5688 55.191 51.6488 51.1192 49.5671 43.9734 37.4814 36.7566 30.43 27.9514 27.9101 51.4401 23.0535 27.8561
threshold=1.0000000180025095e-35 1.0000000180025095e-35 1.0000000180025095e-35 1.5000000000000002 2.5000000000000004 1.0000000180025095e-35 1.0000000180025095e-35 1.0000000180025095e-35 2.5000000000000004 1.5000000000000002 1.0000000180025095e-35 1.5000000000000002 1.5000000000000002 1.5000000000000002 1.0000000180025095e-35 0.0514060258138632 1.0000000180025095e-35 1.5000000000000002 0.86615923743797441 1.5000000000000002 2.5000000000000004 1.5000000000000002 1.5000000000000002 1.0000000180025095e-35 0.89599617736519732 0.86615923743797441 1.0000000180025095e-35 1.5000000000000002 1.0000000180025095e-35 1.0000000180025095e-35
decision_type=2 2 2 2 2 2 2 2 2 2 2 2 2 2 2 2 2 2 2 2 2 2 2 2 2 2 2 2 2 2
left_child=12 2 3 4 5 6 7 10 9 -5 -2 -6 14 17 19 20 23 18 -12 -1 22 -8 24 -16 -11 -9 -14 -28 29 -13
right_child=1 -3 -4 8 11 -7 21 25 -10 15 13 28 26 -15 16 -17 -18 -19 -20 -21 -22 -23 -24 -25 -26 -27 27 -29 -30 -31
leaf_value=-0.047257146207422128 -0.044447648495924669 0.087479383216918893 0.079600084782587385 -0.013282710738013542 0.028707521474734533 -0.047708377384254742 0.0062557909955226719 0.0074676583591777911 0.040303192204831119 0.0158397224335378 -0.0072572326966376631 -0.0047587672227946661 -0.057455416970358143 0.0069926951421611667 -0.036710417596468391 0.022125281121563711 0.078629999050842558 -0.021334186876084623 -0.017441445009981928 -0.024290954977871499 -0.04308190695631274 0.038781969209967987 0.037615899981901346 0.054530331854394223 0.007265454863785316 -0.0045047144965947548 -0.049379437463114129 0.011750714077157 0.030171676946732125 0.023182505110942268
leaf_weight=1202.24619589746 268.10024629533291 1176.0683074891567 860.78649853169918 349.55268117785454 1074.4402388334274 432.93521824479103 667.44048623740673 1031.8125641494989 475.52482733130455 2004.2459264844656 2626.744673743844 424.79472386837006 1930.6688863933086 445.27327179908752 47.563771560788155 2049.3274180591106 20.971514493227005 2381.6473223716021 2366.5387101769447 303.45272788405418 40.821965992450714 123.07218140363693 141.12297338247299 14.373962342739103 2139.2763220965862 924.15253438055515 235.93791449069977 40.290368616580963 78.149081975221634 112.91013768315315
leaf_count=7649 1730 4742 3449 1608 4839 2696 3171 5118 2045 9422 13514 2038 12716 2175 255 9571 85 12411 12475 1777 240 555 624 60 10159 4685 1316 194 365 517
internal_value=0 0.169217 0.0807895 0.0162574 -0.145574 -0.227404 -0.198364 -0.231794 0.307515 0.272259 -0.296606 0.399912 -0.978018 -0.276299 -0.799431 0.301755 0.165656 -0.301425 -0.24168 -0.852573 0.23507 0.226394 0.245518 -0.310721 0.228258 0.0362193 -1.10657 -0.809261 0.0959295 0.0221698
internal_weight=0 22194.7 21018.7 20157.9 12958 11267.7 10834.8 10044.3 7199.87 6724.35 8088.3 1690.29 3795.51 7820.2 1588.61 6374.79 82.9092 7374.93 4993.28 1505.7 4325.47 790.513 4284.65 61.9377 4143.52 1955.97 2206.9 276.228 615.854 537.705
internal_count=132201 108149 103407 99958 66289 58530 55834 52108 33669 31624 42305 7759 24052 40575 9826 30016 400 38400 25989 9426 20445 3726 20205 315 19581 9803 14226 1510 2920 2555
shrinkage=0.05


Tree=10
num_leaves=31
num_cat=0
split_feature=8 1 0 3 3 9 14 9 4 15 0 12 3 3 5 14 8 1 14 15 8 7 3 0 13 12 3 8 12 12
split_gain=3927.54 2809.45 1026.7 405.096 404.077 243.295 156.648 154.414 137.827 129.003 106.087 96.3378 93.5765 81.1162 76.126 70.9785 61.8891 54.8919 50.4869 50.605 44.2688 43.6661 43.3885 38.7301 36.5672 32.2005 29.1884 69.3196 33.3305 33.0584
threshold=1.0000000180025095e-35 1.0000000180025095e-35 1.5000000000000002 2.5000000000000004 1.5000000000000002 1.0000000180025095e-35 0.067901770882662124 1.0000000180025095e-35 1.0000000180025095e-35 0.043432945105358521 2.5000000000000004 0.083260172852301528 2.5000000000000004 1.5000000000000002 1.0000000180025095e-35 0.2235200070044229 1.5000000000000002 1.0000000180025095e-35 0.37052020867028385 0.067893211062416234 1.5000000000000002 1.0000000180025095e-35 1.5000000000000002 1.5000000000000002 0.18404297565005248 0.27889634541528613 1.5000000000000002 1.5000000000000002 0.25106979280108188 0.056402016125162657
decision_type=2 2 2 2 2 2 2 2 2 2 2 2 2 2 2 2 2 2 2 2 2 2 2 2 2 2 2 2 2 2
left_child=13 2 3 4 7 10 9 20 11 -6 12 21 15 14 23 26 -5 -16 19 -13 -2 -8 -17 -1 -23 -24 27 -4 -28 -29
right_child=1 -3 5 16 6 -7 8 -9 -10 -11 -12 18 -14 -15 17 22 -18 -19 -20 -21 -22 24 25 -25 -26 -27 28 29 -30 -31
leaf_value=-0.045848870314070748 0.01868619574580499 0.082496709193640175 0.051452823422181437 0.02561531836928272 -0.012175018624321847 0.077450424727398284 -0.04551723050363124 0.075783478614246461 0.0029531513074908507 -0.045181821831781058 -0.045955181771041534 -0.0023568523479315403 0.039070499971519401 -0.054080673011367292 -0.015335349707253835 0.029265274361441457 0.0056791086626693842 0.079424896238016032 0.0044481398222235022 -0.01830254592119418 0.0025309643506208181 0.0067029371075756419 0.0061494219445371668 -0.02555548742265636 -0.017820949956377435 0.024669591372827218 0.017134249209709154 0.034557349849269052 0.031640892403903234 -0.011486761532602642
leaf_weight=1153.5345020145178 819.45453755557537 1197.0376743376255 221.84853647649288 1059.1993845701218 578.59377320110798 169.66323003172874 137.27299685776234 95.144825682044029 1728.1376797407866 606.15831007063389 66.524425730109215 1020.8480707556009 469.73583985865116 2143.8121326863766 64.649543210864067 264.40480095148087 615.49961361289024 20.013567119836807 846.47538022696972 970.66271542012691 878.79894444346428 158.43319620192051 2340.765456199646 295.30391825735569 3745.3503992557526 260.85435757040977 3318.1557316929102 68.140954837203026 449.60865288972855 91.101149693131447
leaf_count=7557 3765 4821 936 4729 3092 681 921 381 8762 3450 378 5234 1999 14308 330 1127 2913 81 4328 5120 4151 822 11035 1754 20082 1198 15471 290 2064 421
internal_value=0 0.159859 0.0748439 -0.093955 -0.160409 0.364746 -0.240334 0.27598 -0.193408 -0.581248 0.338138 -0.256833 0.349312 -0.956 -0.780394 0.320378 0.365764 0.141302 -0.11562 -0.202576 0.206526 -0.356006 0.199352 -0.834253 -0.336513 0.160127 0.403982 0.667718 0.377307 0.164318
internal_weight=0 22177.9 20980.8 13260 11585.3 7720.8 9791.93 1793.4 8607.18 1184.75 7551.14 6879.04 7484.62 3677.31 1533.5 7014.88 1674.7 84.6631 2837.99 1991.51 1698.25 4041.06 2866.02 1448.84 3903.78 2601.62 4148.86 381.091 3767.76 159.242
internal_count=132201 108171 103350 67750 60108 35600 51811 8297 45269 6542 34919 36507 34541 24030 9722 32542 7642 411 14682 10354 7916 21825 13360 9311 20904 12233 19182 1647 17535 711
shrinkage=0.05


Tree=11
num_leaves=31
num_cat=0
split_feature=6 1 2 0 11 10 4 1 14 15 0 12 5 5 2 14 14 5 14 15 7 5 14 14 15 0 12 10 5 12
split_gain=3605.77 2493.28 1682.83 744.84 225.238 181.515 218.098 145.049 117.846 106.205 87.9224 85.1599 79.4137 65.6667 62.7654 61.8541 61.4536 50.0008 49.7278 59.4167 47.4842 40.5034 36.4939 36.0822 36.2985 34.0869 31.4507 30.9833 29.3466 28.5334
threshold=1.0000000180025095e-35 1.0000000180025095e-35 1.0000000180025095e-35 1.5000000000000002 1.0000000180025095e-35 1.0000000180025095e-35 1.0000000180025095e-35 1.0000000180025095e-35 0.067901770882662124 0.043432945105358521 2.5000000000000004 0.047249863639643695 1.0000000180025095e-35 1.5000000000000002 1.0000000180025095e-35 0.27106059198976873 0.2235200070044229 1.0000000180025095e-35 0.2235200070044229 0.062897878122609385 1.0000000180025095e-35 1.5000000000000002 0.028143888267205649 0.066788342069193901 0.039603427191141578 1.5000000000000002 0.25106979280108188 1.0000000180025095e-35 1.5000000000000002 0.27889634541528613
decision_type=2 2 2 2 2 2 2 2 2 2 2 2 2 2 2 2 2 2 2 2 2 2 2 2 2 2 2 2 2 2
left_child=7 2 3 4 5 6 8 14 9 -2 16 15 -9 18 20 -10 22 -16 19 -13 25 -7 -5 24 -8 -1 -24 -6 29 -18
right_child=1 -3 -4 10 27 21 23 12 11 -11 -12 13 -14 -15 17 -17 28 -19 -20 -21 -22 -23 26 -25 -26 -27 -28 -29 -30 -31
leaf_value=-0.050768760712913009 -0.010523308206255922 0.078534608705412817 0.072720857114218149 -0.0032172297994118269 -0.041469283366274083 0.011382529349777468 0.0054519929791788128 -0.061143086735451414 -0.0086749454943829876 -0.041628478672349735 -0.045442221006199296 -0.0031318623880663928 0.077956328423603838 0.018479035585100872 -0.061891740892166147 -0.022655237714632841 0.0057344150247514722 0.071644563567915764 -0.00011826259312591649 -0.019962137831890325 -0.023006498453351801 0.039763941061578295 0.017340763100203296 0.0085973585137299 -0.034668418303202019 -0.038085092432883473 0.030821381572686879 0.039948151335597523 0.032769758743237808 0.022184376774765431
leaf_weight=2818.8259680569172 558.18310947716236 1178.1557079702616 848.74874892830849 194.26364421844482 483.46880231797695 807.49522942304611 127.39411836862564 14.291186332702635 1902.0900621265173 539.80994713306427 62.431229785084724 1128.389741808176 36.384470298886299 305.84845639765263 10.810869425535204 1354.6545325517654 2481.8028473109007 19.938731580972672 2127.6534105241299 979.71225064992905 194.64511127769947 148.88645675778389 3595.1938872337341 2143.5470842123032 101.13007640838623 652.28572395443916 491.85697335004807 11.974516600370405 119.67154195904732 294.93904340267181
leaf_count=19573 2899 4756 3410 911 3021 3791 625 96 9903 3031 363 5708 147 1457 70 7297 11591 83 10794 5082 1043 665 16491 10440 525 4277 2223 70 524 1335
internal_value=0 0.155468 0.0753424 0.0167019 -0.129036 -0.102248 -0.137747 -0.905783 -0.209585 -0.516313 0.272749 -0.166398 0.77457 -0.0779062 -0.92882 -0.289802 0.283027 0.493924 -0.110218 -0.21907 -0.940754 0.316017 0.359133 0.131677 -0.246054 -0.967705 0.379262 -0.79003 0.17053 0.149634
internal_weight=0 21987.3 20809.1 19960.4 12720.2 12224.8 11268.4 3747.18 8896.34 1097.99 7240.16 7798.35 50.6757 4541.6 3696.51 3256.74 7177.73 30.7496 4235.76 2108.1 3665.76 956.382 4281.31 2372.07 228.524 3471.11 4087.05 495.443 2896.41 2776.74
internal_count=132201 106912 102156 98746 65308 62217 57761 25289 46171 5930 33438 40241 243 23041 25046 17200 33075 153 21584 10790 24893 4456 19625 11590 1150 23850 18714 3091 13450 12926
shrinkage=0.05


Tree=12
num_leaves=31
num_cat=0
split_feature=6 1 2 0 3 11 14 1 3 12 3 12 5 4 2 5 12 14 3 7 11 13 14 5 14 4 0 5 13 5
split_gain=3343.89 2264.59 1527.47 670.755 428.706 191.626 135.741 135.208 107.095 96.3901 91.1302 82.2878 72.287 65.7189 58.8433 56.1849 54.6839 50.084 48.5391 68.0487 56.3858 47.7136 45.9376 45.3058 44.083 42.5026 37.2888 34.1623 30.5762 27.4131
threshold=1.0000000180025095e-35 1.0000000180025095e-35 1.0000000180025095e-35 1.5000000000000002 2.5000000000000004 1.0000000180025095e-35 0.067901770882662124 1.0000000180025095e-35 1.5000000000000002 0.083260172852301528 2.5000000000000004 0.013579830710556249 1.0000000180025095e-35 1.0000000180025095e-35 1.0000000180025095e-35 1.5000000000000002 0.029123053053334149 0.25316506425308088 1.0000000180025095e-35 1.0000000180025095e-35 1.0000000180025095e-35 0.18404297565005248 0.044373160579019626 1.0000000180025095e-35 0.14446580062229467 1.0000000180025095e-35 2.5000000000000004 1.5000000000000002 0.74511978019751435 1.0000000180025095e-35
decision_type=2 2 2 2 2 2 2 2 2 2 2 2 2 2 2 2 2 2 2 2 2 2 2 2 2 2 2 2 2 2
left_child=7 2 3 4 5 6 11 14 -5 13 16 -2 -9 21 18 17 26 -11 20 29 22 -8 -1 -16 -18 -6 -10 -23 -15 -20
right_child=1 -3 -4 8 25 -7 9 12 10 15 -12 -13 -14 28 23 -17 24 -19 19 -21 -22 27 -24 -25 -26 -27 -28 -29 -30 -31
leaf_value=-0.053896408896355989 -0.0060805574377381273 0.075016945572725216 0.069446380691917817 -0.013998325647979504 0.012544109443360235 -0.044078758833914135 0.010726293419586698 -0.060482478643441397 0.0074270448941881053 -0.0078413197363919104 0.035327095414369035 -0.032978512428476235 0.074153555849202066 0.010736863297766748 -0.061179659953485836 0.02048328847850998 0.021518549723351193 0.0035490330873425482 -0.059729464998014174 -0.022113630884388384 -0.056540402967622486 -0.016068778767216359 -0.026980472438705577 0.067312568046891202 0.011129144028316272 0.030468141534243882 -0.043267681975862685 0.0037344901052152007 -0.0068133164116886335 -0.048108007873428664
leaf_weight=198.93227273225784 430.78130306303501 1171.8801970332861 844.43322165310383 352.30905456840992 1225.2995882034302 391.98750853538513 190.13924452662468 13.738900601863859 2320.322374984622 1989.3188323527575 477.96039693057537 836.42808155715466 36.338572770357132 421.02521938085556 10.400263503193857 290.55300241708755 1993.5562443882227 1874.4277359545231 903.6531708240509 192.43635411560535 322.94597959518433 3734.8220453560352 780.36947512626648 20.154864445328712 2092.8923339396715 453.01819241046906 36.849862635135651 231.26265351474285 604.50735829770565 1157.287289172411
leaf_count=1374 2240 4756 3410 1612 5627 2593 967 96 10856 10115 2008 4665 147 2065 70 1352 9080 9373 6631 1043 2290 20100 5190 83 9649 1988 233 1138 3085 8365
internal_value=0 0.14781 0.0715781 0.015811 -0.123111 -0.194968 -0.169585 -0.887489 0.257861 -0.1279 0.285236 -0.476694 0.744315 -0.21888 -0.910275 -0.0144188 0.253985 -0.0463099 -0.92215 -1.01097 -0.768455 -0.274821 -0.648962 0.471535 0.323951 0.347645 0.132691 -0.298281 0.00783574 -1.06407
internal_weight=0 21963.8 20791.9 19947.5 12673.6 10995.3 10603.3 3636.26 7273.89 9336.06 6921.58 1267.21 50.0775 5181.76 3586.18 4154.3 6443.62 3863.75 3555.62 2253.38 1302.25 4156.22 979.302 30.5551 4086.45 1678.32 2357.17 3966.08 1025.53 2060.94
internal_count=132201 106912 102156 98746 65308 57693 55100 25289 33438 48195 31826 6905 243 27355 25046 20840 29818 19488 24893 16039 8854 22205 6564 153 18729 7615 11089 21238 5150 14996
shrinkage=0.05


Tree=13
num_leaves=31
num_cat=0
split_feature=8 1 2 0 3 11 14 3 12 3 3 12 13 11 4 8 12 5 14 14 14 0 5 1 5 13 5 0 7 0
split_gain=3173.84 2100.35 1422.36 604.658 396.668 191.889 126.152 99.6086 94.4162 83.1969 81.8761 73.3672 62.4503 62.1456 55.3535 53.2457 50.677 48.3745 47.6395 45.7488 43.383 47.6622 40.5982 35.3547 31.9569 31.2339 29.8874 57.9778 27.6934 25.4073
threshold=1.0000000180025095e-35 1.0000000180025095e-35 1.0000000180025095e-35 1.5000000000000002 2.5000000000000004 1.0000000180025095e-35 0.067901770882662124 1.5000000000000002 0.083260172852301528 1.5000000000000002 2.5000000000000004 0.013579830710556249 0.18404297565005248 1.0000000180025095e-35 1.0000000180025095e-35 1.5000000000000002 0.24216552688035739 1.5000000000000002 0.044373160579019626 0.25316506425308088 0.2235200070044229 2.5000000000000004 1.0000000180025095e-35 1.0000000180025095e-35 1.5000000000000002 0.2563630894301458 1.0000000180025095e-35 1.5000000000000002 1.0000000180025095e-35 1.0000000180025095e-35
decision_type=2 2 2 2 2 2 2 2 2 2 2 2 2 2 2 2 2 2 2 2 2 2 2 2 2 2 2 2 2 2
left_child=9 2 3 4 5 6 11 -5 12 13 16 29 -8 18 24 -6 20 19 -1 25 21 -9 -20 -24 28 -10 -11 -28 -14 -2
right_child=1 -3 -4 7 15 -7 8 10 17 26 -12 -13 14 -15 -16 -17 -18 -19 22 -21 -22 -23 23 -25 -26 -27 27 -29 -30 -31
leaf_value=-0.051838767463743884 -0.029166259457431332 0.071858838044392498 0.06689606642337477 -0.013876346984985239 0.023315425026613105 -0.043858918494621958 0.014125918093596718 0.014412841592878685 0.0069007585703675907 -0.059114922672123066 0.033231372347508774 -0.031732475863739458 -0.040199153814881691 -0.055703256131248081 -0.0012264283455912539 0.0048880893195971387 0.023245660609330643 0.019058281194720431 -0.028488455927336245 0.0035243562833570949 0.0048636199298067841 -0.042706894256199147 -0.011047350032470246 0.068050966832235535 0.0035435385160568628 -0.010098076581797538 -0.050448734918983357 -0.013144930199404893 -0.014844318952916678 -0.00012016222250532572
leaf_weight=210.24239785969257 96.39000529050827 1178.7270586639643 842.7216662466526 353.25231131911278 1070.8626666814089 390.75124104321003 242.25304301083088 3311.0088247805834 322.51711575686932 826.75175134837627 481.53834730386734 829.43636338412762 110.96492575109005 311.55405241250992 980.69988046586514 618.38591334223747 850.02353174984455 291.83534070849419 825.3197146654129 1887.9211051613092 2299.9482709169388 36.92820742726326 50.217820376157761 19.65686072409153 231.61666043102741 1666.6823154985905 1006.1383258104324 116.18675121665001 3654.4623615443707 343.89075635373592
leaf_count=1484 538 4821 3428 1627 4727 2669 1226 15181 1639 6340 2010 4740 805 2293 4946 2913 3817 1347 5605 9458 10763 241 260 80 1138 8562 7224 744 19786 1789
internal_value=0 0.138405 0.0652062 0.0117697 -0.119915 -0.188912 -0.16368 0.240538 -0.123672 -0.903972 0.266759 -0.459515 -0.21329 -0.719588 -0.23742 0.331394 0.237274 -0.0114613 -0.608409 -0.0410148 0.203014 0.275656 -0.507805 0.224085 -0.289654 -0.14684 -1.03802 -0.931738 -0.31183 -0.129584
internal_weight=0 22092.8 20914.1 20071.4 12738.7 11049.4 10658.7 7332.7 9388.95 3366.07 6979.45 1269.72 5220 1416.99 4977.74 1689.25 6497.91 4168.96 1105.44 3877.12 5647.89 3347.94 895.194 69.8747 3997.04 1989.2 1949.08 1122.33 3765.43 440.281
internal_count=132201 108171 103350 99922 66283 58643 55974 33639 48907 24030 32012 7067 27901 9722 26675 7640 30002 21006 7429 19659 26185 15422 5945 340 21729 10201 14308 7968 20591 2327
shrinkage=0.05


Tree=14
num_leaves=31
num_cat=0
split_feature=8 1 2 0 3 10 7 3 3 3 12 0 15 13 15 8 15 5 12 0 5 0 5 13 13 12 5 12 15 10
split_gain=2946.68 1918.33 1296.8 544.997 358.416 143.527 115.936 89.5723 82.4037 73.1884 70.7967 60.8288 60.6192 59.3384 54.6716 47.4288 38.165 37.2838 35.6341 32.3992 30.5969 56.5029 30.3019 29.3945 30.4139 25.9952 25.1201 24.5008 25.5686 23.9996
threshold=1.0000000180025095e-35 1.0000000180025095e-35 1.0000000180025095e-35 1.5000000000000002 2.5000000000000004 1.0000000180025095e-35 1.0000000180025095e-35 1.5000000000000002 1.5000000000000002 2.5000000000000004 0.39701927891035116 1.5000000000000002 0.0514060258138632 0.79133402032083089 0.061168797708410098 1.5000000000000002 0.021562014727012625 1.5000000000000002 0.054633705882620946 2.5000000000000004 1.0000000180025095e-35 1.5000000000000002 1.0000000180025095e-35 0.12616378286926413 0.73109414857781096 0.23397730147053153 1.5000000000000002 0.035533748934575123 0.05909669868066874 1.0000000180025095e-35
decision_type=2 2 2 2 2 2 2 2 2 2 2 2 2 2 2 2 2 2 2 2 2 2 2 2 2 2 2 2 2 2
left_child=8 2 3 4 5 6 -2 -5 11 12 13 -1 17 14 -8 -6 18 19 -15 25 -10 -22 -13 -16 -25 -9 -7 -18 -29 -17
right_child=1 -3 -4 7 15 26 10 9 20 -11 -12 22 -14 16 23 29 27 -19 -20 -21 21 -23 -24 24 -26 -27 -28 28 -30 -31
leaf_value=-0.040640351252212888 -0.041375800096561756 0.068973373747748382 0.064149900543791813 -0.013248496443053743 0.021994706520934985 0.0075175603843695461 -0.0025649081310337965 0.00610501601525481 -0.058591731320918189 0.031362107012037371 0.0094276710948440704 -0.020847387697128128 0.018190278898228433 -0.012472212233570387 0.0076208722894848188 0.00085205544629687066 -0.021760470168337043 0.033117475121865671 0.0084107732241177485 -0.041029571991883479 -0.049602011796978408 -0.012585429632185405 0.029908102723826616 -0.018372007016319292 0.004046444976166564 0.018883374880144684 0.031735120738495062 -0.008207265013072328 -0.018587057598914335 0.030236359045808986
leaf_weight=1076.6683469116688 297.55121234059334 1166.9316663146019 835.04986515641212 351.53819036483765 1078.2109471708536 672.13358436524868 2985.0947643220425 3791.6276936233044 793.27465632557869 484.64405532181263 461.22484891116619 273.34964933991432 2111.5795729607344 597.38954648375511 145.65997686982155 539.76957158744335 1485.9431220442057 141.74425591528416 310.42859295010567 34.751265451312065 972.99233716726303 115.30735145509243 32.951335534453392 1362.7716015726328 170.17907193303108 444.67639556527138 127.36966150999069 1147.2602407932281 1228.7086885124445 79.756169036030769
leaf_count=7820 2165 4821 3428 1627 4727 3203 15487 17603 6340 2010 2304 1754 9567 3263 762 2549 8317 612 1582 233 7224 744 148 7350 905 1987 560 6090 6655 364
internal_value=0 0.131703 0.0619858 0.0111327 -0.114434 -0.180484 -0.212489 0.227607 -0.886263 0.252312 -0.193993 -0.700945 0.224461 -0.212697 -0.13249 0.313198 -0.291122 0.157783 -0.106625 0.141038 -1.02247 -0.913601 -0.307744 -0.276874 -0.317665 0.148927 0.227514 -0.334491 -0.271501 0.0926983
internal_weight=0 22052 20885.1 20050 12689.5 10991.7 10192.2 7360.56 3264.54 7009.02 9894.66 1382.97 6524.38 9433.44 4663.71 1697.74 4769.73 4412.8 907.818 4271.06 1881.57 1088.3 306.301 1678.61 1532.95 4236.3 799.503 3861.91 2375.97 619.526
internal_count=132201 108171 103350 99922 66283 58643 54880 33639 24030 32012 52715 9722 30002 50411 24504 7640 25907 20435 4845 19823 14308 7968 1902 9017 8255 19590 3763 21062 12745 2913
shrinkage=0.05


Tree=15
num_leaves=31
num_cat=0
split_feature=6 1 2 0 3 11 10 4 1 14 15 3 5 5 3 0 11 3 5 14 14 13 12 4 5 14 13 5 10 15
split_gain=2722.5 1676.41 1187.11 496.207 297.099 156.859 119.655 122.934 99.4146 76.8006 75.9327 73.6433 59.8037 56.7814 56.5459 56.0642 45.5939 43.226 65.0154 43.0807 39.7061 37.9641 43.6768 37.0316 31.1952 28.0958 34.8429 27.7524 27.3997 27.3862
threshold=1.0000000180025095e-35 1.0000000180025095e-35 1.0000000180025095e-35 1.5000000000000002 2.5000000000000004 1.0000000180025095e-35 1.0000000180025095e-35 1.0000000180025095e-35 1.0000000180025095e-35 0.075526564102152888 0.043432945105358521 1.5000000000000002 1.0000000180025095e-35 1.5000000000000002 2.5000000000000004 1.5000000000000002 1.0000000180025095e-35 1.5000000000000002 1.0000000180025095e-35 0.13025819690150722 0.028143888267205649 0.77232226654202629 0.28504775227468121 1.0000000180025095e-35 1.5000000000000002 0.065316733432394761 0.31042815566648713 1.5000000000000002 1.0000000180025095e-35 0.04417123278015591
decision_type=2 2 2 2 2 2 2 2 2 2 2 2 2 2 2 2 2 2 2 2 2 2 2 2 2 2 2 2 2 2
left_child=8 2 3 4 5 6 7 9 15 10 -2 -5 -10 21 19 -1 23 -17 -19 20 -13 -11 -23 28 -21 29 -27 -8 -6 -9
right_child=1 -3 -4 11 16 -7 27 25 12 13 -12 14 -14 -15 -16 17 -18 18 -20 24 -22 22 -24 -25 -26 26 -28 -29 -30 -31
leaf_value=-0.046445809456838905 -0.011123873251245321 0.066188665636610536 0.06170676908187165 -0.01143455747293305 0.0083456972093402318 -0.040664429376248507 0.0073308540571057198 0.00060801894515744904 -0.059323014951880096 -0.0066259674681565508 -0.037255812573288666 -0.0070530029305661121 0.067846055059583202 0.0085867460080713345 0.028334369223885259 -0.015261945296949353 -0.01997350401512276 -0.058251114492110991 -0.01518722643616361 0.0069277492573319782 0.017981716608574953 -0.016474191144460821 0.0017675023302420136 0.028186185809260317 0.031513434453787813 0.022331037673051776 0.0014857381099381598 0.033137463727393332 0.031460503156685631 -0.03933711759569649
leaf_weight=2649.4838888198137 568.64828272163868 1107.1813291013241 827.85049700737 351.26066809892654 1031.4082441627979 366.59471647441387 659.44941739737988 98.247006043791771 12.956807076930998 2847.4867519587278 543.85536369681358 170.70648036897182 32.270969197154045 398.93297488987446 494.05965714156628 280.60470439493656 93.963420882821083 222.98390489816666 144.40493953227997 4013.8130691498518 2194.1379135549068 2991.3971304744482 368.57175745069981 442.35548017919064 133.30688159167767 230.38328567147255 1543.6504726111889 123.72441710531712 146.40301267802715 76.179401367902756
leaf_count=20602 3090 4631 3436 1629 4628 2593 3121 505 98 14958 3273 855 133 1931 2036 1776 501 1834 947 18454 9888 16506 1851 1892 572 1123 7725 537 644 432
internal_value=0 0.124894 0.0608206 0.011982 -0.109048 -0.170342 -0.147788 -0.178244 -0.844234 -0.2349 -0.477973 0.218125 0.628296 -0.193967 0.240527 -0.864432 0.277753 -0.60077 -0.826491 0.215781 0.323492 -0.21747 -0.289463 0.31703 0.154361 0.0462028 0.0838559 0.228155 0.224378 -0.336754
internal_weight=0 21823.6 20716.4 19888.5 12531.3 10817.1 10450.5 9667.35 3342.71 7718.89 1112.5 7357.28 45.2278 6606.39 7006.02 3297.48 1714.13 647.994 367.389 6511.96 2364.84 6207.46 3359.97 1620.17 4147.12 1948.46 1774.03 783.174 1177.81 174.426
internal_count=132201 106811 102180 98744 65310 57645 55052 51394 25390 41609 6363 33434 231 35246 31805 25159 7665 4557 2781 29769 10743 33315 18357 7164 19026 9785 8848 3658 5272 937
shrinkage=0.05


Tree=16
num_leaves=31
num_cat=0
split_feature=7 1 2 0 3 11 10 4 1 3 3 5 11 5 3 0 12 11 12 13 5 0 15 4 7 10 0 0 10 13
split_gain=2534.99 1542.65 1095.61 451.89 269.635 147.282 112.065 115.096 86.358 70.8715 65.2296 64.7615 57.1865 56.3604 52.6393 44.6572 41.4916 41.371 39.9686 42.3368 35.2363 34.0616 32.4853 30.757 28.4622 25.7631 24.6341 22.0174 20.3393 18.449
threshold=1.0000000180025095e-35 1.0000000180025095e-35 1.0000000180025095e-35 1.5000000000000002 2.5000000000000004 1.0000000180025095e-35 1.0000000180025095e-35 1.0000000180025095e-35 1.0000000180025095e-35 1.5000000000000002 1.5000000000000002 1.5000000000000002 1.0000000180025095e-35 1.0000000180025095e-35 2.5000000000000004 1.5000000000000002 0.030218538849056831 1.0000000180025095e-35 0.27319521671986491 0.77232226654202629 1.0000000180025095e-35 1.5000000000000002 0.069279475597995369 1.0000000180025095e-35 1.5000000000000002 1.0000000180025095e-35 2.5000000000000004 1.0000000180025095e-35 1.0000000180025095e-35 1.0614573676229138
decision_type=2 2 2 2 2 2 2 2 2 2 2 2 2 2 2 2 2 2 2 2 2 2 2 2 2 2 2 2 2 2
left_child=8 2 3 4 5 6 7 11 10 -5 12 18 15 -10 16 27 26 23 19 22 -12 -22 -2 25 -8 -6 29 -1 -18 -11
right_child=1 -3 -4 9 17 -7 24 -9 13 14 20 -13 -14 -15 -16 -17 28 -19 -20 -21 21 -23 -24 -25 -26 -27 -28 -29 -30 -31
leaf_value=-0.053956966828718256 -0.0064193547688565604 0.06367527937055234 0.059493641361355765 -0.011546043829102045 0.0079121075680326832 -0.03984801752298326 0.02233090781683118 0.0022164871759170453 -0.058786375053937183 0.0099243974769514104 -0.057639491656809407 0.0067723528023009988 -0.054265806644053484 0.068798358214351138 0.027043058284879601 -0.010704827643909719 0.012589991757646801 -0.019182347406171529 -0.0016533111156405355 -0.017700129419812315 -0.046583485083660926 -0.018381671667797538 -0.017671589371301654 0.026100822383736545 0.003037358668091952 0.030184361924702609 -0.038000595373323523 -0.031118881023749625 0.032681918237374312 0.001145854443199602
leaf_weight=127.07598604261875 2248.8886891305447 1095.6179118156433 818.62787371873856 354.55330035090446 1039.1176047325134 356.275564879179 323.94487299025059 1950.432034522295 12.434548422694204 1208.1629237234592 733.90026751160622 462.1152271181345 284.22515074908733 28.485337048768997 497.52077193558216 253.23949691653252 3999.8638136535883 94.183632031083107 756.40829887986183 3359.3198879957199 966.35102771967649 120.40598361194134 897.38375160098076 445.53448721766472 466.324278652668 148.38126634061337 32.877679258584976 622.49720126390457 130.05576664209366 1186.0675477534533
leaf_count=1009 11936 4646 3440 1653 4651 2585 1490 9782 98 5558 6342 2256 2304 118 2041 1614 18005 508 3850 18869 7920 846 4978 1892 2188 647 225 4673 576 5501
internal_value=0 0.11701 0.0560221 0.00951294 -0.106113 -0.164677 -0.143151 -0.172727 -0.842687 0.205341 -0.86169 -0.227537 -0.689376 0.60057 0.227267 -0.577155 0.203472 0.260796 -0.250635 -0.275932 -0.983501 -0.869178 -0.192575 0.297964 0.218922 0.213902 0.099707 -0.699813 0.264454 0.111513
internal_weight=0 21871.7 20776 19957.4 12548.3 10821.1 10464.8 9674.55 3148.61 7409.1 3107.7 7724.12 1287.04 40.9199 7054.55 1002.81 6557.03 1727.22 7262 6505.59 1820.66 1086.76 3146.27 1633.03 790.269 1187.5 2427.11 749.573 4129.92 2394.23
internal_count=132201 107277 102631 99191 65632 57934 55349 51671 24924 33559 24708 41889 9600 216 31906 7296 29865 7698 39633 35783 15108 8766 16914 7190 3678 5298 11284 5682 18581 11059
shrinkage=0.05


Tree=17
num_leaves=31
num_cat=0
split_feature=7 1 2 11 3 14 3 5 10 15 13 14 12 11 14 14 5 7 12 1 2 4 14 15 10 3 5 12 4 5
split_gain=2355 1417.31 1003.85 232.613 232.904 114.475 83.5889 99.2307 78.1433 76.0732 70.4471 66.138 50.6773 48.2531 47.7822 43.4123 36.2285 35.2489 34.4564 31.6684 37.9995 24.1203 24.0936 26.3589 23.8633 23.1117 21.9946 21.8606 20.4656 22.4702
threshold=1.0000000180025095e-35 1.0000000180025095e-35 1.0000000180025095e-35 1.0000000180025095e-35 2.5000000000000004 0.044373160579019626 1.5000000000000002 1.0000000180025095e-35 1.0000000180025095e-35 0.009254300880820852 0.77686860928681123 1.0000000180025095e-35 0.096912541290921556 1.0000000180025095e-35 0.3445981719452017 0.044373160579019626 1.0000000180025095e-35 1.5000000000000002 0.052330934251488818 1.0000000180025095e-35 1.0000000180025095e-35 1.0000000180025095e-35 0.072479104955757892 0.035722400495391521 1.0000000180025095e-35 3.5000000000000004 1.5000000000000002 0.42661505876121136 1.0000000180025095e-35 1.5000000000000002
decision_type=2 2 2 2 2 2 2 2 2 2 2 2 2 2 2 2 2 2 2 2 2 2 2 2 2 2 2 2 2 2
left_child=6 2 3 4 5 11 7 13 9 18 28 -2 14 15 -12 -1 -8 -10 26 20 -9 -14 23 -6 -5 -24 -7 -17 29 -11
right_child=1 -3 -4 24 22 8 16 19 17 10 12 -13 21 -15 -16 27 -18 -19 -20 -21 -22 -23 25 -25 -26 -27 -28 -29 -30 -31
leaf_value=-0.052060497621807506 -0.0060013647438802512 0.061435076908630086 0.057315247229755208 -0.036652829596150412 0.019439338483592788 0.0007561441872523737 -0.057204827930081928 -0.029565529756739456 0.025165951572725439 -0.00085522059125949814 -0.005684051877929217 -0.032914755589318008 -0.0030819799015887619 -0.053780377909257916 -0.01764579109554763 -0.026074108744496168 -0.042551580907525623 0.0055056833481182009 0.011094697791800659 0.065189570758964574 0.060419838961619281 0.010211207081656725 0.016269421154324715 -0.0098533724462145176 0.032757291074337329 0.03045131153846611 0.024506926788060983 0.027460027716485393 0.0078932420531179718 0.014714927891101254
leaf_weight=179.00112645328045 524.33594937622547 1079.2081366032362 807.53717696666718 446.38180764019489 145.03522223234177 2449.6945835500956 703.27748228609562 36.480545088648796 420.06623385846615 4304.773913398385 2214.2232515662909 404.27737475931644 1840.063055858016 272.76902183890343 1340.1780586242676 743.52656096220016 1053.9745046794415 498.58520799875259 1581.3627972453833 27.687349870800972 17.293676540255547 418.93654261529446 1470.5334591567516 163.22971461713314 12.736275926232336 357.02654761075974 101.5160877853632 19.571538917720318 996.80513654649258 244.90187455713749
leaf_count=1450 2721 4646 3440 3108 620 11476 6342 233 1896 21933 11811 2391 9225 2301 7462 5495 8768 2312 7125 116 71 2028 6320 727 75 1550 437 148 4818 1156
internal_value=0 0.111413 0.0532813 0.00900381 0.0255894 -0.0127907 -0.826215 -0.633583 0.00653714 -0.0102661 -0.0525309 -0.354365 -0.129451 -0.705227 -0.203884 -0.597989 -0.96832 0.289912 0.105914 0.434865 -0.0125285 -0.0123346 0.337178 0.0785704 -0.694547 0.380799 0.0340244 -0.494022 0.0280906 -0.000342081
internal_weight=0 21821.4 20742.2 19934.7 19475.5 17339.7 3053.58 1296.33 16411.1 15492.5 11359.9 928.613 5813.4 1214.87 3554.4 942.099 1757.25 918.651 4132.57 81.4616 53.7742 2259 2135.82 308.265 459.118 1827.56 2551.21 763.098 5546.48 4549.68
internal_count=132201 107277 102631 99191 96008 86791 24924 9814 81679 77471 58433 5112 30526 9394 19273 7093 15110 4208 19038 420 304 11253 9217 1347 3183 7870 11913 5643 27907 23089
shrinkage=0.05


Tree=18
num_leaves=31
num_cat=0
split_feature=8 1 2 0 3 11 3 5 4 3 8 11 7 12 0 13 3 15 5 5 5 0 8 12 0 3 13 15 4 13
split_gain=2264 1321.8 927.597 391.257 224.242 139.173 83.4865 79.1702 94.5266 62.2051 60.2613 59.5679 57.4268 51.9755 44.0632 42.9645 41.8078 37.2299 34.407 29.7341 28.2893 47.1239 25.8526 21.8478 21.7839 21.2616 21.0535 20.6016 19.8501 19.4499
threshold=1.0000000180025095e-35 1.0000000180025095e-35 1.0000000180025095e-35 1.5000000000000002 2.5000000000000004 1.0000000180025095e-35 1.5000000000000002 1.5000000000000002 1.0000000180025095e-35 1.5000000000000002 1.5000000000000002 1.0000000180025095e-35 1.0000000180025095e-35 0.26808742084479481 1.5000000000000002 0.79133402032083089 2.5000000000000004 0.035291620233679759 1.5000000000000002 1.5000000000000002 1.0000000180025095e-35 1.5000000000000002 1.5000000000000002 0.033281880599956966 1.0000000180025095e-35 1.5000000000000002 0.34609702565572842 0.061168797708410098 1.0000000180025095e-35 0.12616378286926413
decision_type=2 2 2 2 2 2 2 2 2 2 2 2 2 2 2 2 2 2 2 2 2 2 2 2 2 2 2 2 2 2
left_child=6 2 3 4 5 7 11 8 12 -5 -6 14 -2 15 24 22 17 18 23 28 -8 -22 -14 -11 -1 -17 -9 -24 -12 -29
right_child=1 -3 -4 9 10 -7 20 26 -10 16 19 -13 13 -15 -16 25 -18 -19 -20 -21 21 -23 27 -25 -26 -27 -28 29 -30 -31
leaf_value=-0.052310155464236577 -0.035603943204958965 0.059560216321173989 0.055389570764956736 -0.010997520616657062 0.018729493006503419 -0.038736000510635887 -0.05679716593816983 0.02742792207406743 0.0021620248187470248 0.0020376894893076643 -0.011684548902562736 -0.053029344926924321 -0.003832043757088554 0.0017992656234290241 -0.0089751507300576874 -0.0030109359799069743 0.024486317549454711 0.01426170676890734 0.031277741390685197 0.020114803058279753 -0.047409073047912635 -0.012884303828232638 -0.0078697031138962176 0.0094945340281774281 -0.028852209864301155 -0.016303998852192168 0.0055582867521497938 0.014204784246001932 0.012946437543073766 -0.024825650278149574
leaf_weight=118.03241480141878 215.84767010062933 1069.4848944246769 798.88997307419777 351.77120399475098 1109.5535114556551 348.16051256656647 673.65809504687786 140.00599184632301 1937.5453022047877 2014.9620991647243 384.2255489975214 262.62399838864803 2221.6536619514227 904.75004917383194 269.11506341397762 334.1507111787796 499.753741517663 2519.8177429884672 135.7319363951683 134.4401633143425 872.61699758470058 111.46172448992729 716.38866947591305 1916.6339148432016 612.74994411319494 3014.4086767435074 514.29129785299301 34.705664873123169 103.92078118026257 397.53442148864269
leaf_count=1011 1762 4679 3452 1647 4785 2677 6342 653 9736 9429 1814 2303 11832 4528 1738 1652 2040 11326 574 624 7259 746 3753 8637 4744 17176 2458 181 457 2186
internal_value=0 0.107072 0.0511922 0.00888168 -0.0990996 -0.152765 -0.830499 -0.132006 -0.154543 0.190502 0.234871 -0.636751 -0.203426 -0.189025 -0.525431 -0.219324 0.210876 0.18972 0.130547 -0.0141301 -0.978056 -0.869972 -0.139616 0.113457 -0.65282 -0.29955 0.204759 -0.261422 -0.128818 -0.433836
internal_weight=0 21818.6 20749.1 19950.3 12511.6 10779.4 2920.26 10431.3 9776.98 7438.67 1732.14 1262.52 7839.44 7623.59 999.897 6718.84 7086.9 6587.15 4067.33 622.586 1657.74 984.079 3370.28 3931.6 730.782 3348.56 654.297 1148.63 488.146 432.24
internal_count=132201 108058 103379 99927 66274 58594 24143 55917 52806 33653 7680 9796 43070 41308 7493 36780 32006 29966 18640 2895 14347 8005 17952 18066 5755 18828 3111 6120 2271 2367
shrinkage=0.05


Tree=19
num_leaves=31
num_cat=0
split_feature=8 1 0 3 3 9 14 15 3 10 9 7 0 0 8 12 14 14 3 14 3 15 5 0 5 14 12 5 14 5
split_gain=2102.66 1217.73 432.482 166.438 189.953 118.342 104.215 109.404 82.9403 67.395 65.2335 63.4034 57.2619 55.2891 54.1564 45.4476 53.4718 37.7052 36.4376 36.221 32.9677 32.855 29.1464 46.0074 26.7114 27.6319 37.8002 25.3813 25.3176 22.7632
threshold=1.0000000180025095e-35 1.0000000180025095e-35 1.5000000000000002 2.5000000000000004 1.5000000000000002 1.0000000180025095e-35 0.069203554356738264 0.04417123278015591 1.5000000000000002 1.0000000180025095e-35 1.0000000180025095e-35 1.0000000180025095e-35 2.5000000000000004 1.5000000000000002 1.5000000000000002 0.083260172852301528 0.33087350071357086 0.13519534236539885 2.5000000000000004 0.12178442573063224 1.5000000000000002 0.067893211062416234 1.0000000180025095e-35 1.5000000000000002 1.5000000000000002 0.21595690123951036 0.02959211688521669 1.5000000000000002 0.028143888267205649 1.0000000180025095e-35
decision_type=2 2 2 2 2 2 2 2 2 2 2 2 2 2 2 2 2 2 2 2 2 2 2 2 2 2 2 2 2 2
left_child=8 2 3 4 10 12 7 -6 13 11 -2 -8 17 29 -5 16 -13 28 20 21 -19 -17 -10 -24 25 26 -16 -22 -4 -1
right_child=1 -3 5 14 6 -7 9 -9 22 -11 -12 15 -14 -15 24 19 -18 18 -20 -21 27 -23 23 -25 -26 -27 -28 -29 -30 -31
leaf_value=-0.038493444870440277 0.0073502978573855978 0.057603166036457425 -0.001255444913030322 0.017738241463673244 -0.0072672668330331898 0.054979555543440445 -0.035759306108445812 -0.038841245795928764 -0.056414479589978674 0.014596721361134017 0.051910433057324193 -0.0061375499587298116 -0.040329573800050499 -0.011645941195441841 0.014365783307345984 -0.0024057527500204205 -0.01779945597984715 0.021318706005454352 0.0257464214804786 0.00025634687680284134 0.0051464555116720158 -0.027802278546699102 -0.046630581292503984 -0.012335879714530224 0.018970741313122461 0.0087132036399734433 -0.026305622472558483 0.027625055222643316 0.01673653098593705 -0.0023299312430637817
leaf_weight=903.70636255294085 1680.6282839775085 1051.0012225210667 210.15461087226868 1115.2956864982843 556.83577921241522 154.36101546883583 192.20871765166521 540.823994807899 645.04011330008507 364.52559428662062 86.353106081485748 3030.204912096262 54.446603789925575 285.151132337749 77.301298469305038 272.48528376221657 1454.8662334531546 377.91993154585361 281.79948136210442 2651.399611055851 3889.3312354385853 239.08764560520649 843.56657986342907 110.61823087930679 135.39502826333046 190.60933861136436 218.91988176107407 129.76844488084316 2808.9111729562283 45.715622514486313
leaf_count=7664 7973 4679 976 4787 3151 689 1618 3560 6342 1710 381 16691 352 1873 350 1415 8410 1696 1145 13818 17770 1337 7259 746 624 877 1044 546 12459 259
internal_value=0 0.101973 0.0486922 -0.0648431 -0.110008 0.232592 -0.167101 -0.456479 -0.813779 -0.128387 0.190559 -0.147929 0.215329 -0.619066 0.222897 -0.133673 -0.198409 0.222557 0.166338 -0.0418786 0.143997 -0.2855 -0.964094 -0.853096 -0.0134668 -0.122733 -0.313842 0.117445 0.309682 -0.735043
internal_weight=0 21764.6 20713.6 12806.9 11069.4 7906.69 9302.44 1097.66 2833.8 8204.78 1766.98 7840.25 7752.33 1234.57 1737.52 7648.04 4485.07 7697.88 4678.82 3162.97 4397.02 511.573 1599.22 954.185 622.226 486.831 296.221 4019.1 3019.07 949.422
internal_count=132201 108058 103379 67746 60064 35633 51710 6711 24143 44999 8354 43289 34944 9796 7682 41671 25101 34592 21157 16570 20012 2752 14347 8005 2895 2271 1394 18316 13435 7923
shrinkage=0.05


end of trees

feature importances:
VEHCOUNT=72
UNDERINFL=72
ADDRTYPE=59
t_circles_dist=59
bikerack_dist=52
marked_cross_dist=52
HITPARKEDCAR=33
radar_dist=29
LIGHTCOND=28
PEDCOUNT=27
PEDCYLCOUNT=27
INATTENTIONIND=24
ROADCOND=24
SPEEDING=22
PEDROWNOTGRNT=12
WEATHER=8

parameters:
[boosting: gbdt]
[objective: binary]
[metric: binary_logloss]
[tree_learner: serial]
[device_type: cpu]
[data: ]
[valid: ]
[num_iterations: 100]
[learning_rate: 0.05]
[num_leaves: 31]
[num_threads: 0]
[max_depth: -1]
[min_data_in_leaf: 20]
[min_sum_hessian_in_leaf: 0.001]
[bagging_fraction: 0.8]
[pos_bagging_fraction: 1]
[neg_bagging_fraction: 1]
[bagging_freq: 5]
[bagging_seed: 3]
[feature_fraction: 0.8]
[feature_fraction_bynode: 1]
[feature_fraction_seed: 2]
[early_stopping_round: 0]
[first_metric_only: 0]
[max_delta_step: 0]
[lambda_l1: 0]
[lambda_l2: 0]
[min_gain_to_split: 0]
[drop_rate: 0.1]
[max_drop: 50]
[skip_drop: 0.5]
[xgboost_dart_mode: 0]
[uniform_drop: 0]
[drop_seed: 4]
[top_rate: 0.2]
[other_rate: 0.1]
[min_data_per_group: 100]
[max_cat_threshold: 32]
[cat_l2: 10]
[cat_smooth: 10]
[max_cat_to_onehot: 4]
[top_k: 20]
[monotone_constraints: ]
[feature_contri: ]
[forcedsplits_filename: ]
[forcedbins_filename: ]
[refit_decay_rate: 0.9]
[cegb_tradeoff: 1]
[cegb_penalty_split: 0]
[cegb_penalty_feature_lazy: ]
[cegb_penalty_feature_coupled: ]
[verbosity: 0]
[max_bin: 255]
[max_bin_by_feature: ]
[min_data_in_bin: 3]
[bin_construct_sample_cnt: 200000]
[histogram_pool_size: -1]
[data_random_seed: 1]
[output_model: LightGBM_model.txt]
[snapshot_freq: -1]
[input_model: ]
[output_result: LightGBM_predict_result.txt]
[initscore_filename: ]
[valid_data_initscores: ]
[pre_partition: 0]
[enable_bundle: 1]
[max_conflict_rate: 0]
[is_enable_sparse: 1]
[sparse_threshold: 0.8]
[use_missing: 1]
[zero_as_missing: 0]
[two_round: 0]
[save_binary: 0]
[header: 0]
[label_column: ]
[weight_column: ]
[group_column: ]
[ignore_column: ]
[categorical_feature: ]
[predict_raw_score: 0]
[predict_leaf_index: 0]
[predict_contrib: 0]
[num_iteration_predict: -1]
[pred_early_stop: 0]
[pred_early_stop_freq: 10]
[pred_early_stop_margin: 10]
[convert_model_language: ]
[convert_model: gbdt_prediction.cpp]
[num_class: 1]
[is_unbalance: 0]
[scale_pos_weight: 1]
[sigmoid: 1]
[boost_from_average: 1]
[reg_sqrt: 0]
[alpha: 0.9]
[fair_c: 1]
[poisson_max_delta_step: 0.7]
[tweedie_variance_power: 1.5]
[max_position: 20]
[lambdamart_norm: 1]
[label_gain: ]
[metric_freq: 1]
[is_provide_training_metric: 0]
[eval_at: ]
[multi_error_top_k: 1]
[num_machines: 1]
[local_listen_port: 12400]
[time_out: 120]
[machine_list_filename: ]
[machines: ]
[gpu_platform_id: -1]
[gpu_device_id: -1]
[gpu_use_dp: 0]

end of parameters

pandas_categorical:[]
