tree
version=v3
num_class=1
num_tree_per_iteration=1
label_index=0
max_feature_idx=11
objective=binary sigmoid:1
feature_names=PEDCOUNT PEDCYLCOUNT VEHCOUNT UNDERINFL WEATHER ROADCOND LIGHTCOND CROSSWALKKEY SPEEDING_Y INATTENTIONIND_Y HITPARKEDCAR_Y PEDROWNOTGRNT_Y
feature_infos=[0:6] [0:2] [0:15] [0:1] [0:2] [0:2] [0:3] [0:703480] [0:1] [0:1] [0:1] [0:1]
tree_sizes=3440 3461 3472 3455 3452 3478 3442 3476 3475 3489 3488 3471 3483 3490 3483 3478 3472 3468 3482 3481

Tree=0
num_leaves=31
num_cat=0
split_feature=0 5 11 2 2 10 6 6 2 10 8 6 7 6 5 2 7 9 7 10 3 6 2 2 6 6 3 2 5 6
split_gain=9567.65 7166.02 1978.9 1060.63 970.406 606.135 271.047 270.645 249.385 191.008 187.019 160.808 153.974 146.723 109.358 73.9191 64.0389 62.9826 54.021 48.6336 45.2319 46.9762 43.688 41.6077 41.0409 38.9308 30.7397 30.5832 29.4791 23.9018
threshold=1.0000000180025095e-35 1.0000000180025095e-35 1.0000000180025095e-35 2.5000000000000004 1.5000000000000002 1.0000000180025095e-35 1.0000000180025095e-35 1.5000000000000002 1.0000000180025095e-35 1.0000000180025095e-35 1.0000000180025095e-35 1.5000000000000002 25504.500000000004 1.0000000180025095e-35 1.5000000000000002 1.5000000000000002 25504.500000000004 1.0000000180025095e-35 520808.50000000006 1.0000000180025095e-35 1.0000000180025095e-35 1.5000000000000002 1.0000000180025095e-35 1.0000000180025095e-35 1.0000000180025095e-35 1.0000000180025095e-35 1.0000000180025095e-35 3.5000000000000004 1.5000000000000002 1.0000000180025095e-35
decision_type=2 2 2 2 2 2 2 2 2 2 2 2 2 2 2 2 2 2 2 2 2 2 2 2 2 2 2 2 2 2
left_child=1 15 3 4 7 6 -6 12 13 11 17 27 14 -2 23 18 22 20 19 24 21 -8 -9 -3 -1 -25 -12 -5 -24 -17
right_child=8 2 -4 9 5 -7 10 16 -10 -11 26 -13 -14 -15 -16 29 -18 -19 -20 -21 -22 -23 28 25 -26 -27 -28 -29 -30 -31
leaf_value=-0.98985942232474244 -1.0077134354145187 -0.76893496134171369 -0.78596596746856595 -0.88950844406329954 -0.98861477574446099 -0.99448295158452082 -0.94118081461682657 -0.76258615852137845 -0.78425403381108127 -0.96430335051573357 -0.91414062116820949 -0.91678223181047658 -0.78588999946190286 -0.77269241607211614 -0.91850845151571137 -1.0072112862769991 -0.80142589342225234 -0.93406990794666145 -0.86032430720285391 -1.0073807049630448 -0.9211540317018726 -0.94785448977126963 -0.91990317868272198 -0.96548331532125609 -0.92342249663653575 -0.88286417582781007 -0.85719880542929994 -0.86873504470039675 -0.93682149913546664 -0.99537809381199105
leaf_weight=1441.2166406214237 20.193591713905334 7.8755007684230796 224.55273985862732 1001.4002130925655 296.64386227726936 553.91022071242332 8467.7788133919239 4.038718342781066 966.86917126178741 110.05507484078407 517.96562746167183 640.74266508221626 34.329105913639069 9.8948599398136157 309.76969689130783 2535.1035037636757 10.298731774091719 2444.8381488025188 7.6735648512840262 462.83712208271027 235.86115121841431 3829.3107967078686 584.80641603469849 14.539386034011839 23.626502305269241 737.87384122610092 24.838117808103561 215.26368767023087 460.01001924276352 513.11916545033455
leaf_count=7137 100 39 1112 4959 1469 2743 41933 20 4788 545 2565 3173 170 49 1534 12554 51 12107 38 2292 1168 18963 2896 72 117 3654 123 1066 2278 2541
internal_value=0 -0.117256 0.141619 0.109282 0.0351775 -0.0480041 -0.011996 0.664598 3.04011 0.80739 0.00610156 0.883235 1.01097 0.204931 0.944086 -1.19392 0.303439 -0.0147955 -1.04108 -1.05162 -0.0434363 -0.0517563 0.279074 1.14814 -0.962334 1.12421 0.582723 1.09676 0.266385 -1.29096
internal_weight=0 25710.3 20726.7 20502.1 18534.7 16371.1 15817.2 2163.54 996.958 1967.46 15520.6 1857.41 1104.39 30.0885 1070.06 4983.58 1059.15 14977.8 1935.35 1927.68 12533 12297.1 1048.86 760.289 1464.84 752.413 542.804 1216.66 1044.82 3048.22
internal_count=132256 127319 102640 101528 91785 81071 78328 10714 4937 9743 76859 9198 5469 149 5299 24679 5245 74171 9584 9546 62064 60896 5194 3765 7254 3726 2688 6025 5174 15095
shrinkage=1


Tree=1
num_leaves=31
num_cat=0
split_feature=0 5 1 10 6 8 6 9 6 1 3 11 5 7 5 6 3 3 5 10 6 8 7 8 6 6 3 9 6 3
split_gain=8111.59 6646.9 5345.74 654.87 284.092 263.57 160.201 116.554 81.2294 75.0368 71.8253 53.3065 48.8614 48.1192 39.6701 39.5451 23.2952 21.7183 20.4211 19.7019 18.9767 14.6175 13.8391 12.7506 10.3226 7.69068 7.4373 7.27315 6.70811 5.19185
threshold=1.0000000180025095e-35 1.0000000180025095e-35 1.0000000180025095e-35 1.0000000180025095e-35 1.0000000180025095e-35 1.0000000180025095e-35 1.0000000180025095e-35 1.0000000180025095e-35 1.5000000000000002 1.0000000180025095e-35 1.0000000180025095e-35 1.0000000180025095e-35 1.5000000000000002 521552.50000000006 1.0000000180025095e-35 1.0000000180025095e-35 1.0000000180025095e-35 1.0000000180025095e-35 1.5000000000000002 1.0000000180025095e-35 2.5000000000000004 1.0000000180025095e-35 32813.500000000007 1.0000000180025095e-35 1.0000000180025095e-35 2.5000000000000004 1.0000000180025095e-35 1.0000000180025095e-35 1.0000000180025095e-35 1.0000000180025095e-35
decision_type=2 2 2 2 2 2 2 2 2 2 2 2 2 2 2 2 2 2 2 2 2 2 2 2 2 2 2 2 2 2
left_child=1 9 3 4 23 7 11 8 18 13 20 14 17 19 22 -11 21 -7 26 24 -10 -5 -2 -3 -1 -19 -6 -26 -4 -14
right_child=6 2 28 16 5 12 -8 -9 10 15 -12 -13 29 -15 -16 -17 -18 25 -20 -21 -22 -23 -24 -25 27 -27 -28 -29 -30 -31
leaf_value=-0.058467557501134138 -0.043558403021592917 -0.044427376103754468 0.079112010043728601 -0.051255830924756898 0.0023246846408255949 0.035793519920932208 0.13931044941845783 0.011761333414472998 -0.020296810938680451 -0.015698495826648087 0.018406717610005004 0.14762262414776239 0.017199642573095551 0.10291973738051888 0.13841482157586416 0.11128580655432302 -0.014971176229416695 0.10741850296757467 0.0079183226640046778 -0.066405711222153094 -0.0049719138760845631 0.0034320160256905048 0.035575255321381977 0.0092812111657999928 -0.052350457194995093 0.060068128658164924 0.018582221969402835 -0.029182878673711794 0.14148082036434451 0.039475370020925458
leaf_weight=3614.7557163387537 17.824623733758933 316.76037965714931 4.3376072645187369 588.63655033707619 7522.8035403192043 471.9234766215086 1021.5134933441877 3068.4797423630953 211.44343590736389 21.644625201821331 331.8442680388689 8.3920918554067594 585.14241296052933 4.5958263278007498 4.7340005338191977 8.5539985746145231 51.148663580417633 11.217613160610197 2230.533858075738 747.68221816420555 4526.0618490427732 12.477918818593023 8.0066563338041288 11.449987784028052 417.20347791910172 36.408394172787666 71.011109665036201 36.870588198304176 710.0523079931736 27.381671980023384
leaf_count=18390 90 1598 21 2980 37151 2305 4747 15105 1048 109 1630 39 2870 22 22 42 258 54 11017 3814 22436 63 39 57 2115 177 347 187 3389 134
internal_value=0 -0.111999 0.133957 0.0382978 0.0713966 0.0872529 2.71031 0.0577575 0.0211944 -1.16599 -0.0816146 0.720041 0.555245 -1.17583 0.107104 0.405416 -0.947286 0.780821 0.0742437 -1.17892 -0.113118 -1.00241 -0.380603 -0.851074 -1.1515 1.42442 0.0495342 -1.00939 2.82204 0.363909
internal_weight=0 25640.4 20789.1 20074.7 19422.5 19094.3 1060.47 17962.2 14893.7 4851.31 5069.35 38.9574 1132.07 4821.11 30.5653 30.1986 652.263 519.549 9824.35 4816.51 4737.51 601.114 25.8313 328.21 4068.83 47.626 7593.81 454.074 714.39 612.524
internal_count=132256 127319 102640 99230 95929 94274 4937 88734 73629 24679 25114 190 5540 24528 151 151 3301 2536 48515 24506 23484 3043 129 1655 20692 231 37498 2302 3410 3004
shrinkage=0.05


Tree=2
num_leaves=31
num_cat=0
split_feature=5 0 1 2 10 0 6 2 6 10 2 3 1 10 10 7 6 6 2 6 9 6 3 5 9 9 2 3 2 9
split_gain=7234.71 5785.29 4550.25 1130.47 524.112 239.763 228.266 167.551 158.052 86.8117 74.7237 65.2293 57.5383 43.8924 43.7365 37.483 37.1551 33.9726 25.3467 23.6677 22.2655 22.5744 20.3624 18.8239 17.8689 14.3309 12.0244 11.9559 9.46515 8.29602
threshold=1.0000000180025095e-35 1.0000000180025095e-35 1.0000000180025095e-35 2.5000000000000004 1.0000000180025095e-35 1.0000000180025095e-35 1.0000000180025095e-35 1.0000000180025095e-35 1.5000000000000002 1.0000000180025095e-35 1.5000000000000002 1.0000000180025095e-35 1.0000000180025095e-35 1.0000000180025095e-35 1.0000000180025095e-35 521552.50000000006 1.5000000000000002 1.0000000180025095e-35 3.5000000000000004 1.0000000180025095e-35 1.0000000180025095e-35 2.5000000000000004 1.0000000180025095e-35 1.5000000000000002 1.0000000180025095e-35 1.0000000180025095e-35 1.5000000000000002 1.0000000180025095e-35 1.5000000000000002 1.0000000180025095e-35
decision_type=2 2 2 2 2 2 2 2 2 2 2 2 2 2 2 2 2 2 2 2 2 2 2 2 2 2 2 2 2 2
left_child=5 2 3 4 6 10 -2 -7 9 18 12 16 13 15 24 -1 23 -14 -5 -12 21 -18 -6 25 27 28 -27 -10 -8 -20
right_child=1 -3 -4 8 22 7 11 -9 14 -11 19 -13 17 -15 -16 -17 20 -19 29 -21 -22 -23 -24 -25 -26 26 -28 -29 -30 -31
leaf_value=-0.046357818839477878 -0.043420240239518744 0.1260474880039808 0.12702520219739152 0.046997616846544396 -0.053501001407794097 -0.060391595184177742 0.006769711789792441 0.12651920103610631 0.015773928653658637 -0.019493479541182149 -0.064054755368648034 0.01856432720304085 -0.015023565418612257 -0.064096260345564121 -0.022147429300924781 0.093887376559316768 -0.02088568630162279 0.10091154248017956 0.060174259606173688 -0.051976810400577514 0.0045624790824922079 -0.0042788897889703787 -0.011709635328829512 0.0049028773164498402 0.040223857920984131 -0.013788712800515582 0.0054702466612555362 0.039542331899124136 -0.0012936054874675695 0.082752953864725295
leaf_weight=1368.9029609709978 306.55010575056076 1060.6290534883738 752.79316836595535 1026.8423091322184 500.20804426074028 19.788395613431931 384.74447974562645 30.424324825406075 474.70253716409206 46.182751789689064 2391.5773976445198 465.77256140112877 21.490184843540195 434.87739589810371 60.636115089058876 4.7809297442436209 214.33118213713169 8.9506654292345029 169.08912397921085 488.45163774490356 693.46348798274994 4524.5206851065159 30.950549423694611 2660.352175489068 114.0589629560709 85.726380303502083 1484.8515269309282 59.544874370098114 6733.4437580108643 53.57247331738472
leaf_count=7120 1580 4699 3410 4960 2598 102 1854 136 2328 236 12554 2263 109 2291 309 22 1070 42 810 2541 3404 22457 158 13097 556 412 7293 289 33300 256
internal_value=0 0.242694 0.126757 0.0363096 -0.0426679 -1.11645 -0.013055 1.05719 0.748811 0.956512 -1.13957 0.00214795 -0.982099 -1.00505 0.36921 -0.917394 -0.00809758 0.381308 1.00628 -1.24013 -0.0761092 -0.1006 -1.02132 0.0244566 0.445171 0.00192119 0.0883808 0.368461 -0.0171555 1.31213
internal_weight=0 21903 20842.3 20089.5 18084.9 4769.24 17553.8 50.2127 2004.63 1295.69 4719.03 17247.2 1839 1808.56 708.942 1373.68 16781.4 30.4409 1249.5 2880.03 5432.32 4738.85 531.159 11349.1 648.306 8688.77 1570.58 534.247 7118.19 222.662
internal_count=132256 107339 102640 99230 89486 24917 86730 238 9744 6262 24679 85150 9584 9433 3482 7142 82887 151 6026 15095 26931 23527 2756 55956 3173 42859 7705 2617 35154 1066
shrinkage=0.05


Tree=3
num_leaves=31
num_cat=0
split_feature=5 2 1 7 2 11 6 11 8 6 7 2 6 1 9 5 3 6 3 6 6 2 5 8 4 9 4 1 6 6
split_gain=6682.91 3922.66 1280.08 1149.21 1019.76 609.683 255.105 199.977 170.391 135.216 102.464 72.5395 76.9798 69.4631 41.4113 38.5713 31.355 38.5445 24.847 24.786 23.8645 22.3819 18.6487 18.2676 17.9077 17.4622 13.8224 12.8642 12.8435 12.2167
threshold=1.0000000180025095e-35 1.5000000000000002 1.0000000180025095e-35 1.0000000180025095e-35 2.5000000000000004 1.0000000180025095e-35 1.0000000180025095e-35 1.0000000180025095e-35 1.0000000180025095e-35 1.5000000000000002 27209.500000000004 1.5000000000000002 1.0000000180025095e-35 1.0000000180025095e-35 1.0000000180025095e-35 1.5000000000000002 1.0000000180025095e-35 1.5000000000000002 1.0000000180025095e-35 1.0000000180025095e-35 1.0000000180025095e-35 3.5000000000000004 1.5000000000000002 1.0000000180025095e-35 1.0000000180025095e-35 1.0000000180025095e-35 1.0000000180025095e-35 1.0000000180025095e-35 2.5000000000000004 1.5000000000000002
decision_type=2 2 2 2 2 2 2 2 2 2 2 2 2 2 2 2 2 2 2 2 2 2 2 2 2 2 2 2 2 2
left_child=7 2 3 5 6 15 -3 10 13 19 11 12 -1 14 16 26 17 22 -10 -6 -13 -21 -8 25 -19 -11 -2 -14 -26 -28
right_child=1 4 -4 -5 9 -7 8 -9 18 23 -12 20 27 -15 -16 -17 -18 24 -20 21 -22 -23 -24 -25 28 -27 29 -29 -30 -31
leaf_value=-0.049231575555254127 -0.027726254308476514 -0.046447033181889114 0.11594299019847637 0.11443147030867938 -0.011973458935124828 0.11612356097083376 -0.0030522578066122827 0.10598611353350934 0.023440608651707776 0.011166438398824833 0.057571414209008125 -0.062884114238063574 0.014847933087323031 0.11950305458266758 0.0036257969695298233 0.012826972004189464 0.013657214704801655 -0.039477775766928958 0.07176104137626356 0.042678075313935991 -0.050596102588518668 0.059639465600936872 0.0025284822752597133 0.040107681519826834 -0.020786005837166242 0.032401538450535693 0.031891377680223848 0.093581701091236522 -0.0068044159122227516 0.022148052827727239
leaf_weight=1777.7538305670023 11.559772402048109 316.10173830389977 784.19274045526981 474.54754288494587 18.857935115695 184.54829290509224 6779.6559212654829 19.312091007828712 539.32073792815208 517.18209867179394 20.038773119449615 2316.2080422639847 21.463384076952938 11.73963615298271 2572.495897680521 814.22792705893517 266.31600888073444 44.054977610707283 27.984767884016037 1070.0641312450171 476.38753473758698 237.70321698486805 1921.123792797327 82.803288772702217 171.81958697736263 119.10837599635124 667.22267916798592 6.8417392075061789 3729.4425312280655 621.30248214304447
leaf_count=9508 56 1669 3412 2029 92 789 33626 85 2613 2530 92 12554 105 52 12647 3932 1294 221 130 5082 2542 1113 9474 398 872 574 3120 31 18638 2976
internal_value=0 0.229451 1.19079 0.871826 0.0438375 0.579359 -0.0393007 -1.0915 -0.0217947 0.709525 -1.10492 -1.11476 -0.958581 -0.0415001 -0.0433436 0.427211 -0.0664259 -0.0735769 0.516484 0.898807 -1.21576 0.91522 -0.0364007 0.360326 -0.155563 0.30283 0.5341 0.677579 -0.148404 0.543867
internal_weight=0 21983.4 3557.6 2773.41 18425.8 2298.86 16380.1 4638.01 16064 2045.72 4618.69 4598.65 1806.06 15496.6 15484.9 2114.31 12912.4 12646.1 567.306 1326.63 2792.6 1307.77 8700.78 719.094 3945.32 636.29 1300.08 28.3051 3901.26 1288.53
internal_count=132256 107339 16314 12902 91025 10873 81236 24917 79567 9789 24832 24740 9644 76824 76772 10084 64125 62831 2743 6287 15096 6195 43100 3502 19731 3104 6152 136 19510 6096
shrinkage=0.05


Tree=4
num_leaves=31
num_cat=0
split_feature=5 0 11 2 2 6 0 6 8 2 6 7 2 5 7 9 6 7 3 6 6 2 6 2 6 3 5 2 5 4
split_gain=6178.31 4583.8 1075.16 743.936 571.721 233.405 211.299 158.452 150.632 137.007 119.118 78.4526 72.5276 59.6456 39.0418 37.4364 35.3655 33.4343 28.1802 36.9791 24.9086 24.7862 23.4265 21.4193 21.3884 21.1217 20.2321 18.3844 17.0329 16.2751
threshold=1.0000000180025095e-35 1.0000000180025095e-35 1.0000000180025095e-35 2.5000000000000004 1.5000000000000002 1.0000000180025095e-35 1.0000000180025095e-35 1.5000000000000002 1.0000000180025095e-35 1.0000000180025095e-35 1.5000000000000002 25504.500000000004 1.5000000000000002 1.5000000000000002 520808.50000000006 1.0000000180025095e-35 1.0000000180025095e-35 25504.500000000004 1.0000000180025095e-35 1.5000000000000002 1.0000000180025095e-35 1.0000000180025095e-35 1.0000000180025095e-35 1.0000000180025095e-35 1.0000000180025095e-35 1.0000000180025095e-35 1.5000000000000002 3.5000000000000004 1.5000000000000002 1.0000000180025095e-35
decision_type=2 2 2 2 2 2 2 2 2 2 2 2 2 2 2 2 2 2 2 2 2 2 2 2 2 2 2 2 2 2
left_child=6 2 3 4 7 -6 12 11 15 -8 24 13 14 20 16 18 -1 21 19 28 -2 -9 -14 -22 -5 -10 -23 -26 -7 -21
right_child=1 -3 -4 10 5 8 9 17 25 -11 -12 -13 22 -15 -16 -17 -18 -19 -20 29 23 26 -24 -25 27 -27 -28 -29 -30 -31
leaf_value=-0.047982737323476236 -0.023550291893406145 0.10944221212514714 0.10530668907980011 -0.011434384288800033 -0.045190902752303502 -0.0030396749968446615 -0.058711053031195129 0.12297815704422509 0.021711448705904142 0.11084412185557641 0.016369263891808795 0.10536813325388653 -0.061791128145377461 0.016543610938383052 0.060601279950221666 0.003267663724629884 0.012680125310621994 0.093112264036431192 0.012745815095191829 -0.038205357444537236 0.11812287979453767 0.015432271675273751 -0.049448344279276628 0.042199298308637882 0.039549022468379255 0.065893706211007957 0.0015938680665418432 0.054815397486931844 0.0022949774339171562 -0.0073688351208749114
leaf_weight=1718.919575124979 14.273672029376028 1119.2121201604605 266.84801322221756 18.762152329087257 308.83021827042103 6763.0461728125811 18.96549516916275 4.8254400491714469 542.44207808375359 32.043991237878799 719.7591849565506 40.797269284725189 2241.2234261184931 321.60287582874298 8.4498225152492505 2572.7877543866634 24.366158902645111 12.211463257670401 266.66288004815578 43.26642432808876 9.3983611911535245 606.31881399452686 464.02817121148109 801.76860819756985 1083.6692847013474 28.470040082931519 467.99290457367897 241.07483442127705 1921.3888751715422 3878.5092281401157
leaf_count=9428 72 4699 1112 92 1669 33594 102 20 2604 136 3482 170 12554 1534 38 12631 118 51 1289 221 39 2896 2541 3654 5064 129 2278 1105 9466 19468
internal_value=0 0.217115 0.111703 0.0859521 0.022771 -0.0427289 -1.06767 0.491934 -0.0261254 0.956059 0.65566 0.744667 -1.09083 0.6962 -0.932303 -0.0447701 -0.942697 0.216856 -0.0667795 -0.0735844 0.838536 0.198237 -1.19348 0.861579 0.831528 0.478294 0.188079 0.846543 -0.0371882 -0.154181
internal_weight=0 22053.9 20934.7 20667.9 18604.6 16325.4 4508 2279.19 16016.6 51.0095 2063.27 1187.84 4456.99 1147.04 1751.74 15445.7 1743.29 1091.35 12872.9 12606.2 825.441 1079.14 2705.25 811.167 1343.51 570.912 1074.31 1324.74 8684.44 3921.78
internal_count=132256 107339 102640 101528 91785 81071 24917 10714 79402 238 9743 5469 24679 5299 9584 76669 9546 5245 64038 62749 3765 5194 15095 3693 6261 2733 5174 6169 43060 19689
shrinkage=0.05


Tree=5
num_leaves=31
num_cat=0
split_feature=5 0 1 2 10 0 10 8 2 1 2 4 10 5 9 3 9 7 3 2 4 8 5 2 3 9 8 8 4 8
split_gain=5668.99 4081.37 3195.8 770.319 510.317 182.623 144.076 137.126 118.87 70.1992 61.3888 60.3179 53.1072 38.397 35.853 33.0738 29.2452 21.6283 21.353 20.397 17.7908 14.2978 11.3742 12.4539 10.7333 8.78189 8.25317 6.45223 6.26997 7.69236
threshold=1.0000000180025095e-35 1.0000000180025095e-35 1.0000000180025095e-35 2.5000000000000004 1.0000000180025095e-35 1.0000000180025095e-35 1.0000000180025095e-35 1.0000000180025095e-35 1.0000000180025095e-35 1.0000000180025095e-35 1.0000000180025095e-35 1.0000000180025095e-35 1.0000000180025095e-35 1.5000000000000002 1.0000000180025095e-35 1.0000000180025095e-35 1.0000000180025095e-35 521552.50000000006 1.0000000180025095e-35 1.5000000000000002 1.0000000180025095e-35 1.0000000180025095e-35 1.5000000000000002 1.5000000000000002 1.0000000180025095e-35 1.0000000180025095e-35 1.0000000180025095e-35 1.0000000180025095e-35 1.5000000000000002 1.0000000180025095e-35
decision_type=2 2 2 2 2 2 2 2 2 2 2 2 2 2 2 2 2 2 2 2 2 2 2 2 2 2 2 2 2 2
left_child=5 2 3 4 7 9 16 11 -7 10 12 -2 17 24 15 22 21 -1 26 -16 25 -5 -13 -24 -9 27 -6 -12 29 -18
right_child=1 -3 -4 6 18 8 -8 13 -10 -11 20 14 -14 -15 19 -17 28 -19 -20 -21 -22 -23 23 -25 -26 -27 -28 -29 -30 -31
leaf_value=-0.040990129254906374 -0.033423090695166559 0.10221450480839432 0.10259888544683998 0.0281075084555647 -0.054326295972256557 -0.057345868481568946 -0.025645138169726189 0.025635525102864279 0.10472080601259573 0.025418911663610502 -0.060077187148341538 -0.0036567413612026444 -0.061487514644980978 0.0085188404889373886 -0.01141154142499911 0.01258493954581427 0.045468937435131335 0.064512715436444504 -0.011670033515283035 0.005180045365471001 -0.04196460310738187 0.043595045710765327 -0.009430353159697126 0.00052873232654747132 0.051733794269453307 -0.042073207098327729 -0.0013284359405407371 -0.0095524550219919721 0.031630382335022661 0.083741033038004467
leaf_weight=1157.2952079027891 147.58300772309303 1144.8596729785204 810.88139922916889 1346.562654748559 477.66971822082996 18.032960027456284 109.80757328867912 412.64912003278732 30.367254823446274 28.112558469176292 2455.3554617762566 9665.5422284901142 409.45849549770355 551.46322925388813 200.05535326898098 360.94072386622429 370.45588378608227 4.878224864602088 32.537427738308907 2501.0074219703674 154.37407769262791 167.56427934765816 346.20875376462936 3364.937352463603 43.553684264421463 70.694075524806976 7.4606202095746985 6.3352037966251364 82.467922151088715 13.611504852771757
leaf_count=6477 763 4708 3388 6283 2564 100 552 1953 126 140 14152 48066 2346 2650 954 1726 1703 21 165 12235 872 773 1694 16727 198 403 38 36 381 62
internal_value=0 0.205606 0.105428 0.0272961 -0.0390447 -1.04483 0.602066 -0.0102518 0.88676 -1.06665 -1.07704 -0.032012 -0.920057 0.347923 -0.0262981 -0.0470062 0.66388 -0.810946 -1.01763 0.0790236 -1.16887 0.596429 -0.0550661 -0.0080068 0.562543 -1.18896 -1.07023 -1.19894 0.882787 0.936506
internal_weight=0 22157.8 21013 20202.1 18111.6 4334.9 2090.47 17593.9 48.4002 4286.5 4258.39 16586.3 1571.63 1007.67 16438.7 13737.6 1980.66 1162.17 517.668 2701.06 2686.76 1514.13 13376.7 3711.15 456.203 2532.38 485.13 2461.69 466.535 384.067
internal_count=132256 107583 102875 99487 89733 24673 9754 86966 226 24447 24307 82165 8844 4801 81402 68213 9202 6498 2767 13189 15463 7056 66487 18421 2151 14591 2602 14188 2146 1765
shrinkage=0.05


Tree=6
num_leaves=31
num_cat=0
split_feature=5 0 11 10 2 2 6 0 6 2 8 6 2 7 10 5 6 6 3 6 7 7 3 6 2 5 2 2 8 2
split_gain=5248.81 3621.15 808.731 602.859 592.22 391.451 174.478 170.222 123.541 105.947 94.2864 72.0211 68.2264 67.9298 54.4915 48.4783 29.1826 28.3473 28.2234 30.8389 24.853 24.512 22.6439 21.5864 20.6495 20.02 19.7044 19.1654 17.0327 14.3516
threshold=1.0000000180025095e-35 1.0000000180025095e-35 1.0000000180025095e-35 1.0000000180025095e-35 2.5000000000000004 1.5000000000000002 1.0000000180025095e-35 1.0000000180025095e-35 1.5000000000000002 1.0000000180025095e-35 1.0000000180025095e-35 1.5000000000000002 1.5000000000000002 25504.500000000004 1.0000000180025095e-35 1.5000000000000002 1.0000000180025095e-35 1.0000000180025095e-35 1.0000000180025095e-35 1.5000000000000002 24393.500000000004 521552.50000000006 1.0000000180025095e-35 1.0000000180025095e-35 1.0000000180025095e-35 1.5000000000000002 1.0000000180025095e-35 2.5000000000000004 1.0000000180025095e-35 3.5000000000000004
decision_type=2 2 2 2 2 2 2 2 2 2 2 2 2 2 2 2 2 2 2 2 2 2 2 2 2 2 2 2 2 2
left_child=7 2 3 4 5 8 -7 12 13 -9 18 29 14 15 16 23 21 -14 19 -8 26 -1 27 -2 -25 -12 -10 -5 -13 -6
right_child=1 -3 -4 22 11 6 10 9 20 -11 25 28 17 -15 -16 -17 -18 -19 -20 -21 -22 -23 -24 24 -26 -27 -28 -29 -30 -31
leaf_value=-0.04080044847684218 -0.024200469299457173 0.095699806974565121 0.09184535237137062 -0.051752450359480555 0.035547677758093379 -0.040114487918995786 0.00082719182311315805 -0.056218752865304755 0.10824061885471876 0.097807850857391923 0.029444673156112072 0.014923485979331189 -0.059848504462570909 0.093886272847148095 -0.060513441654167492 0.013832644773865475 0.016232516612146263 -0.045781812480027134 0.015235465944934225 -0.0041908479297759847 0.082488863849032576 0.055026227867216483 -0.013526340816732508 0.10451978629091284 0.036829274138229305 0.010880475692027256 0.0084684560646774067 -0.02636244096625915 0.038891082142560159 0.049218144062297131
leaf_weight=1223.0182932317257 14.299415946006773 1161.194044560194 264.69273656606674 474.85714292526245 1093.535724028945 270.22819012403488 10335.87342916429 17.48863773047924 4.9710193276405326 30.873657360672951 290.8065218180418 593.49354581534863 2079.4827502816916 43.801151782274246 395.59885776042938 318.57246193289757 23.278596356511116 432.67295423150063 284.69483409821987 4350.4747606366873 11.599803283810614 6.7100021988153449 52.775511264801025 11.423239499330519 821.64129120111465 290.1072064191103 1098.1260364204645 88.116479739546776 84.70636460185051 232.87264090776443
leaf_count=6995 72 4708 1070 2614 4968 1498 51101 100 20 126 1357 2810 12459 177 2346 1505 113 2505 1358 21795 47 29 268 46 3670 1376 5250 449 391 1033
internal_value=0 0.194897 0.0999829 0.0778443 0.107628 0.0506496 -0.00564502 -1.0231 0.433841 0.842184 0.00819734 0.623419 -1.04478 0.65514 -0.886709 0.609211 -0.784554 -1.14852 -0.00714041 -0.0131856 0.193673 -0.805551 -0.896854 0.734238 0.755149 0.403475 0.178361 -0.955568 0.35834 0.758955
internal_weight=0 22192.9 21031.7 20767 20151.2 18146.6 15822.2 4209.12 2324.43 48.3623 15552 2004.61 4160.76 1209.74 1648.61 1165.94 1253.01 2512.16 14971 14686.3 1114.7 1229.73 615.749 847.364 833.065 580.914 1103.1 562.974 678.2 1326.41
internal_count=132256 107583 102875 101805 98474 89272 78485 24673 10787 226 76987 9202 24447 5470 9483 5293 7137 14964 74254 72896 5317 7024 3331 3788 3716 2733 5270 3063 3201 6001
shrinkage=0.05


Tree=7
num_leaves=31
num_cat=0
split_feature=5 0 1 2 6 0 8 2 6 2 1 6 5 6 3 6 6 7 9 8 6 2 5 8 9 3 9 2 9 8
split_gain=4862.67 3234.58 2663.46 618.495 191.77 158.773 119.743 95.0114 74.8188 67.8784 53.2018 30.3287 30.0223 28.4256 26.2541 22.2982 21.3824 20.6422 20.3604 18.1789 16.6201 13.3771 12.0787 11.9512 11.0916 10.7084 9.34163 16.6326 8.57182 8.30251
threshold=1.0000000180025095e-35 1.0000000180025095e-35 1.0000000180025095e-35 2.5000000000000004 1.0000000180025095e-35 1.0000000180025095e-35 1.0000000180025095e-35 1.0000000180025095e-35 1.5000000000000002 1.5000000000000002 1.0000000180025095e-35 1.5000000000000002 1.5000000000000002 1.0000000180025095e-35 1.0000000180025095e-35 1.0000000180025095e-35 1.0000000180025095e-35 521552.50000000006 1.0000000180025095e-35 1.0000000180025095e-35 2.5000000000000004 4.5000000000000009 1.5000000000000002 1.0000000180025095e-35 1.0000000180025095e-35 1.0000000180025095e-35 1.0000000180025095e-35 1.5000000000000002 1.0000000180025095e-35 1.0000000180025095e-35
decision_type=2 2 2 2 2 2 2 2 2 2 2 2 2 2 2 2 2 2 2 2 2 2 2 2 2 2 2 2 2 2
left_child=5 2 3 4 23 9 11 -7 16 10 17 22 25 -11 18 -12 -5 -1 20 24 -13 28 26 -2 -10 -8 -6 -28 -18 -15
right_child=1 -3 -4 8 6 7 12 -9 19 13 15 14 -14 29 -16 -17 21 -19 -20 -21 -22 -23 -24 -25 -26 -27 27 -29 -30 -31
leaf_value=-0.044754595798619332 -0.041797509473465382 0.090114041603511261 0.092520562968559913 -0.017268134980252765 -0.0023586587667764891 -0.055142758070048842 0.022314519532650567 0.091908630714407941 0.007782317013045415 -0.058940292935401185 -0.0062709808732716839 -0.021610136190288669 0.0075560348142182342 -0.045477748812522277 0.0079359607559727399 0.088428624637377828 0.030724696783488149 0.056806712957983833 0.0017530523394996026 0.035053207194133643 -0.0067603617966229537 0.058275897782580244 0.0023584790687225942 0.017185763170971213 0.024495380111290984 0.048075863472761091 -0.019326442240147249 0.0030290509583061282 0.039807030204544486 0.015521902938247685
leaf_weight=1574.6420302391052 312.04270626604557 1171.2233821600676 830.10846549272537 20.482597067952156 7164.2924182415009 16.952064037322998 423.81136728823185 31.203142434358597 531.65561003983021 2007.7700872570276 18.865088954567913 197.28288672864437 552.03798097372055 415.9946229159832 352.9685098528862 9.2707569450139982 958.9165251404047 5.0190408378839484 700.23904280364513 88.468469426035881 4195.5207508951426 55.358586698770523 2499.5241772532463 8.8311020880937559 122.06185442209244 44.582907497882843 87.924915716052055 1548.7678589820862 356.32090555131435 5.6540276259183875
leaf_count=9322 1769 4708 3388 99 35582 100 1969 126 2538 12459 100 1016 2631 2472 1684 40 4313 21 3436 404 21128 243 12274 46 567 198 409 7591 1590 33
internal_value=0 0.184827 0.0948369 0.0227678 -0.0372936 -1.00222 -0.0234561 0.802843 0.532024 -1.02375 -0.864361 -0.0437212 0.309119 -1.12924 -0.105023 0.49865 0.668817 -0.888638 -0.123302 0.275634 -0.148545 0.683974 -0.0141782 -0.803483 0.218059 0.495331 -0.0316012 0.0365618 0.663705 -0.893196
internal_weight=0 22222.4 21051.2 20221.1 18087.8 4085.37 17767 48.1552 2133.26 4037.22 1607.8 16746.5 1020.43 2429.42 5446.01 28.1358 1391.08 1579.66 5093.04 742.186 4392.8 1370.6 11300.5 320.874 653.717 468.394 8800.99 1636.69 1315.24 421.649
internal_count=132256 107583 102875 99487 89733 24673 87918 226 9754 24447 9483 83120 4798 14964 27264 140 6245 9343 25580 3509 22144 6146 55856 1815 3105 2167 43582 8000 5903 2505
shrinkage=0.05


Tree=8
num_leaves=31
num_cat=0
split_feature=5 2 11 2 10 7 6 11 10 6 2 8 6 6 5 10 9 6 7 3 6 3 2 8 5 6 2 8 2 9
split_gain=4507.54 2164.4 610.844 550.717 438.724 267.776 150.551 130.704 112.757 92.38 78.1112 77.0818 74.2507 55.0315 51.9126 51.2155 31.5159 28.9377 28.0045 25.5337 22.9097 19.8894 18.4993 17.5113 16.5477 15.9701 15.1004 13.7316 12.765 11.6792
threshold=1.0000000180025095e-35 1.5000000000000002 1.0000000180025095e-35 2.5000000000000004 1.0000000180025095e-35 1.0000000180025095e-35 1.0000000180025095e-35 1.0000000180025095e-35 1.0000000180025095e-35 1.5000000000000002 1.5000000000000002 1.0000000180025095e-35 1.0000000180025095e-35 1.5000000000000002 1.5000000000000002 1.0000000180025095e-35 1.0000000180025095e-35 1.0000000180025095e-35 32813.500000000007 1.0000000180025095e-35 1.5000000000000002 1.0000000180025095e-35 1.0000000180025095e-35 1.0000000180025095e-35 1.5000000000000002 1.0000000180025095e-35 1.0000000180025095e-35 1.0000000180025095e-35 3.5000000000000004 1.0000000180025095e-35
decision_type=2 2 2 2 2 2 2 2 2 2 2 2 2 2 2 2 2 2 2 2 2 2 2 2 2 2 2 2 2 2
left_child=7 2 5 4 6 9 -3 10 13 14 12 16 15 28 22 18 19 -12 -1 20 -8 -6 -2 -16 -13 -24 -11 29 -5 -15
right_child=1 3 -4 8 21 -7 11 -9 -10 26 17 24 -14 27 23 -17 -18 -19 -20 -21 -22 -23 25 -25 -26 -27 -28 -29 -30 -31
leaf_value=-0.038532799619284963 0.095875909070802623 -0.037778900171886426 0.08391477849029598 0.031658252346912642 -0.050685393589145103 0.079767256221919561 7.307806875846437e-05 0.084179371865176655 -0.024208590285996506 0.09798891184958787 -0.058081376294666504 0.026683640380322421 0.033713307951316947 0.010519212898908654 0.027956957305522546 -0.058945532171892856 0.0051067837099338237 -0.043476395401911366 0.032217489223961004 0.014758280886695303 -0.0046207223288952156 -0.0096983114121726999 -0.0066868205291681082 0.0036728686235772828 0.0099527341644905076 0.042887673529254627 0.018463034706972161 0.035044606646683789 0.044326192257986022 0.028239994093270843
leaf_weight=1178.7213319540024 16.243502452969551 258.63008640706539 746.97343081235886 1123.0734743922949 457.27674114704132 281.69568453729153 8493.4395006150007 18.308973789215088 108.54643055796623 5.9970877170562735 1937.3756234794855 298.23888808488846 32.412182718515396 488.32499204576015 261.74616906046867 371.85799160599709 2503.181277140975 411.13055321574211 14.15454465150833 250.62637196481228 3746.2465414404869 31.646807923913002 16.506740719079971 103.62637497484684 292.96109895408154 1026.0240768939257 1280.1571741253138 87.918517842888832 241.64852896332741 114.84657528996468
leaf_count=7073 65 1498 2988 4987 2597 1127 42112 76 553 24 12459 1364 149 2301 1192 2346 12186 2506 64 1182 18932 162 82 490 1379 4441 5958 395 1044 524
internal_value=0 0.175426 0.869354 0.035153 -0.0276615 0.667396 0.00113037 -0.982092 0.509151 0.570949 -0.994462 0.013688 -0.823845 0.561598 0.746398 -0.854877 -0.000277002 -1.11049 -0.753866 -0.0208015 -0.0272714 -0.960648 0.858554 0.421391 0.367857 0.842055 0.376677 0.331683 0.678027 0.277867
internal_weight=0 22235.6 3738.97 18496.6 16332.2 2992 15843.3 3963.96 2164.36 2710.3 3945.65 15584.7 1597.15 2055.81 1424.15 1564.73 14993.5 2348.51 1192.88 12490.3 12239.7 488.924 1058.77 365.373 591.2 1042.53 1286.15 691.09 1364.72 603.172
internal_count=132256 107583 16367 91216 81412 13379 78653 24673 9804 12252 24597 77155 9632 9251 6270 9483 74412 14965 7137 62226 61044 2759 4588 1682 2743 4523 5982 3220 6031 2825
shrinkage=0.05


Tree=9
num_leaves=31
num_cat=0
split_feature=5 0 1 2 10 0 6 10 2 2 10 6 1 3 6 6 3 6 2 9 6 6 2 5 9 3 4 10 9 2
split_gain=4179.32 2711.83 2237.66 500.599 404.437 140.719 135.485 100.165 81.6282 67.3424 54.3592 48.788 40.6257 36.4272 28.7416 25.3565 18.6722 17.8539 11.9466 11.744 12.635 10.6397 10.6935 8.91483 8.82802 10.4507 8.65548 8.41544 7.5921 19.2698
threshold=1.0000000180025095e-35 1.0000000180025095e-35 1.0000000180025095e-35 2.5000000000000004 1.0000000180025095e-35 1.0000000180025095e-35 1.0000000180025095e-35 1.0000000180025095e-35 1.0000000180025095e-35 1.5000000000000002 1.0000000180025095e-35 1.5000000000000002 1.0000000180025095e-35 1.0000000180025095e-35 1.0000000180025095e-35 1.5000000000000002 1.0000000180025095e-35 1.0000000180025095e-35 1.0000000180025095e-35 1.0000000180025095e-35 2.5000000000000004 1.0000000180025095e-35 3.5000000000000004 1.5000000000000002 1.0000000180025095e-35 1.0000000180025095e-35 1.5000000000000002 1.0000000180025095e-35 1.0000000180025095e-35 1.5000000000000002
decision_type=2 2 2 2 2 2 2 2 2 2 2 2 2 2 2 2 2 2 2 2 2 2 2 2 2 2 2 2 2 2
left_child=5 2 3 4 6 9 26 11 -7 10 12 21 18 15 -11 23 -6 -14 -1 20 -17 -5 -23 28 25 -13 -2 -16 -8 -30
right_child=1 -3 -4 7 16 8 13 -9 -10 14 -12 24 17 -15 27 19 -18 -19 -20 -21 -22 22 -24 -25 -26 -27 -28 -29 29 -31
leaf_value=-0.035902433533768062 -0.039792603826852256 0.08224022142513146 0.084192972118194098 -0.0077605525855619188 -0.04990921695248822 -0.053792678640985386 -0.0005871979189882629 -0.023566037557072563 0.084421594670905056 -0.057266527761837542 -0.058117126874680958 0.01015104434420467 -0.0051108112442034039 0.013410633210703241 -0.0398500186926498 -0.016230514398601598 -0.010436444631624492 0.078927294575258211 -0.055634715644953509 0.0027447744561663917 -0.0036155114017727336 0.02993090569930127 0.041592876185201022 0.0033963874586213599 0.027408273263582084 0.031516059995671031 -0.017280200787088418 -0.062295188239521272 -0.019201838180895131 0.004570573238978983
leaf_weight=1059.7466857284307 221.67045694589615 1175.2930152416229 839.46153059601784 17.049021989107132 445.1908543407917 16.200767308473587 7130.9446488469839 107.07745049893856 31.362512707710266 1868.4454963356256 358.6361648440361 504.04598627984524 18.596057787537578 488.06755293905735 353.0538087785244 207.67877465486526 32.12151126563549 9.5737705379724485 82.69153656065464 705.60548061132431 4486.3091242313385 1115.3146987855434 238.62680254876614 2704.1484481394291 121.83444206416607 64.569812595844269 52.881589695811272 47.36339046061039 90.355478078126907 1507.3225664496422
leaf_count=6498 1304 4708 3388 80 2602 100 35232 552 126 12459 2346 2355 100 2275 2206 1064 165 40 499 3426 22450 4902 1019 13178 550 296 305 299 416 7316
internal_value=0 0.166456 0.0840339 0.0176832 -0.0367929 -0.962502 -0.0121538 0.471683 0.746875 -0.983908 -0.821717 0.520666 -0.717361 -0.00110576 -1.09323 -0.00891486 -0.945057 0.469006 -0.746614 -0.0653912 -0.0834729 0.62984 0.639726 0.0177584 0.303884 0.251543 -0.70913 -0.850099 0.00221584 0.0645228
internal_weight=0 22255.6 21080.3 20240.8 18072.3 3845.67 17595 2168.52 47.5633 3798.11 1529.24 2061.44 1170.61 17320.4 2268.86 16832.4 477.312 28.1698 1142.44 5399.59 4693.99 1370.99 1353.94 11432.8 690.45 568.616 274.552 400.417 8728.62 1597.68
internal_count=132256 107583 102875 99487 89733 24673 86966 9754 226 24447 9483 9202 7137 85357 14964 83082 2767 140 6997 26940 23514 6001 5921 56142 3201 2651 1609 2505 42964 7732
shrinkage=0.05


Tree=10
num_leaves=31
num_cat=0
split_feature=5 1 7 10 11 2 6 11 2 8 2 6 10 6 6 3 3 5 9 7 5 6 6 2 1 2 3 8 8 10
split_gain=3933.62 1838.38 1034.13 462.298 400.583 422.648 128.861 122.215 108.178 77.0263 67.6334 60.7687 53.0458 42.2416 28.6971 28.2802 22.0302 21.185 20.1717 18.6438 14.4628 14.1743 14.1543 13.8523 13.7545 12.0496 11.0051 9.22226 8.84684 8.6929
threshold=1.0000000180025095e-35 1.0000000180025095e-35 1.0000000180025095e-35 1.0000000180025095e-35 1.0000000180025095e-35 2.5000000000000004 1.0000000180025095e-35 1.0000000180025095e-35 1.5000000000000002 1.0000000180025095e-35 1.5000000000000002 1.5000000000000002 1.0000000180025095e-35 1.0000000180025095e-35 1.0000000180025095e-35 1.0000000180025095e-35 1.0000000180025095e-35 1.5000000000000002 1.0000000180025095e-35 521818.00000000006 1.5000000000000002 1.5000000000000002 2.5000000000000004 2.5000000000000004 1.0000000180025095e-35 1.5000000000000002 1.0000000180025095e-35 1.0000000180025095e-35 1.0000000180025095e-35 1.0000000180025095e-35
decision_type=2 2 2 2 2 2 2 2 2 2 2 2 2 2 2 2 2 2 2 2 2 2 2 2 2 2 2 2 2 2
left_child=7 2 3 4 5 6 25 10 17 15 12 -7 13 19 -12 18 23 -8 20 -1 21 -10 -23 28 -15 -2 -11 -13 -5 -16
right_child=1 -3 -4 16 -6 11 8 -9 9 26 14 27 -14 24 29 -17 -18 -19 -20 -21 -22 22 -24 -25 -26 -27 -28 -29 -30 -31
leaf_value=-0.037344110682196618 -0.00032704046825700155 0.079384918633144522 0.075137365536071088 -0.048920191957671846 0.075702582705671692 0.030891251569930459 0.01608583337918405 0.069197541631141959 -0.0013894881360921297 0.016358167945013848 -0.056510219736246536 0.010512270622296439 -0.057683437369587191 0.0049455652937754986 -0.038819971526563531 0.015195738239459328 -0.010298257860264332 0.0058835036991924158 0.003428042114862119 0.030122833849434857 0.0013031386648989602 -0.024916621691924046 -0.0051370934623234041 -0.025598639955464506 0.085805424220842821 -0.036360243916294402 0.046965063145337486 0.027962023775841605 0.0055670052910359877 -0.061556818899952986
leaf_weight=1152.306102514267 25.62285490334034 861.89429886639118 511.54968217015266 426.74549008905888 195.22868177294731 1414.1244778484106 1351.547246992588 22.286067187786102 6580.2714572548866 564.99489380419254 1809.3650473356247 596.19424003362656 337.00658795237541 23.822261974215511 344.5153224170208 285.82288706302643 52.122924149036407 816.0494738817215 2478.0353688895702 10.331604927778242 3305.2289318591356 94.309456020593643 2208.7667423337698 82.317274898290634 6.7491655051708213 245.47066746652126 30.979841753840446 86.733261600136757 7.5820681750774375 47.880660206079483
leaf_count=7223 130 3469 2060 2567 787 6132 6100 92 32740 2615 12516 2762 2287 114 2205 1338 269 3837 12024 47 16433 495 11202 430 28 1483 132 384 41 314
internal_value=0 0.155836 0.0980588 0.063592 0.0885303 0.0746735 0.0251414 -0.950868 0.0356116 0.00643513 -0.96481 0.499527 -0.80333 -0.704381 -1.07704 -0.00761676 -0.825583 0.244898 -0.0136879 -0.734892 -0.0304097 -0.0514214 -0.118941 -0.888095 0.455935 -0.65909 0.358983 0.254569 -0.95938 -0.831887
internal_weight=0 22221.6 21359.7 20848.1 20279.4 20084.2 17987.1 3754.26 17716 15548.4 3731.98 2097.05 1530.22 1193.21 2201.76 14952.4 568.768 2167.6 14666.6 1162.64 12188.6 8883.35 2303.08 516.645 30.5714 271.094 595.975 682.928 434.328 392.396
internal_count=132256 107430 103961 101901 98594 97807 88529 24826 86916 76979 24734 9278 9699 7412 15035 74232 3307 9937 72894 7270 60870 44437 11697 3038 142 1613 2747 3146 2608 2519
shrinkage=0.05


Tree=11
num_leaves=31
num_cat=0
split_feature=5 0 1 6 8 0 1 6 3 6 5 7 9 9 6 8 11 6 3 4 4 3 4 6 6 7 8 6 3 6
split_gain=3651.3 2326.77 1820.39 164.385 130.912 114.586 61.3176 41.4946 26.2569 23.4302 23.0281 22.3913 19.8349 19.7022 22.2821 17.589 17.3638 16.9212 14.1234 11.3807 10.3262 9.76275 8.84145 8.5599 7.67073 7.3194 6.16292 5.87811 5.57455 5.93267
threshold=1.0000000180025095e-35 1.0000000180025095e-35 1.0000000180025095e-35 1.0000000180025095e-35 1.0000000180025095e-35 1.0000000180025095e-35 1.0000000180025095e-35 1.5000000000000002 1.0000000180025095e-35 1.0000000180025095e-35 1.5000000000000002 520870.50000000006 1.0000000180025095e-35 1.0000000180025095e-35 2.5000000000000004 1.0000000180025095e-35 1.0000000180025095e-35 1.0000000180025095e-35 1.0000000180025095e-35 1.5000000000000002 1.5000000000000002 1.0000000180025095e-35 1.5000000000000002 1.0000000180025095e-35 2.5000000000000004 24393.500000000004 1.0000000180025095e-35 1.0000000180025095e-35 1.0000000180025095e-35 1.5000000000000002
decision_type=2 2 2 2 2 2 2 2 2 2 2 2 2 2 2 2 2 2 2 2 2 2 2 2 2 2 2 2 2 2
left_child=5 2 3 18 7 6 11 12 13 16 21 15 20 14 -9 23 -7 -8 19 -2 -5 -6 -16 -1 -23 -3 -21 -4 29 -12
right_child=1 25 27 4 10 9 17 8 -10 -11 28 -13 -14 -15 22 -17 -18 -19 -20 26 -22 24 -24 -25 -26 -27 -28 -29 -30 -31
leaf_value=-0.04942389858884963 -0.041118883913123142 0.080017470660961335 0.027663022329518418 9.9500515771383752e-05 0.021906754862580313 -0.021942315564366082 -0.0022760123618295242 -0.021489557016608773 0.0085923790093156635 0.072493392803725007 0.014418656748783495 0.057987328704643439 0.0058081038028086895 0.0029457799769263228 -0.0060630699211968965 0.025889755401536374 0.06838615932448415 0.077923637594613571 0.057075826471134211 -0.021133239218243303 0.0044898500039044931 0.075993500109371517 -0.001140569444274591 -0.041583167215268384 0.033304265726144845 0.072001146997691834 0.039036479861536771 0.075750087380587028 0.030323158215515053 0.0046082260467546279
leaf_weight=3158.1347210407257 252.77779431641102 646.50766775012016 6.4034460037946692 8609.8779217898846 534.47646199166775 20.811323165893558 20.921687588095669 206.76902279257774 431.65560261905193 19.558506786823273 296.11335755884647 4.9533546268939963 2431.4813828617334 821.86460313200951 3316.3202513903379 7.9511615186929694 7.1474853605031958 9.5924713909625989 4.0748238265514365 50.657386988401413 1586.0376291722059 13.85467256605625 1258.3250456005335 391.21311157941818 43.759808421134949 508.8872931599617 4.646006077527999 841.4472563713789 33.272784411907196 321.33244909346104
leaf_count=21809 1546 2598 26 42309 2406 122 114 1086 2024 79 1368 21 11622 3973 16749 51 29 39 23 305 7682 58 6326 2562 190 2063 24 3389 151 1512
internal_value=0 0.148026 0.0722414 0.0120412 0.0233332 -0.932412 -0.952816 0.00240524 -0.0658025 0.610305 0.337593 -0.964907 0.0350033 -0.0841101 -0.108694 -0.967866 0.0229913 0.458713 -0.708015 -0.732478 0.0156489 0.480294 -0.0941812 -0.971194 0.871397 1.52973 -0.321568 1.50774 0.207748 0.186262
internal_weight=0 22220.5 21065.1 20217.3 19905.1 3640.28 3592.77 18662.3 6034.93 47.5173 1242.81 3562.25 12627.4 5603.28 4781.41 3557.3 27.9588 30.5142 312.156 308.081 10195.9 592.091 4574.65 3549.35 57.6145 1155.39 55.3034 847.851 650.719 617.446
internal_count=132256 107430 102769 99354 97456 24826 24596 91771 30158 230 5685 24443 61613 28134 24161 24422 151 153 1898 1875 49991 2654 23075 24371 248 4661 329 3415 3031 2880
shrinkage=0.05


Tree=12
num_leaves=31
num_cat=0
split_feature=5 0 1 2 10 0 6 10 8 2 2 6 10 1 2 6 3 5 3 7 6 4 4 2 4 6 10 6 2 3
split_gain=3390.06 2117.85 1649.48 418.579 338.313 107.329 105.156 79.1311 77.6823 63.4941 62.416 52.7426 50.6391 38.5057 34.3011 29.2029 24.5158 19.3233 17.224 16.1678 15.1017 12.0883 11.0136 10.4768 9.38 9.27991 8.78067 8.70616 8.21876 7.69009
threshold=1.0000000180025095e-35 1.0000000180025095e-35 1.0000000180025095e-35 2.5000000000000004 1.0000000180025095e-35 1.0000000180025095e-35 1.0000000180025095e-35 1.0000000180025095e-35 1.0000000180025095e-35 1.5000000000000002 1.0000000180025095e-35 1.5000000000000002 1.0000000180025095e-35 1.0000000180025095e-35 1.5000000000000002 1.0000000180025095e-35 1.0000000180025095e-35 1.5000000000000002 1.0000000180025095e-35 520870.50000000006 1.0000000180025095e-35 1.0000000180025095e-35 1.5000000000000002 1.0000000180025095e-35 1.5000000000000002 1.5000000000000002 1.0000000180025095e-35 2.5000000000000004 3.5000000000000004 1.0000000180025095e-35
decision_type=2 2 2 2 2 2 2 2 2 2 2 2 2 2 2 2 2 2 2 2 2 2 2 2 2 2 2 2 2 2
left_child=5 2 3 4 6 9 22 11 14 12 -7 28 13 19 -8 -11 21 29 -6 23 -15 -16 -2 -1 25 -23 -17 -27 -5 -10
right_child=1 -3 -4 7 18 10 8 -9 17 15 -12 -13 -14 20 16 26 -18 -19 -20 -21 -22 24 -24 -25 -26 27 -28 -29 -30 -31
leaf_value=-0.034211527008379504 -0.03765798075243737 0.073191960299737555 0.071882343148763447 0.026887090604932763 -0.047360798834504239 -0.052482154789563779 -0.0088855582713922732 -0.022257075578678818 0.018111228127277775 -0.055143342877615298 0.069748715633848796 0.011771776751719436 -0.056333834379863224 -0.0021647536071517518 -0.019361222562987564 -0.036832900146321894 0.013926679744017123 0.00652745154554254 -0.0096826838912403811 0.054458570799697438 0.073399603096507976 -0.00048645341783897731 -0.011212410815076051 -0.053408299586385669 0.0019384171274586248 -0.016525656121724255 -0.060427127964952004 -0.0031290801749152644 0.03673721055607302 0.039251350314600093
leaf_weight=997.26312823593616 207.63770565390587 1147.2308342903852 844.79783171415329 1163.8861642181873 419.71053369343281 15.622952625155447 1339.8744712769985 100.30860733985901 434.89055334031582 1686.5260389745235 31.507243901491165 682.52841039001942 314.13432647287846 20.897759765386585 87.365825027227402 327.57998098433018 287.44475501775742 555.84124439954758 32.694418743252754 5.0090864151716223 9.6722815334796888 8754.3561911284924 48.581300124526024 76.528696089982986 2723.9840170294046 126.48634286224842 44.828969419002533 2944.8109080344439 258.8710652589798 47.741110876202583
leaf_count=6601 1305 4661 3415 5028 2601 102 6307 529 1958 12516 128 3133 2287 114 450 2204 1335 2606 169 21 39 43296 291 500 13487 668 314 14901 1087 203
internal_value=0 0.140702 0.0686312 0.0114249 -0.0389274 -0.914342 -0.0169286 0.422614 -0.00751156 -0.934628 0.58462 0.463959 -0.772235 -0.67187 -0.0244426 -1.0469 -0.0106825 0.257658 -0.892758 -0.703232 0.434872 -0.0163622 -0.652874 -0.711593 -0.0141353 -0.0263214 -0.793461 -0.0736159 0.573586 0.404047
internal_weight=0 22209 21061.8 20217 18011.4 3529.57 17559 2205.59 17302.8 3482.44 47.1302 2105.29 1423.51 1109.37 16264.3 2058.93 14924.4 1038.47 452.405 1078.8 30.57 14637 256.219 1073.79 14549.6 11825.7 372.409 3071.3 1422.76 482.632
internal_count=132256 107430 102769 99354 89577 24826 86807 9777 85211 24596 230 9248 9562 7275 80444 15034 74137 4767 2770 7122 153 72802 1596 7101 72352 58865 2518 15569 6115 2161
shrinkage=0.05


Tree=13
num_leaves=31
num_cat=0
split_feature=5 0 1 10 6 0 8 1 9 10 6 3 3 6 7 5 8 6 6 3 4 8 6 3 4 4 4 6 7 9
split_gain=3149.16 1933.4 1498.59 355.709 108.168 100.404 91.4569 54.5953 35.1356 25.4777 25.2993 28.0381 20.5426 19.3474 18.6214 18.4755 17.2169 16.0088 13.5352 12.0237 10.8083 10.0337 9.60391 8.17796 7.37084 7.11052 6.52905 6.46978 6.33086 6.26023
threshold=1.0000000180025095e-35 1.0000000180025095e-35 1.0000000180025095e-35 1.0000000180025095e-35 1.0000000180025095e-35 1.0000000180025095e-35 1.0000000180025095e-35 1.0000000180025095e-35 1.0000000180025095e-35 1.0000000180025095e-35 1.5000000000000002 1.0000000180025095e-35 1.0000000180025095e-35 1.0000000180025095e-35 520870.50000000006 1.5000000000000002 1.0000000180025095e-35 2.5000000000000004 1.0000000180025095e-35 1.0000000180025095e-35 1.5000000000000002 1.0000000180025095e-35 1.0000000180025095e-35 1.0000000180025095e-35 1.5000000000000002 1.0000000180025095e-35 1.5000000000000002 2.5000000000000004 521818.00000000006 1.0000000180025095e-35
decision_type=2 2 2 2 2 2 2 2 2 2 2 2 2 2 2 2 2 2 2 2 2 2 2 2 2 2 2 2 2 2
left_child=5 2 3 4 19 7 8 9 10 14 24 17 21 28 16 23 22 -12 -9 20 -2 -5 -1 -8 -6 -10 -19 -25 -7 -24
right_child=1 -3 -4 12 6 13 15 18 25 -11 11 -13 -14 -15 -16 -17 -18 26 -20 -21 -22 -23 29 27 -26 -27 -28 -29 -30 -31
leaf_value=-0.046054610656936924 -0.036242363818267072 0.070219805430332669 0.068709139420006782 -0.043738028614686231 0.0010214465665060854 -0.01526703026302545 0.019659892810777818 -0.0020588180969676705 -0.037915987515905449 -0.056852255877513462 -0.017929114485803928 0.010928131604397718 -0.0095381827349461726 0.066464393984614581 0.05125589287720797 0.0093812069017672282 0.03051628709606824 -0.0043699391049778179 0.069368106005888455 0.054514014490302347 -0.010273570658815548 0.0059843878793129626 -0.039113189953835552 0.068879347240442562 0.0047552187397124218 0.0060501644830431717 -8.3705906256051647e-05 0.029923695400060835 0.036908983487382342 -0.014819767128425559
leaf_weight=2501.700257614255 212.70845752954483 1136.2726423442364 839.74559251964092 477.59594029188156 8417.0462124496698 18.68744815886021 534.73491205275059 20.87499059736729 9.2226269245147687 501.32161831855774 191.89955370128155 347.92051213979721 51.705588012933731 19.292721882462502 5.0547294020652762 651.06567132472992 7.5680233836174002 3194.4179925173521 9.7212800532579404 4.1415129154920569 49.366970062255859 10.366288900375364 299.42069998383522 14.140029072761534 1568.024483397603 3199.3991850018501 1230.7746485024691 43.285945251584053 8.4393592625856382 29.095665886998177
leaf_count=18316 1348 4661 3415 2974 41135 112 2371 114 45 3808 1013 1602 269 79 21 3010 49 16088 39 23 295 56 2054 58 7546 15178 6159 184 39 195
internal_value=0 0.133815 0.0652213 0.0108268 0.0328038 -0.896935 0.0414907 -0.917027 0.0235261 -0.929193 0.00314775 -0.0551898 -0.790125 0.563756 -0.892539 0.303884 -0.895955 -0.0758184 0.41271 -0.600297 -0.627013 -0.853634 -0.899983 0.431709 0.0321557 0.118476 -0.0635563 0.790315 0.0193066 -0.739232
internal_weight=0 22183.8 21047.6 20207.8 19668.1 3421.18 19401.9 3374.76 18158.7 3344.16 14950.1 4965.01 539.668 46.4195 2842.84 1243.23 2837.78 4617.09 30.5963 266.217 262.075 487.962 2830.22 592.161 9985.07 3208.62 4425.19 57.426 27.1268 328.516
internal_count=132256 107430 102769 99354 96055 24826 94389 24596 88766 24443 73543 24862 3299 230 20635 5623 20614 23260 153 1666 1643 3030 20565 2613 48681 15223 22247 242 151 2249
shrinkage=0.05


Tree=14
num_leaves=31
num_cat=0
split_feature=5 0 1 2 10 0 6 2 10 8 2 10 6 1 2 6 5 7 9 5 6 2 10 8 9 2 8 6 6 8
split_gain=2924.9 1769.38 1364.66 374.502 292.575 94.1554 89.1338 66.11 64.8497 62.4307 55.1211 50.8683 46.2696 32.7535 30.9603 30.1414 15.4685 13.505 12.8493 12.8584 12.1751 10.5839 8.70377 8.46008 8.11064 8.05739 7.81479 7.1278 13.1062 6.58682
threshold=1.0000000180025095e-35 1.0000000180025095e-35 1.0000000180025095e-35 2.5000000000000004 1.0000000180025095e-35 1.0000000180025095e-35 1.0000000180025095e-35 1.5000000000000002 1.0000000180025095e-35 1.0000000180025095e-35 1.0000000180025095e-35 1.0000000180025095e-35 1.5000000000000002 1.0000000180025095e-35 1.5000000000000002 1.0000000180025095e-35 1.5000000000000002 520870.50000000006 1.0000000180025095e-35 1.5000000000000002 1.0000000180025095e-35 1.0000000180025095e-35 1.0000000180025095e-35 1.0000000180025095e-35 1.0000000180025095e-35 6.5000000000000009 1.0000000180025095e-35 1.5000000000000002 2.5000000000000004 1.0000000180025095e-35
decision_type=2 2 2 2 2 2 2 2 2 2 2 2 2 2 2 2 2 2 2 2 2 2 2 2 2 2 2 2 2 2
left_child=5 2 3 4 6 7 26 11 12 14 -7 13 24 17 -8 -9 -11 21 19 27 -15 -1 29 -6 25 -5 -2 -16 -29 -17
right_child=1 -3 -4 8 23 10 9 15 -10 16 -12 -13 -14 20 18 22 -18 -19 -20 -21 -22 -23 -24 -25 -26 -27 -28 28 -30 -31
leaf_value=-0.031898697231869465 -0.032396037747402351 0.067510485269675277 0.065816582431823797 0.024264027472069339 -0.043613098595511685 -0.051559032577325227 -0.0085097635029290682 -0.053892056181864427 -0.019984332117447101 0.017871849784862483 0.064978758844396092 -0.054998380791361101 0.011050985768888648 -0.0019579615001566277 -0.0013668697496591299 -0.035769045374535999 0.0056951778477339031 0.048331536154986261 0.0026843006785346019 0.0014032601874025654 0.065742983793944013 -0.051789496094535481 -0.059273273972740959 0.0080160370730736237 0.033078162583568015 0.086097001484644248 0.016782290416921163 -0.022804275664972538 -0.0038003842335358863 0.024740808839175586
leaf_weight=947.25392800569534 238.22866736352444 1123.1109320670366 832.98711104691029 1046.4513817727566 421.56234881281853 15.063568726181982 1335.5735995918512 1571.3861228451133 97.427780523896217 488.78378216922283 31.085877299308777 290.65276734530926 685.58355359733105 20.85332560539246 6621.3661620467901 307.90991197526455 559.20166739821434 5.0915401577949515 2528.9800586998463 3381.0283313393593 9.7437580376863462 71.95778700709343 41.435386344790459 8.0868066996335966 382.43995314836502 5.2952447533607474 8.3616511821746808 94.450313106179237 2300.7868677973747 4.5640889853239051
leaf_count=6601 1551 4661 3415 4474 2726 102 6307 12516 529 2161 128 2287 3133 114 32947 2176 2606 21 12199 16764 39 500 314 44 1619 22 45 513 11714 28
internal_value=0 0.127271 0.0619801 0.0102637 -0.0375379 -0.879597 -0.0175862 -0.89961 0.398041 -0.00908192 0.538797 -0.72955 0.434706 -0.62749 -0.0243272 -1.01846 0.227488 -0.657945 -0.0112755 -0.024527 0.392033 -0.66606 -0.754811 -0.852827 0.536854 0.491507 -0.614569 -0.0442479 -0.0909951 -0.697704
internal_weight=0 22159.7 21036.6 20203.6 17986.4 3317 17556.8 3270.85 2217.2 17310.2 46.1494 1345.55 2119.77 1054.9 16262.2 1925.3 1047.99 1024.3 14926.6 12397.6 30.5971 1019.21 353.909 429.649 1434.19 1051.75 246.59 9016.6 2395.24 312.474
internal_count=132256 107430 102769 99354 89577 24826 86807 24596 9777 85211 230 9562 9248 7275 80444 15034 4767 7122 74137 61938 153 7101 2518 2770 6115 4496 1596 45174 12227 2204
shrinkage=0.05


Tree=15
num_leaves=31
num_cat=0
split_feature=5 0 1 2 10 2 6 0 10 2 8 10 6 6 2 1 8 7 2 3 5 2 6 10 6 8 8 6 2 7
split_gain=2691.52 1629.39 1254.12 329.123 270.967 90.9515 87.2808 62.13 57.0938 52.1489 47.6629 47.4285 38.2308 32.7637 23.0788 18.2559 14.0666 13.7313 13.2954 12.5034 11.1946 9.44155 9.07087 8.54161 8.31058 7.75358 7.38264 7.11548 6.55775 6.36462
threshold=1.0000000180025095e-35 1.0000000180025095e-35 1.0000000180025095e-35 2.5000000000000004 1.0000000180025095e-35 1.5000000000000002 1.0000000180025095e-35 1.0000000180025095e-35 1.0000000180025095e-35 1.0000000180025095e-35 1.0000000180025095e-35 1.0000000180025095e-35 1.5000000000000002 1.0000000180025095e-35 1.5000000000000002 1.0000000180025095e-35 1.0000000180025095e-35 521552.50000000006 3.5000000000000004 1.0000000180025095e-35 1.5000000000000002 1.0000000180025095e-35 1.0000000180025095e-35 1.0000000180025095e-35 1.5000000000000002 1.0000000180025095e-35 1.0000000180025095e-35 2.5000000000000004 1.5000000000000002 32813.500000000007
decision_type=2 2 2 2 2 2 2 2 2 2 2 2 2 2 2 2 2 2 2 2 2 2 2 2 2 2 2 2 2 2
left_child=5 2 3 4 6 7 26 11 12 -9 14 15 18 25 -8 17 -6 21 -5 24 -12 -1 -17 -15 -16 -7 -2 -26 -22 -3
right_child=1 29 -4 8 16 13 10 9 -10 -11 20 -13 -14 23 19 22 -18 -19 -20 -21 28 -23 -24 -25 27 -27 -28 -29 -30 -31
leaf_value=-0.030173664544721354 -0.031856423982744374 0.068259986541695336 0.063325191040303278 0.023005219322238792 -0.043029154090496229 -0.053315071593844188 -0.0072403624143182995 -0.053960181378777887 -0.018444338975479615 0.062176591499460455 0.015740403307514628 -0.053262894550599675 0.010900410787513691 -0.033438041484560629 0.00018979291872973903 -0.0098804248649949234 0.025628176892270978 0.046156981920284626 0.035650635964285367 0.0098752088762320504 -0.00040200339196915674 -0.049374804976963949 0.049880840746490379 -0.058741061729144645 -0.012500821342817473 0.030498768377911663 0.013519682527686436 -0.0020150752731507324 0.010384703387656954 0.060597954666628165
leaf_weight=914.61192382872105 238.5527555346489 652.44883741438389 829.77482606470585 1166.4620107710361 403.43277309834957 1511.6634915024042 1331.7792815566063 14.185652703046797 98.145461618900299 30.338015139102936 476.60195153951645 276.47418130934238 688.48793457448483 310.85397382080555 10375.779529303312 20.278222471475605 7.6008407771587363 5.7228332459926596 252.93491725623608 291.9021275639534 264.69470283389091 68.840820237994194 9.244261369109152 37.361712276935577 168.3994707763195 2.7644207179546347 9.3138849288225156 4120.731462046504 301.2779104411602 463.63307026028633
leaf_count=6507 1585 2714 3435 4967 2679 12514 6310 99 539 126 2096 2261 3136 2244 51177 111 41 23 1048 1345 1244 495 37 295 906 20 50 20884 1388 1980
internal_value=0 0.124118 0.0616183 0.0121144 -0.0325884 -0.85672 -0.0138219 -0.658004 0.376664 0.503487 -0.0053952 -0.697932 0.411377 -0.999645 -0.0186627 -0.59824 -0.835191 -0.621367 0.505172 -0.00743056 0.201888 -0.630355 0.176648 -0.723058 -0.0115097 -1.06324 -0.603027 -0.0485353 0.106799 1.30154
internal_weight=0 22142 21025.9 20196.1 17990.1 3202.34 17579 1339.7 2206.03 44.5237 17331.2 1295.17 2107.88 1862.64 16288.6 1018.7 411.034 989.176 1419.4 14956.8 1042.57 983.453 29.5225 348.216 14664.9 1514.43 247.867 4289.13 565.973 1116.08
internal_count=132256 107524 102830 99395 89705 24732 86985 9659 9690 225 85350 9434 9151 15073 80622 7173 2720 7025 6015 74312 4728 7002 148 2539 72967 12534 1635 21790 2632 4694
shrinkage=0.05


Tree=16
num_leaves=31
num_cat=0
split_feature=4 0 1 2 6 2 11 6 6 6 7 1 0 3 5 5 2 6 6 5 4 9 4 7 9 9 2 9 2 9
split_gain=2509.98 1500.48 1132.79 296.703 86.5966 83.5886 53.291 45.0276 43.1204 25.3436 17.45 16.6007 20.618 15.8863 15.8634 15.2554 12.6275 8.2305 9.58524 7.97553 6.93865 6.58401 6.86736 5.6853 5.4954 4.81161 5.70171 4.40252 8.00393 3.67816
threshold=1.0000000180025095e-35 1.0000000180025095e-35 1.0000000180025095e-35 2.5000000000000004 1.0000000180025095e-35 1.5000000000000002 1.0000000180025095e-35 1.0000000180025095e-35 1.5000000000000002 1.0000000180025095e-35 32813.500000000007 1.0000000180025095e-35 1.0000000180025095e-35 1.0000000180025095e-35 1.0000000180025095e-35 1.0000000180025095e-35 3.5000000000000004 1.5000000000000002 2.5000000000000004 1.5000000000000002 1.5000000000000002 1.0000000180025095e-35 1.5000000000000002 32813.500000000007 1.0000000180025095e-35 1.0000000180025095e-35 1.5000000000000002 1.0000000180025095e-35 1.5000000000000002 1.0000000180025095e-35
decision_type=2 2 2 2 2 2 2 2 2 2 2 2 2 2 2 2 2 2 2 2 2 2 2 2 2 2 2 2 2 2
left_child=5 2 3 4 19 6 9 -7 16 10 -1 12 -11 15 29 -6 21 20 -19 -2 27 -5 -23 -3 -10 -20 -27 -17 -29 -9
right_child=1 23 -4 8 13 7 -8 14 24 11 -12 -13 -14 -15 -16 17 -18 18 25 -21 -22 22 -24 -25 -26 26 -28 28 -30 -31
leaf_value=-0.035225534991064802 -0.035599404719625208 0.065916539263996501 0.060500285671759982 0.018485131251954914 -0.023082644591651644 -0.052496071863855576 0.052424926639940805 -0.041134493154234515 0.0061343274035182216 -0.030920792265446601 0.018239510710519623 0.081431570115549731 0.056550663863844088 0.0074904591033120834 -0.016076629127490565 -0.0015285407030964523 0.032821970539250435 -0.012867037166480817 -0.0030015736722358321 -0.015292716543970514 0.0022969520410729672 0.029815766506695304 0.0090423476270340003 0.058625303128278995 0.017418269017412474 -0.011106116567703302 0.0031175763648857405 -0.012860920535160967 0.0020058021582163377 -0.019281360072391871
leaf_weight=1244.7383528798819 190.04190772026777 642.45538255572319 822.41944934427738 877.88258211314678 80.313154481351376 1473.6764152273536 18.379676803946495 237.92269570380449 612.71090074628592 25.626525089144707 15.450893983244894 6.11126385629177 9.1393973976373655 524.65166719257832 101.89850820600986 7966.8059288263321 263.30629569292068 228.62016476690769 4512.4879629760981 64.853575319051743 1874.1143746823072 276.89383246004581 46.459894746541977 457.91925154626369 130.96158894896507 79.632349163293839 611.44594433903694 95.632641941308975 1698.1746875792742 20.950520515441895
leaf_count=9364 1358 2710 3443 3765 589 12603 80 1788 2851 135 71 25 38 2419 532 39592 1096 1224 22886 417 9097 1172 197 1987 587 380 2993 444 8260 153
internal_value=0 0.119408 0.0596449 0.0126581 -0.0299464 -0.834336 -0.642377 -0.972404 0.35853 -0.666264 -0.6914 0.108665 -0.158519 -0.0215992 -0.655759 -0.0268438 0.458108 -0.0247976 -0.0569362 -0.608655 -0.00979234 0.414634 0.53662 1.25765 0.162429 -0.0481314 0.0295719 -0.0204932 0.0242644 -0.787319
internal_weight=0 22057.8 20957.4 20135 17926.8 3153.89 1319.45 1834.45 2208.22 1301.07 1260.19 40.8772 34.7659 17671.9 360.772 17147.2 1464.54 17066.9 5432.19 254.895 11634.7 1201.24 323.354 1100.37 743.672 5203.57 691.078 9760.61 1793.81 258.873
internal_count=132256 107467 102770 99327 89659 24789 9713 15076 9668 9633 9435 198 173 87884 2473 85465 6230 84876 27483 1775 57393 5134 1369 4697 3438 26259 3373 48296 8704 1941
shrinkage=0.05


Tree=17
num_leaves=31
num_cat=0
split_feature=4 0 1 2 2 6 8 11 6 6 6 5 7 5 1 0 2 9 2 5 8 5 6 6 8 4 2 5 9 9
split_gain=2330.04 1380.72 1036.82 266.642 82.6176 79.9571 52.1627 49.1019 45.3956 38.5584 23.6292 16.6432 16.2845 15.3472 15.0703 18.8652 13.5106 12.1057 11.2993 10.7361 10.6572 9.8545 8.14621 11.1911 8.03829 7.93956 9.47335 7.6225 5.93456 5.86716
threshold=1.0000000180025095e-35 1.0000000180025095e-35 1.0000000180025095e-35 2.5000000000000004 1.5000000000000002 1.0000000180025095e-35 1.0000000180025095e-35 1.0000000180025095e-35 1.0000000180025095e-35 1.5000000000000002 1.0000000180025095e-35 1.0000000180025095e-35 32813.500000000007 1.0000000180025095e-35 1.0000000180025095e-35 1.0000000180025095e-35 1.5000000000000002 1.0000000180025095e-35 3.5000000000000004 1.5000000000000002 1.0000000180025095e-35 1.5000000000000002 1.5000000000000002 2.5000000000000004 1.0000000180025095e-35 1.5000000000000002 1.5000000000000002 1.5000000000000002 1.0000000180025095e-35 1.0000000180025095e-35
decision_type=2 2 2 2 2 2 2 2 2 2 2 2 2 2 2 2 2 2 2 2 2 2 2 2 2 2 2 2 2 2
left_child=4 2 3 5 7 27 11 10 20 18 12 -7 -1 -10 15 -12 -13 21 29 -8 -6 22 -18 -24 28 -21 -27 -2 -11 -5
right_child=1 -3 -4 9 8 6 19 -9 13 24 14 16 -14 -15 -16 -17 17 -19 -20 25 -22 -23 23 -25 -26 26 -28 -29 -30 -31
leaf_value=-0.034303843855208516 -0.034649073604993433 0.060741725788046375 0.058225577263747524 0.017479682766180386 -0.052079940025750296 -0.024798033771438688 0.015253190058600805 0.050236588904949891 -0.038451664393771234 0.0034746535788220284 -0.029826360652949715 -0.006462556273183164 0.017269933110226881 -0.015393056128003138 0.077780713765493059 0.054368758921158444 -0.0017730133279667088 0.0019279671259924492 0.031002225192522988 -0.0037420827750980611 0.044125118145906903 0.00047177243390079151 -0.022248526760606419 -0.0044694327938497791 0.021744396274601001 0.00077962059741605572 0.016380971585955764 -0.014667667083082188 0.01560259035537692 0.025336542207861752
leaf_weight=1215.0372579693794 185.6056439653039 1082.6449961811304 812.08457562327385 881.85468273609877 1415.0331517234445 77.688069321215153 483.73094996809959 18.225239306688309 251.95846380293369 531.71101032942533 25.248294994235039 1315.4887902885675 15.501096338033674 101.12267480790615 6.0789706110954276 9.0335641354322416 6741.7215888947248 2596.907521173358 264.78389000892639 175.02458356320858 2.8844961971044532 3418.5616696178913 91.943266615271568 2370.4569558501244 89.559308305382729 183.06230314075947 207.69622430205345 64.252075523138046 124.48338469862938 325.2509408891201
leaf_count=9364 1358 4697 3443 3765 12582 580 2126 80 1941 2494 135 6258 71 532 25 38 33843 12647 1096 814 21 17056 520 12225 388 861 954 417 556 1369
internal_value=0 0.113637 0.0567081 0.0120166 -0.817605 -0.0284799 -0.0205333 -0.625017 -0.957791 0.339111 -0.648389 -0.0341927 -0.673083 -0.636953 0.10451 -0.152804 -0.0320231 -0.0236193 0.43297 0.19568 -1.03768 -0.0364116 -0.0534399 -0.102666 0.153863 0.10216 0.181441 -0.590215 0.115508 0.391934
internal_weight=0 22024.5 20941.9 20129.8 3060.12 17912.1 17662.3 1289.12 1771 2217.64 1270.9 16612.8 1230.54 353.081 40.3608 34.2819 16535.1 15219.6 1471.89 1049.51 1417.92 12622.7 9204.12 2462.4 745.754 565.783 390.759 249.858 656.194 1207.11
internal_count=132256 107467 102770 99327 24789 89659 87884 9713 15076 9668 9633 83129 9435 2473 198 173 82549 76291 6230 4755 12603 63644 46588 12745 3438 2629 1815 1775 3050 5134
shrinkage=0.05


Tree=18
num_leaves=31
num_cat=0
split_feature=4 0 10 11 6 0 7 8 10 9 6 6 8 7 5 5 6 3 8 9 4 5 3 11 3 8 6 4 6 7
split_gain=2162.98 1272.4 309.288 243.271 70.2313 59.5011 48.712 44.7762 30.7274 26.3414 24.4143 23.5814 17.4394 16.3934 14.4529 12.085 11.0424 10.127 9.34064 7.8669 7.68755 7.67648 6.54013 6.30547 6.25318 5.92101 5.77743 5.47752 5.43375 4.88406
threshold=1.0000000180025095e-35 1.0000000180025095e-35 1.0000000180025095e-35 1.0000000180025095e-35 1.0000000180025095e-35 1.0000000180025095e-35 25504.500000000004 1.0000000180025095e-35 1.0000000180025095e-35 1.0000000180025095e-35 1.0000000180025095e-35 1.5000000000000002 1.0000000180025095e-35 521552.50000000006 1.5000000000000002 1.0000000180025095e-35 1.0000000180025095e-35 1.0000000180025095e-35 1.0000000180025095e-35 1.0000000180025095e-35 1.5000000000000002 1.0000000180025095e-35 1.0000000180025095e-35 1.0000000180025095e-35 1.0000000180025095e-35 1.0000000180025095e-35 2.5000000000000004 1.5000000000000002 2.5000000000000004 32813.500000000007
decision_type=2 2 2 2 2 2 2 2 2 2 2 2 2 2 2 2 2 2 2 2 2 2 2 2 2 2 2 2 2 2
left_child=5 2 3 4 18 8 7 9 10 11 13 21 -4 25 22 19 23 26 -2 -12 -16 -6 -9 -7 -23 -1 -13 -11 -19 -3
right_child=1 29 12 -5 6 16 -8 14 -10 27 15 17 -14 -15 20 -17 -18 28 -20 -21 -22 24 -24 -25 -26 -27 -28 -29 -30 -31
leaf_value=-0.041160792953846032 -0.025846512708197752 0.061603807000507764 -0.037612063424643849 0.053246695703760422 -0.018156414683098455 -0.01615070894582939 0.051747895382619383 0.016277408401168179 -0.053542293513096501 0.0075949545181539044 -0.035720343519235885 -0.010263403191281736 0.02112120798602423 0.0325953589214922 -0.00099140754851917532 -0.013217822784046663 0.04886237420215557 -0.024625294583660317 0.021070514790794623 -0.0012534195999393319 0.010793341853573541 0.0031019523224182356 0.034047571858351632 0.046925866325422748 0.016236202310056427 0.023605877930604389 -0.0013056974597027032 0.0021444320878274041 0.0082183128363852703 0.054728017036310063
leaf_weight=2156.5396953597665 231.41167300194502 622.38394287228584 488.61622351408005 244.27414466440678 42.174215450882912 19.04563727974892 51.905781403183937 545.12135112285614 412.95171999186277 2748.3226565420628 214.58352473378181 187.51059268414974 12.974357277154921 7.5820140838623038 198.01628383994102 114.51759472489357 17.870720699429512 13.066434368491171 11.118229001760481 17.939398512244225 459.52676449716091 10143.796135827899 57.212000370025635 5.0027920603752127 91.438217043876648 3.534628599882125 4496.1283077895641 553.83160951733589 347.74964413046837 441.46648816764355
leaf_count=18402 1623 2710 3226 1101 314 122 233 2369 3731 12920 1657 1015 68 31 910 593 78 60 58 129 2099 49243 237 22 411 24 22679 2616 1588 1987
internal_value=0 0.108163 0.0539215 0.0729751 0.0609667 -0.801096 0.0674738 0.0649482 -0.818034 0.0526058 -0.776519 0.0351465 -0.721857 -0.815944 0.247399 -0.530264 0.381862 -0.0208503 -0.473914 -0.661224 0.144888 0.0626314 0.359306 -0.0605779 0.0643858 -0.821096 -0.0332864 0.133616 0.140579 1.17501
internal_weight=0 21988 20924.2 20422.6 20178.3 2969.57 19935.8 19883.9 2927.65 18624 2514.7 15321.9 501.591 2167.66 1259.88 347.041 41.9192 5044.45 242.53 232.523 657.543 10277.4 602.333 24.0484 10235.2 2160.07 4683.64 3302.15 360.816 1063.85
internal_count=132256 107467 102770 99476 98375 24789 96694 96461 24567 90846 20836 75310 3294 18457 5615 2379 222 25342 1681 1786 3009 49968 2606 144 49654 18426 23694 15536 1648 4697
shrinkage=0.05


Tree=19
num_leaves=31
num_cat=0
split_feature=4 1 11 2 7 2 6 2 6 11 8 6 6 5 5 7 1 2 2 8 9 5 5 3 8 6 6 3 3 4
split_gain=2006.72 854.214 464.818 197.424 198.189 84.6032 69.1826 50.7068 46.417 42.4467 39.9084 33.8182 20.7975 16.5258 14.3926 14.3355 14.0006 12.9615 10.5098 9.79579 9.58367 9.49641 9.37938 7.99383 6.493 6.48216 10.0819 6.14529 5.52339 5.21447
threshold=1.0000000180025095e-35 1.0000000180025095e-35 1.0000000180025095e-35 2.5000000000000004 1.0000000180025095e-35 1.5000000000000002 1.0000000180025095e-35 1.5000000000000002 1.0000000180025095e-35 1.0000000180025095e-35 1.0000000180025095e-35 1.5000000000000002 1.0000000180025095e-35 1.0000000180025095e-35 1.0000000180025095e-35 32813.500000000007 1.0000000180025095e-35 1.5000000000000002 3.5000000000000004 1.0000000180025095e-35 1.0000000180025095e-35 1.5000000000000002 1.5000000000000002 1.0000000180025095e-35 1.0000000180025095e-35 1.5000000000000002 2.5000000000000004 1.0000000180025095e-35 1.0000000180025095e-35 1.5000000000000002
decision_type=2 2 2 2 2 2 2 2 2 2 2 2 2 2 2 2 2 2 2 2 2 2 2 2 2 2 2 2 2 2
left_child=5 2 3 4 6 9 17 21 19 12 13 18 15 -9 -10 -1 -14 -2 29 -7 22 -8 25 -12 -13 28 -27 -24 -15 -5
right_child=1 -3 -4 11 -6 8 7 10 14 -11 23 24 16 20 -16 -17 -18 -19 -20 -21 -22 -23 27 -25 -26 26 -28 -29 -30 -31
leaf_value=-0.03223075202045414 0.0099721861184010087 0.055597283504288497 0.055049564728402944 0.02008884540204784 0.050538089790682417 -0.051015342716610346 0.010144763840926888 -0.02506439780013868 -0.036716047407500556 0.047342294335693029 0.01041757158353487 0.0058089845878096513 -0.0073482270724985269 -0.0018020060105398258 -0.014097659292977353 0.016142537910792273 0.07533338399068161 -0.030137172745647672 0.029519293909701261 0.039398755242317451 0.001685744652094234 0.0032444907101291092 0.00024827888196988563 0.036335359862207234 0.020067684889407317 -0.021075893938840629 -0.0040479243680568129 0.013721968207308208 0.014347796775706382 0.011456308227326253
leaf_weight=1150.4570109546185 22.150107339024544 808.03524206578732 423.85449308156967 1005.4779112488031 195.49285553395748 1318.1375022977591 1322.4744622856379 72.12704860419035 239.22725823521614 17.827281609177589 591.85079307854176 659.06815881282091 33.420102015137672 6700.9999833852053 99.621154218912125 15.522504314780234 6.0462778210639945 222.18726688623428 268.29664674401283 3.0025855004787436 2606.8518903404474 800.39122146368027 3338.9652631729841 31.325485780835152 90.846204295754433 90.239733710885048 2367.952075317502 86.827680304646492 53.364981681108475 211.77921722829342
leaf_count=9364 125 3502 1954 4255 896 12582 6074 558 1941 80 2653 3061 173 33646 532 71 25 1665 1106 21 12659 3798 16682 129 390 520 12247 401 248 898
internal_value=0 0.102852 0.0643227 0.0431354 0.00922209 -0.784462 -0.00147252 0.005677 -0.931511 -0.584916 -0.013658 0.323839 -0.60757 -0.0237504 -0.601325 -0.631735 0.106373 -0.530022 0.411227 -1.0162 -0.0214911 0.150863 -0.0328782 0.234408 0.150726 -0.0494906 -0.0934604 0.0117955 -0.0334882 0.371739
internal_weight=0 21970.6 21162.5 20738.7 18503.2 2883.26 18307.7 18063.4 1659.99 1223.27 15940.5 2235.47 1205.45 15317.3 338.848 1165.98 39.4664 244.337 1485.55 1321.14 15245.2 2122.87 12638.3 623.176 749.914 9212.56 2458.19 3425.79 6754.36 1217.26
internal_count=132256 107467 103965 102011 92301 24789 91405 89615 15076 9713 79743 9710 9633 76961 2473 9435 198 1790 6259 12603 76403 9872 63744 2782 3451 46661 12767 17083 33894 5153
shrinkage=0.05


end of trees

feature importances:
LIGHTCOND=130
VEHCOUNT=93
ROADCOND=59
SPEEDING_Y=49
UNDERINFL=48
INATTENTIONIND_Y=40
HITPARKEDCAR_Y=40
CROSSWALKKEY=36
PEDCYLCOUNT=31
PEDCOUNT=30
WEATHER=27
PEDROWNOTGRNT_Y=17

parameters:
[boosting: gbdt]
[objective: binary]
[metric: binary_logloss]
[tree_learner: serial]
[device_type: cpu]
[data: ]
[valid: ]
[num_iterations: 100]
[learning_rate: 0.05]
[num_leaves: 31]
[num_threads: 0]
[max_depth: -1]
[min_data_in_leaf: 20]
[min_sum_hessian_in_leaf: 0.001]
[bagging_fraction: 0.8]
[pos_bagging_fraction: 1]
[neg_bagging_fraction: 1]
[bagging_freq: 5]
[bagging_seed: 3]
[feature_fraction: 0.8]
[feature_fraction_bynode: 1]
[feature_fraction_seed: 2]
[early_stopping_round: 0]
[first_metric_only: 0]
[max_delta_step: 0]
[lambda_l1: 0]
[lambda_l2: 0]
[min_gain_to_split: 0]
[drop_rate: 0.1]
[max_drop: 50]
[skip_drop: 0.5]
[xgboost_dart_mode: 0]
[uniform_drop: 0]
[drop_seed: 4]
[top_rate: 0.2]
[other_rate: 0.1]
[min_data_per_group: 100]
[max_cat_threshold: 32]
[cat_l2: 10]
[cat_smooth: 10]
[max_cat_to_onehot: 4]
[top_k: 20]
[monotone_constraints: ]
[feature_contri: ]
[forcedsplits_filename: ]
[forcedbins_filename: ]
[refit_decay_rate: 0.9]
[cegb_tradeoff: 1]
[cegb_penalty_split: 0]
[cegb_penalty_feature_lazy: ]
[cegb_penalty_feature_coupled: ]
[verbosity: 0]
[max_bin: 255]
[max_bin_by_feature: ]
[min_data_in_bin: 3]
[bin_construct_sample_cnt: 200000]
[histogram_pool_size: -1]
[data_random_seed: 1]
[output_model: LightGBM_model.txt]
[snapshot_freq: -1]
[input_model: ]
[output_result: LightGBM_predict_result.txt]
[initscore_filename: ]
[valid_data_initscores: ]
[pre_partition: 0]
[enable_bundle: 1]
[max_conflict_rate: 0]
[is_enable_sparse: 1]
[sparse_threshold: 0.8]
[use_missing: 1]
[zero_as_missing: 0]
[two_round: 0]
[save_binary: 0]
[header: 0]
[label_column: ]
[weight_column: ]
[group_column: ]
[ignore_column: ]
[categorical_feature: ]
[predict_raw_score: 0]
[predict_leaf_index: 0]
[predict_contrib: 0]
[num_iteration_predict: -1]
[pred_early_stop: 0]
[pred_early_stop_freq: 10]
[pred_early_stop_margin: 10]
[convert_model_language: ]
[convert_model: gbdt_prediction.cpp]
[num_class: 1]
[is_unbalance: 0]
[scale_pos_weight: 1]
[sigmoid: 1]
[boost_from_average: 1]
[reg_sqrt: 0]
[alpha: 0.9]
[fair_c: 1]
[poisson_max_delta_step: 0.7]
[tweedie_variance_power: 1.5]
[max_position: 20]
[lambdamart_norm: 1]
[label_gain: ]
[metric_freq: 1]
[is_provide_training_metric: 0]
[eval_at: ]
[multi_error_top_k: 1]
[num_machines: 1]
[local_listen_port: 12400]
[time_out: 120]
[machine_list_filename: ]
[machines: ]
[gpu_platform_id: -1]
[gpu_device_id: -1]
[gpu_use_dp: 0]

end of parameters

pandas_categorical:[]
